<?xml version="1.0"?>
<opencv_storage>
<cascade>
  <stageType>BOOST</stageType>
  <featureType>HAAR</featureType>
  <height>50</height>
  <width>50</width>
  <stageParams>
    <boostType>GAB</boostType>
    <minHitRate>9.9900001287460327e-01</minHitRate>
    <maxFalseAlarm>5.0000000000000000e-01</maxFalseAlarm>
    <weightTrimRate>9.4999999999999996e-01</weightTrimRate>
    <maxDepth>1</maxDepth>
    <maxWeakCount>100</maxWeakCount></stageParams>
  <featureParams>
    <maxCatCount>0</maxCatCount>
    <featSize>1</featSize>
    <mode>BASIC</mode></featureParams>
  <stageNum>20</stageNum>
  <stages>
    <!-- stage 0 -->
    <_>
      <maxWeakCount>3</maxWeakCount>
      <stageThreshold>-1.0324994325637817e+00</stageThreshold>
      <weakClassifiers>
        <_>
          <internalNodes>
            0 -1 13 -2.7727454900741577e-02</internalNodes>
          <leafValues>
            9.3311035633087158e-01 -9.6415770053863525e-01</leafValues></_>
        <_>
          <internalNodes>
            0 -1 62 -2.7176961302757263e-02</internalNodes>
          <leafValues>
            9.6826928853988647e-01 -8.7514406442642212e-01</leafValues></_>
        <_>
          <internalNodes>
            0 -1 7 -1.2574042193591595e-02</internalNodes>
          <leafValues>
            8.0680227279663086e-01 -9.8272490501403809e-01</leafValues></_></weakClassifiers></_>
    <!-- stage 1 -->
    <_>
      <maxWeakCount>3</maxWeakCount>
      <stageThreshold>-1.0824459791183472e+00</stageThreshold>
      <weakClassifiers>
        <_>
          <internalNodes>
            0 -1 11 -5.7562433183193207e-02</internalNodes>
          <leafValues>
            8.5234898328781128e-01 -8.7142854928970337e-01</leafValues></_>
        <_>
          <internalNodes>
            0 -1 83 5.6630899198353291e-03</internalNodes>
          <leafValues>
            -9.0952712297439575e-01 7.6257365942001343e-01</leafValues></_>
        <_>
          <internalNodes>
            0 -1 6 -1.3397473841905594e-02</internalNodes>
          <leafValues>
            6.9850975275039673e-01 -9.2173242568969727e-01</leafValues></_></weakClassifiers></_>
    <!-- stage 2 -->
    <_>
      <maxWeakCount>3</maxWeakCount>
      <stageThreshold>-8.1748938560485840e-01</stageThreshold>
      <weakClassifiers>
        <_>
          <internalNodes>
            0 -1 12 -6.0256518423557281e-02</internalNodes>
          <leafValues>
            8.6715865135192871e-01 -7.3289901018142700e-01</leafValues></_>
        <_>
          <internalNodes>
            0 -1 84 3.6379341036081314e-03</internalNodes>
          <leafValues>
            -7.3964101076126099e-01 7.3927766084671021e-01</leafValues></_>
        <_>
          <internalNodes>
            0 -1 75 2.1574080165009946e-04</internalNodes>
          <leafValues>
            -7.5230705738067627e-01 6.5505063533782959e-01</leafValues></_></weakClassifiers></_>
    <!-- stage 3 -->
    <_>
      <maxWeakCount>4</maxWeakCount>
      <stageThreshold>-4.4058179855346680e-01</stageThreshold>
      <weakClassifiers>
        <_>
          <internalNodes>
            0 -1 43 2.9447739943861961e-03</internalNodes>
          <leafValues>
            -8.1273406744003296e-01 7.2990351915359497e-01</leafValues></_>
        <_>
          <internalNodes>
            0 -1 3 6.3810264691710472e-03</internalNodes>
          <leafValues>
            -8.0703079700469971e-01 6.4571851491928101e-01</leafValues></_>
        <_>
          <internalNodes>
            0 -1 76 -9.4661314506083727e-04</internalNodes>
          <leafValues>
            6.6488021612167358e-01 -7.6852297782897949e-01</leafValues></_>
        <_>
          <internalNodes>
            0 -1 53 -3.4677248448133469e-02</internalNodes>
          <leafValues>
            5.1430290937423706e-01 -9.3064922094345093e-01</leafValues></_></weakClassifiers></_>
    <!-- stage 4 -->
    <_>
      <maxWeakCount>4</maxWeakCount>
      <stageThreshold>-5.8308380842208862e-01</stageThreshold>
      <weakClassifiers>
        <_>
          <internalNodes>
            0 -1 67 2.8406865894794464e-03</internalNodes>
          <leafValues>
            -6.4285713434219360e-01 7.7037036418914795e-01</leafValues></_>
        <_>
          <internalNodes>
            0 -1 21 -9.3444660305976868e-03</internalNodes>
          <leafValues>
            6.2144088745117188e-01 -7.4582135677337646e-01</leafValues></_>
        <_>
          <internalNodes>
            0 -1 56 1.3599329395219684e-04</internalNodes>
          <leafValues>
            -9.7139132022857666e-01 4.7957965731620789e-01</leafValues></_>
        <_>
          <internalNodes>
            0 -1 46 -9.4314722809940577e-04</internalNodes>
          <leafValues>
            4.0972375869750977e-01 -9.6197658777236938e-01</leafValues></_></weakClassifiers></_>
    <!-- stage 5 -->
    <_>
      <maxWeakCount>5</maxWeakCount>
      <stageThreshold>-1.3057297468185425e+00</stageThreshold>
      <weakClassifiers>
        <_>
          <internalNodes>
            0 -1 79 -1.7295278608798981e-02</internalNodes>
          <leafValues>
            8.4615385532379150e-01 -6.6037738323211670e-01</leafValues></_>
        <_>
          <internalNodes>
            0 -1 70 -3.3332356251776218e-03</internalNodes>
          <leafValues>
            6.7173475027084351e-01 -8.2438129186630249e-01</leafValues></_>
        <_>
          <internalNodes>
            0 -1 44 -6.2753679230809212e-04</internalNodes>
          <leafValues>
            4.7197273373603821e-01 -9.6015548706054688e-01</leafValues></_>
        <_>
          <internalNodes>
            0 -1 0 -3.0072012916207314e-02</internalNodes>
          <leafValues>
            4.7619265317916870e-01 -7.8416764736175537e-01</leafValues></_>
        <_>
          <internalNodes>
            0 -1 22 2.1074098185636103e-04</internalNodes>
          <leafValues>
            -8.3440923690795898e-01 4.9122378230094910e-01</leafValues></_></weakClassifiers></_>
    <!-- stage 6 -->
    <_>
      <maxWeakCount>5</maxWeakCount>
      <stageThreshold>-1.3476984500885010e+00</stageThreshold>
      <weakClassifiers>
        <_>
          <internalNodes>
            0 -1 42 -4.9631614238023758e-03</internalNodes>
          <leafValues>
            7.5886523723602295e-01 -6.8918919563293457e-01</leafValues></_>
        <_>
          <internalNodes>
            0 -1 2 -2.2066775709390640e-02</internalNodes>
          <leafValues>
            6.1107641458511353e-01 -6.6815340518951416e-01</leafValues></_>
        <_>
          <internalNodes>
            0 -1 57 -1.3835133984684944e-02</internalNodes>
          <leafValues>
            5.3316378593444824e-01 -7.3425132036209106e-01</leafValues></_>
        <_>
          <internalNodes>
            0 -1 82 5.1275128498673439e-04</internalNodes>
          <leafValues>
            -8.5632431507110596e-01 4.1385087370872498e-01</leafValues></_>
        <_>
          <internalNodes>
            0 -1 52 4.1966056451201439e-03</internalNodes>
          <leafValues>
            -1. 3.3004456758499146e-01</leafValues></_></weakClassifiers></_>
    <!-- stage 7 -->
    <_>
      <maxWeakCount>5</maxWeakCount>
      <stageThreshold>-1.3126933574676514e+00</stageThreshold>
      <weakClassifiers>
        <_>
          <internalNodes>
            0 -1 14 -6.5772362053394318e-02</internalNodes>
          <leafValues>
            8.7443947792053223e-01 -5.2112674713134766e-01</leafValues></_>
        <_>
          <internalNodes>
            0 -1 87 2.4462430737912655e-03</internalNodes>
          <leafValues>
            -6.6318523883819580e-01 6.3581854104995728e-01</leafValues></_>
        <_>
          <internalNodes>
            0 -1 15 2.0262883044779301e-03</internalNodes>
          <leafValues>
            4.0279740095138550e-01 -9.2140424251556396e-01</leafValues></_>
        <_>
          <internalNodes>
            0 -1 1 -8.5123553872108459e-03</internalNodes>
          <leafValues>
            4.3233016133308411e-01 -8.4771108627319336e-01</leafValues></_>
        <_>
          <internalNodes>
            0 -1 48 -1.9721384160220623e-03</internalNodes>
          <leafValues>
            -9.0851175785064697e-01 3.1653237342834473e-01</leafValues></_></weakClassifiers></_>
    <!-- stage 8 -->
    <_>
      <maxWeakCount>4</maxWeakCount>
      <stageThreshold>-7.3106867074966431e-01</stageThreshold>
      <weakClassifiers>
        <_>
          <internalNodes>
            0 -1 36 1.1176561936736107e-02</internalNodes>
          <leafValues>
            -6.2541806697845459e-01 7.0609319210052490e-01</leafValues></_>
        <_>
          <internalNodes>
            0 -1 86 -2.3629589122720063e-04</internalNodes>
          <leafValues>
            4.2996597290039062e-01 -9.0535098314285278e-01</leafValues></_>
        <_>
          <internalNodes>
            0 -1 28 -2.1057387813925743e-02</internalNodes>
          <leafValues>
            3.7006136775016785e-01 -8.1379669904708862e-01</leafValues></_>
        <_>
          <internalNodes>
            0 -1 73 4.5651211985386908e-04</internalNodes>
          <leafValues>
            -7.8512513637542725e-01 4.2963904142379761e-01</leafValues></_></weakClassifiers></_>
    <!-- stage 9 -->
    <_>
      <maxWeakCount>5</maxWeakCount>
      <stageThreshold>-5.5414825677871704e-01</stageThreshold>
      <weakClassifiers>
        <_>
          <internalNodes>
            0 -1 39 2.0258363336324692e-02</internalNodes>
          <leafValues>
            -4.9019607901573181e-01 8.3710408210754395e-01</leafValues></_>
        <_>
          <internalNodes>
            0 -1 63 -1.1262530460953712e-04</internalNodes>
          <leafValues>
            4.3371760845184326e-01 -9.4189029932022095e-01</leafValues></_>
        <_>
          <internalNodes>
            0 -1 10 -7.3300872463732958e-04</internalNodes>
          <leafValues>
            2.9745599627494812e-01 -9.5878213644027710e-01</leafValues></_>
        <_>
          <internalNodes>
            0 -1 30 -8.8659214088693261e-04</internalNodes>
          <leafValues>
            -9.4700050354003906e-01 2.7629959583282471e-01</leafValues></_>
        <_>
          <internalNodes>
            0 -1 20 1.1887052096426487e-03</internalNodes>
          <leafValues>
            3.0418258905410767e-01 -9.1035950183868408e-01</leafValues></_></weakClassifiers></_>
    <!-- stage 10 -->
    <_>
      <maxWeakCount>4</maxWeakCount>
      <stageThreshold>-7.1431213617324829e-01</stageThreshold>
      <weakClassifiers>
        <_>
          <internalNodes>
            0 -1 66 -3.7341631948947906e-02</internalNodes>
          <leafValues>
            7.3015874624252319e-01 -5.3374230861663818e-01</leafValues></_>
        <_>
          <internalNodes>
            0 -1 47 -9.4858766533434391e-04</internalNodes>
          <leafValues>
            -8.4115099906921387e-01 4.2241925001144409e-01</leafValues></_>
        <_>
          <internalNodes>
            0 -1 25 -1.4505888102576137e-03</internalNodes>
          <leafValues>
            -9.6392941474914551e-01 3.0826264619827271e-01</leafValues></_>
        <_>
          <internalNodes>
            0 -1 8 4.7272811643779278e-03</internalNodes>
          <leafValues>
            3.5231858491897583e-01 -9.0552496910095215e-01</leafValues></_></weakClassifiers></_>
    <!-- stage 11 -->
    <_>
      <maxWeakCount>6</maxWeakCount>
      <stageThreshold>-1.6413743495941162e+00</stageThreshold>
      <weakClassifiers>
        <_>
          <internalNodes>
            0 -1 60 -3.4707915619947016e-04</internalNodes>
          <leafValues>
            6.7910450696945190e-01 -5.5483871698379517e-01</leafValues></_>
        <_>
          <internalNodes>
            0 -1 18 -2.3411340080201626e-03</internalNodes>
          <leafValues>
            -8.4941023588180542e-01 4.5137906074523926e-01</leafValues></_>
        <_>
          <internalNodes>
            0 -1 55 -8.7857339531183243e-04</internalNodes>
          <leafValues>
            -9.5393896102905273e-01 3.2780647277832031e-01</leafValues></_>
        <_>
          <internalNodes>
            0 -1 38 2.0985037554055452e-03</internalNodes>
          <leafValues>
            2.6239007711410522e-01 -9.3493312597274780e-01</leafValues></_>
        <_>
          <internalNodes>
            0 -1 9 -1.0856263339519501e-02</internalNodes>
          <leafValues>
            9.3771064281463623e-01 -3.5975405573844910e-01</leafValues></_>
        <_>
          <internalNodes>
            0 -1 81 -2.1156165748834610e-02</internalNodes>
          <leafValues>
            7.7802026271820068e-01 -4.8661166429519653e-01</leafValues></_></weakClassifiers></_>
    <!-- stage 12 -->
    <_>
      <maxWeakCount>6</maxWeakCount>
      <stageThreshold>-1.2499816417694092e+00</stageThreshold>
      <weakClassifiers>
        <_>
          <internalNodes>
            0 -1 17 -6.5675176680088043e-02</internalNodes>
          <leafValues>
            9.2349725961685181e-01 -4.0253165364265442e-01</leafValues></_>
        <_>
          <internalNodes>
            0 -1 64 -2.2665061987936497e-03</internalNodes>
          <leafValues>
            4.3477326631546021e-01 -8.4546768665313721e-01</leafValues></_>
        <_>
          <internalNodes>
            0 -1 77 -7.3217693716287613e-03</internalNodes>
          <leafValues>
            3.9249879121780396e-01 -7.2146475315093994e-01</leafValues></_>
        <_>
          <internalNodes>
            0 -1 61 2.1658421028405428e-03</internalNodes>
          <leafValues>
            3.9728614687919617e-01 -8.6655521392822266e-01</leafValues></_>
        <_>
          <internalNodes>
            0 -1 5 9.2082731425762177e-02</internalNodes>
          <leafValues>
            -3.9879256486892700e-01 9.0275639295578003e-01</leafValues></_>
        <_>
          <internalNodes>
            0 -1 16 -1.4576271176338196e-01</internalNodes>
          <leafValues>
            7.6945078372955322e-01 -4.0937423706054688e-01</leafValues></_></weakClassifiers></_>
    <!-- stage 13 -->
    <_>
      <maxWeakCount>5</maxWeakCount>
      <stageThreshold>-1.5851033926010132e+00</stageThreshold>
      <weakClassifiers>
        <_>
          <internalNodes>
            0 -1 85 4.0612211450934410e-03</internalNodes>
          <leafValues>
            -8.1818181276321411e-01 4.9051490426063538e-01</leafValues></_>
        <_>
          <internalNodes>
            0 -1 27 2.3716851137578487e-03</internalNodes>
          <leafValues>
            3.7313801050186157e-01 -8.4287559986114502e-01</leafValues></_>
        <_>
          <internalNodes>
            0 -1 45 2.7625079383142292e-04</internalNodes>
          <leafValues>
            -7.8956490755081177e-01 3.6417463421821594e-01</leafValues></_>
        <_>
          <internalNodes>
            0 -1 19 -6.0871671885251999e-03</internalNodes>
          <leafValues>
            -7.4400568008422852e-01 3.6359596252441406e-01</leafValues></_>
        <_>
          <internalNodes>
            0 -1 41 -1.2270554434508085e-03</internalNodes>
          <leafValues>
            3.2129201292991638e-01 -9.1518574953079224e-01</leafValues></_></weakClassifiers></_>
    <!-- stage 14 -->
    <_>
      <maxWeakCount>6</maxWeakCount>
      <stageThreshold>-6.4071637392044067e-01</stageThreshold>
      <weakClassifiers>
        <_>
          <internalNodes>
            0 -1 72 -2.2331874817609787e-02</internalNodes>
          <leafValues>
            7.6785713434219360e-01 -4.5762711763381958e-01</leafValues></_>
        <_>
          <internalNodes>
            0 -1 35 -2.1147826919332147e-04</internalNodes>
          <leafValues>
            -7.1409982442855835e-01 4.6436601877212524e-01</leafValues></_>
        <_>
          <internalNodes>
            0 -1 49 3.2768159144325182e-05</internalNodes>
          <leafValues>
            3.8739708065986633e-01 -8.1235837936401367e-01</leafValues></_>
        <_>
          <internalNodes>
            0 -1 4 -5.5311765754595399e-04</internalNodes>
          <leafValues>
            4.7028499841690063e-01 -7.2905838489532471e-01</leafValues></_>
        <_>
          <internalNodes>
            0 -1 31 2.1696214389521629e-04</internalNodes>
          <leafValues>
            -7.7777391672134399e-01 3.9480268955230713e-01</leafValues></_>
        <_>
          <internalNodes>
            0 -1 51 -2.8733131475746632e-03</internalNodes>
          <leafValues>
            4.7786915302276611e-01 -6.5130680799484253e-01</leafValues></_></weakClassifiers></_>
    <!-- stage 15 -->
    <_>
      <maxWeakCount>3</maxWeakCount>
      <stageThreshold>-1.0439847707748413e+00</stageThreshold>
      <weakClassifiers>
        <_>
          <internalNodes>
            0 -1 68 -8.3146191900596023e-04</internalNodes>
          <leafValues>
            -8.9999997615814209e-01 5.8100557327270508e-01</leafValues></_>
        <_>
          <internalNodes>
            0 -1 32 9.6634738147258759e-03</internalNodes>
          <leafValues>
            -6.1157560348510742e-01 6.7101085186004639e-01</leafValues></_>
        <_>
          <internalNodes>
            0 -1 69 1.4218120486475527e-04</internalNodes>
          <leafValues>
            -9.1153442859649658e-01 4.6759089827537537e-01</leafValues></_></weakClassifiers></_>
    <!-- stage 16 -->
    <_>
      <maxWeakCount>4</maxWeakCount>
      <stageThreshold>-7.8501760959625244e-01</stageThreshold>
      <weakClassifiers>
        <_>
          <internalNodes>
            0 -1 23 -7.3451371863484383e-03</internalNodes>
          <leafValues>
            4.7826087474822998e-01 -7.9047620296478271e-01</leafValues></_>
        <_>
          <internalNodes>
            0 -1 74 2.0665447227656841e-03</internalNodes>
          <leafValues>
            -6.1377131938934326e-01 5.7209646701812744e-01</leafValues></_>
        <_>
          <internalNodes>
            0 -1 26 -6.5036490559577942e-03</internalNodes>
          <leafValues>
            -9.7562146186828613e-01 3.1410741806030273e-01</leafValues></_>
        <_>
          <internalNodes>
            0 -1 40 6.2928572297096252e-03</internalNodes>
          <leafValues>
            3.2611435651779175e-01 -9.8334759473800659e-01</leafValues></_></weakClassifiers></_>
    <!-- stage 17 -->
    <_>
      <maxWeakCount>6</maxWeakCount>
      <stageThreshold>-8.8949412107467651e-01</stageThreshold>
      <weakClassifiers>
        <_>
          <internalNodes>
            0 -1 58 -3.7786320317536592e-03</internalNodes>
          <leafValues>
            9.4059407711029053e-01 -4.7872340679168701e-01</leafValues></_>
        <_>
          <internalNodes>
            0 -1 54 4.6025691553950310e-03</internalNodes>
          <leafValues>
            4.3434545397758484e-01 -9.9183285236358643e-01</leafValues></_>
        <_>
          <internalNodes>
            0 -1 71 3.2039242796599865e-05</internalNodes>
          <leafValues>
            -8.0476057529449463e-01 3.8274896144866943e-01</leafValues></_>
        <_>
          <internalNodes>
            0 -1 50 -1.4852404128760099e-03</internalNodes>
          <leafValues>
            -8.9723032712936401e-01 3.8848188519477844e-01</leafValues></_>
        <_>
          <internalNodes>
            0 -1 80 -1.5322868712246418e-03</internalNodes>
          <leafValues>
            -7.5371426343917847e-01 3.5223588347434998e-01</leafValues></_>
        <_>
          <internalNodes>
            0 -1 78 -1.0032784193754196e-02</internalNodes>
          <leafValues>
            5.0463891029357910e-01 -6.4964324235916138e-01</leafValues></_></weakClassifiers></_>
    <!-- stage 18 -->
    <_>
      <maxWeakCount>4</maxWeakCount>
      <stageThreshold>-6.3775312900543213e-01</stageThreshold>
      <weakClassifiers>
        <_>
          <internalNodes>
            0 -1 37 1.5641534700989723e-02</internalNodes>
          <leafValues>
            -5.7014924287796021e-01 8.2716047763824463e-01</leafValues></_>
        <_>
          <internalNodes>
            0 -1 65 -2.2411015816032887e-03</internalNodes>
          <leafValues>
            -9.3806904554367065e-01 5.0265252590179443e-01</leafValues></_>
        <_>
          <internalNodes>
            0 -1 24 3.1551817664876580e-04</internalNodes>
          <leafValues>
            -7.4053347110748291e-01 4.2448645830154419e-01</leafValues></_>
        <_>
          <internalNodes>
            0 -1 29 -1.4407930895686150e-02</internalNodes>
          <leafValues>
            4.4597870111465454e-01 -8.6036485433578491e-01</leafValues></_></weakClassifiers></_>
    <!-- stage 19 -->
    <_>
      <maxWeakCount>3</maxWeakCount>
      <stageThreshold>-1.0301163196563721e+00</stageThreshold>
      <weakClassifiers>
        <_>
          <internalNodes>
            0 -1 33 -2.0147399045526981e-03</internalNodes>
          <leafValues>
            -9.4422310590744019e-01 7.5535166263580322e-01</leafValues></_>
        <_>
          <internalNodes>
            0 -1 59 -7.7127767726778984e-03</internalNodes>
          <leafValues>
            -8.8036775588989258e-01 5.9710854291915894e-01</leafValues></_>
        <_>
          <internalNodes>
            0 -1 34 -5.8821626007556915e-03</internalNodes>
          <leafValues>
            7.9447454214096069e-01 -5.4573422670364380e-01</leafValues></_></weakClassifiers></_></stages>
  <features>
    <_>
      <rects>
        <_>
          4 15 27 11 -1.</_>
        <_>
          13 15 9 11 3.</_></rects>
      <tilted>0</tilted></_>
    <_>
      <rects>
        <_>
          4 28 33 7 -1.</_>
        <_>
          15 28 11 7 3.</_></rects>
      <tilted>0</tilted></_>
    <_>
      <rects>
        <_>
          5 18 27 6 -1.</_>
        <_>
          14 18 9 6 3.</_></rects>
      <tilted>0</tilted></_>
    <_>
      <rects>
        <_>
          5 24 15 7 -1.</_>
        <_>
          10 24 5 7 3.</_></rects>
      <tilted>0</tilted></_>
    <_>
      <rects>
        <_>
          6 17 27 2 -1.</_>
        <_>
          6 18 27 1 2.</_></rects>
      <tilted>0</tilted></_>
    <_>
      <rects>
        <_>
          7 2 7 48 -1.</_>
        <_>
          7 18 7 16 3.</_></rects>
      <tilted>0</tilted></_>
    <_>
      <rects>
        <_>
          7 12 31 8 -1.</_>
        <_>
          7 16 31 4 2.</_></rects>
      <tilted>0</tilted></_>
    <_>
      <rects>
        <_>
          7 26 24 13 -1.</_>
        <_>
          15 26 8 13 3.</_></rects>
      <tilted>0</tilted></_>
    <_>
      <rects>
        <_>
          8 15 34 18 -1.</_>
        <_>
          25 15 17 18 2.</_></rects>
      <tilted>0</tilted></_>
    <_>
      <rects>
        <_>
          8 21 2 22 -1.</_>
        <_>
          8 32 2 11 2.</_></rects>
      <tilted>0</tilted></_>
    <_>
      <rects>
        <_>
          8 25 42 1 -1.</_>
        <_>
          22 25 14 1 3.</_></rects>
      <tilted>0</tilted></_>
    <_>
      <rects>
        <_>
          9 9 18 35 -1.</_>
        <_>
          15 9 6 35 3.</_></rects>
      <tilted>0</tilted></_>
    <_>
      <rects>
        <_>
          11 7 15 37 -1.</_>
        <_>
          16 7 5 37 3.</_></rects>
      <tilted>0</tilted></_>
    <_>
      <rects>
        <_>
          11 7 15 40 -1.</_>
        <_>
          16 7 5 40 3.</_></rects>
      <tilted>0</tilted></_>
    <_>
      <rects>
        <_>
          11 15 15 18 -1.</_>
        <_>
          16 15 5 18 3.</_></rects>
      <tilted>0</tilted></_>
    <_>
      <rects>
        <_>
          11 16 28 16 -1.</_>
        <_>
          11 16 14 8 2.</_>
        <_>
          25 24 14 8 2.</_></rects>
      <tilted>0</tilted></_>
    <_>
      <rects>
        <_>
          12 1 31 22 -1.</_>
        <_>
          12 12 31 11 2.</_></rects>
      <tilted>0</tilted></_>
    <_>
      <rects>
        <_>
          12 18 12 18 -1.</_>
        <_>
          16 18 4 18 3.</_></rects>
      <tilted>0</tilted></_>
    <_>
      <rects>
        <_>
          12 21 12 15 -1.</_>
        <_>
          12 26 12 5 3.</_></rects>
      <tilted>0</tilted></_>
    <_>
      <rects>
        <_>
          12 27 25 12 -1.</_>
        <_>
          12 31 25 4 3.</_></rects>
      <tilted>0</tilted></_>
    <_>
      <rects>
        <_>
          12 30 30 1 -1.</_>
        <_>
          27 30 15 1 2.</_></rects>
      <tilted>0</tilted></_>
    <_>
      <rects>
        <_>
          13 2 6 28 -1.</_>
        <_>
          16 2 3 28 2.</_></rects>
      <tilted>0</tilted></_>
    <_>
      <rects>
        <_>
          13 19 4 6 -1.</_>
        <_>
          13 22 4 3 2.</_></rects>
      <tilted>0</tilted></_>
    <_>
      <rects>
        <_>
          13 23 6 25 -1.</_>
        <_>
          16 23 3 25 2.</_></rects>
      <tilted>0</tilted></_>
    <_>
      <rects>
        <_>
          13 28 16 10 -1.</_>
        <_>
          13 28 8 5 2.</_>
        <_>
          21 33 8 5 2.</_></rects>
      <tilted>0</tilted></_>
    <_>
      <rects>
        <_>
          14 28 20 3 -1.</_>
        <_>
          24 28 10 3 2.</_></rects>
      <tilted>0</tilted></_>
    <_>
      <rects>
        <_>
          15 21 28 7 -1.</_>
        <_>
          29 21 14 7 2.</_></rects>
      <tilted>0</tilted></_>
    <_>
      <rects>
        <_>
          15 28 20 12 -1.</_>
        <_>
          15 32 20 4 3.</_></rects>
      <tilted>0</tilted></_>
    <_>
      <rects>
        <_>
          16 10 30 18 -1.</_>
        <_>
          16 16 30 6 3.</_></rects>
      <tilted>0</tilted></_>
    <_>
      <rects>
        <_>
          16 18 33 11 -1.</_>
        <_>
          27 18 11 11 3.</_></rects>
      <tilted>0</tilted></_>
    <_>
      <rects>
        <_>
          16 24 16 4 -1.</_>
        <_>
          24 24 8 4 2.</_></rects>
      <tilted>0</tilted></_>
    <_>
      <rects>
        <_>
          16 33 18 1 -1.</_>
        <_>
          22 33 6 1 3.</_></rects>
      <tilted>0</tilted></_>
    <_>
      <rects>
        <_>
          17 0 6 30 -1.</_>
        <_>
          17 0 3 15 2.</_>
        <_>
          20 15 3 15 2.</_></rects>
      <tilted>0</tilted></_>
    <_>
      <rects>
        <_>
          17 20 6 24 -1.</_>
        <_>
          17 32 6 12 2.</_></rects>
      <tilted>0</tilted></_>
    <_>
      <rects>
        <_>
          17 32 6 18 -1.</_>
        <_>
          17 32 3 9 2.</_>
        <_>
          20 41 3 9 2.</_></rects>
      <tilted>0</tilted></_>
    <_>
      <rects>
        <_>
          17 38 13 2 -1.</_>
        <_>
          17 39 13 1 2.</_></rects>
      <tilted>0</tilted></_>
    <_>
      <rects>
        <_>
          18 1 6 30 -1.</_>
        <_>
          18 1 3 15 2.</_>
        <_>
          21 16 3 15 2.</_></rects>
      <tilted>0</tilted></_>
    <_>
      <rects>
        <_>
          18 15 9 25 -1.</_>
        <_>
          21 15 3 25 3.</_></rects>
      <tilted>0</tilted></_>
    <_>
      <rects>
        <_>
          18 16 22 6 -1.</_>
        <_>
          29 16 11 6 2.</_></rects>
      <tilted>0</tilted></_>
    <_>
      <rects>
        <_>
          18 19 9 21 -1.</_>
        <_>
          21 19 3 21 3.</_></rects>
      <tilted>0</tilted></_>
    <_>
      <rects>
        <_>
          18 21 22 10 -1.</_>
        <_>
          29 21 11 10 2.</_></rects>
      <tilted>0</tilted></_>
    <_>
      <rects>
        <_>
          18 22 13 21 -1.</_>
        <_>
          18 29 13 7 3.</_></rects>
      <tilted>0</tilted></_>
    <_>
      <rects>
        <_>
          18 28 6 22 -1.</_>
        <_>
          18 28 3 11 2.</_>
        <_>
          21 39 3 11 2.</_></rects>
      <tilted>0</tilted></_>
    <_>
      <rects>
        <_>
          19 0 4 26 -1.</_>
        <_>
          19 0 2 13 2.</_>
        <_>
          21 13 2 13 2.</_></rects>
      <tilted>0</tilted></_>
    <_>
      <rects>
        <_>
          19 12 3 8 -1.</_>
        <_>
          19 16 3 4 2.</_></rects>
      <tilted>0</tilted></_>
    <_>
      <rects>
        <_>
          19 14 8 4 -1.</_>
        <_>
          19 14 4 2 2.</_>
        <_>
          23 16 4 2 2.</_></rects>
      <tilted>0</tilted></_>
    <_>
      <rects>
        <_>
          19 14 11 6 -1.</_>
        <_>
          19 17 11 3 2.</_></rects>
      <tilted>0</tilted></_>
    <_>
      <rects>
        <_>
          19 28 18 4 -1.</_>
        <_>
          19 30 18 2 2.</_></rects>
      <tilted>0</tilted></_>
    <_>
      <rects>
        <_>
          20 18 10 28 -1.</_>
        <_>
          20 32 10 14 2.</_></rects>
      <tilted>0</tilted></_>
    <_>
      <rects>
        <_>
          20 22 8 2 -1.</_>
        <_>
          20 22 4 1 2.</_>
        <_>
          24 23 4 1 2.</_></rects>
      <tilted>0</tilted></_>
    <_>
      <rects>
        <_>
          20 22 17 18 -1.</_>
        <_>
          20 31 17 9 2.</_></rects>
      <tilted>0</tilted></_>
    <_>
      <rects>
        <_>
          21 5 22 8 -1.</_>
        <_>
          21 5 11 4 2.</_>
        <_>
          32 9 11 4 2.</_></rects>
      <tilted>0</tilted></_>
    <_>
      <rects>
        <_>
          21 12 16 30 -1.</_>
        <_>
          21 12 8 15 2.</_>
        <_>
          29 27 8 15 2.</_></rects>
      <tilted>0</tilted></_>
    <_>
      <rects>
        <_>
          22 9 24 19 -1.</_>
        <_>
          30 9 8 19 3.</_></rects>
      <tilted>0</tilted></_>
    <_>
      <rects>
        <_>
          22 10 7 36 -1.</_>
        <_>
          22 28 7 18 2.</_></rects>
      <tilted>0</tilted></_>
    <_>
      <rects>
        <_>
          22 28 16 8 -1.</_>
        <_>
          22 32 16 4 2.</_></rects>
      <tilted>0</tilted></_>
    <_>
      <rects>
        <_>
          22 31 10 8 -1.</_>
        <_>
          22 35 10 4 2.</_></rects>
      <tilted>0</tilted></_>
    <_>
      <rects>
        <_>
          23 24 27 8 -1.</_>
        <_>
          32 24 9 8 3.</_></rects>
      <tilted>0</tilted></_>
    <_>
      <rects>
        <_>
          23 25 6 12 -1.</_>
        <_>
          25 25 2 12 3.</_></rects>
      <tilted>0</tilted></_>
    <_>
      <rects>
        <_>
          23 26 15 15 -1.</_>
        <_>
          23 31 15 5 3.</_></rects>
      <tilted>0</tilted></_>
    <_>
      <rects>
        <_>
          23 29 4 2 -1.</_>
        <_>
          25 29 2 2 2.</_></rects>
      <tilted>0</tilted></_>
    <_>
      <rects>
        <_>
          23 31 4 8 -1.</_>
        <_>
          23 35 4 4 2.</_></rects>
      <tilted>0</tilted></_>
    <_>
      <rects>
        <_>
          24 8 18 18 -1.</_>
        <_>
          30 8 6 18 3.</_></rects>
      <tilted>0</tilted></_>
    <_>
      <rects>
        <_>
          24 19 5 27 -1.</_>
        <_>
          24 28 5 9 3.</_></rects>
      <tilted>0</tilted></_>
    <_>
      <rects>
        <_>
          24 22 20 15 -1.</_>
        <_>
          24 27 20 5 3.</_></rects>
      <tilted>0</tilted></_>
    <_>
      <rects>
        <_>
          24 29 10 11 -1.</_>
        <_>
          29 29 5 11 2.</_></rects>
      <tilted>0</tilted></_>
    <_>
      <rects>
        <_>
          26 17 15 10 -1.</_>
        <_>
          31 17 5 10 3.</_></rects>
      <tilted>0</tilted></_>
    <_>
      <rects>
        <_>
          27 16 4 16 -1.</_>
        <_>
          27 16 2 8 2.</_>
        <_>
          29 24 2 8 2.</_></rects>
      <tilted>0</tilted></_>
    <_>
      <rects>
        <_>
          27 24 8 4 -1.</_>
        <_>
          27 26 8 2 2.</_></rects>
      <tilted>0</tilted></_>
    <_>
      <rects>
        <_>
          27 31 5 8 -1.</_>
        <_>
          27 35 5 4 2.</_></rects>
      <tilted>0</tilted></_>
    <_>
      <rects>
        <_>
          28 2 6 24 -1.</_>
        <_>
          28 2 3 12 2.</_>
        <_>
          31 14 3 12 2.</_></rects>
      <tilted>0</tilted></_>
    <_>
      <rects>
        <_>
          28 19 1 12 -1.</_>
        <_>
          28 23 1 4 3.</_></rects>
      <tilted>0</tilted></_>
    <_>
      <rects>
        <_>
          29 10 5 21 -1.</_>
        <_>
          29 17 5 7 3.</_></rects>
      <tilted>0</tilted></_>
    <_>
      <rects>
        <_>
          29 24 8 8 -1.</_>
        <_>
          29 28 8 4 2.</_></rects>
      <tilted>0</tilted></_>
    <_>
      <rects>
        <_>
          29 25 6 8 -1.</_>
        <_>
          29 25 3 4 2.</_>
        <_>
          32 29 3 4 2.</_></rects>
      <tilted>0</tilted></_>
    <_>
      <rects>
        <_>
          30 22 2 12 -1.</_>
        <_>
          30 22 1 6 2.</_>
        <_>
          31 28 1 6 2.</_></rects>
      <tilted>0</tilted></_>
    <_>
      <rects>
        <_>
          30 26 8 4 -1.</_>
        <_>
          34 26 4 4 2.</_></rects>
      <tilted>0</tilted></_>
    <_>
      <rects>
        <_>
          30 26 15 9 -1.</_>
        <_>
          35 26 5 9 3.</_></rects>
      <tilted>0</tilted></_>
    <_>
      <rects>
        <_>
          30 27 15 15 -1.</_>
        <_>
          35 27 5 15 3.</_></rects>
      <tilted>0</tilted></_>
    <_>
      <rects>
        <_>
          31 16 10 22 -1.</_>
        <_>
          31 16 5 11 2.</_>
        <_>
          36 27 5 11 2.</_></rects>
      <tilted>0</tilted></_>
    <_>
      <rects>
        <_>
          31 17 12 8 -1.</_>
        <_>
          31 21 12 4 2.</_></rects>
      <tilted>0</tilted></_>
    <_>
      <rects>
        <_>
          33 0 3 22 -1.</_>
        <_>
          33 11 3 11 2.</_></rects>
      <tilted>0</tilted></_>
    <_>
      <rects>
        <_>
          33 18 4 6 -1.</_>
        <_>
          35 18 2 6 2.</_></rects>
      <tilted>0</tilted></_>
    <_>
      <rects>
        <_>
          33 22 12 10 -1.</_>
        <_>
          39 22 6 10 2.</_></rects>
      <tilted>0</tilted></_>
    <_>
      <rects>
        <_>
          34 5 4 22 -1.</_>
        <_>
          36 5 2 22 2.</_></rects>
      <tilted>0</tilted></_>
    <_>
      <rects>
        <_>
          34 17 6 23 -1.</_>
        <_>
          37 17 3 23 2.</_></rects>
      <tilted>0</tilted></_>
    <_>
      <rects>
        <_>
          37 25 6 4 -1.</_>
        <_>
          37 27 6 2 2.</_></rects>
      <tilted>0</tilted></_>
    <_>
      <rects>
        <_>
          37 27 8 5 -1.</_>
        <_>
          41 27 4 5 2.</_></rects>
      <tilted>0</tilted></_></features></cascade>
</opencv_storage>
