<?xml version="1.0"?>
<opencv_storage>
<cascade>
  <stageType>BOOST</stageType>
  <featureType>HAAR</featureType>
  <height>24</height>
  <width>24</width>
  <stageParams>
    <boostType>GAB</boostType>
    <minHitRate>9.9900001287460327e-01</minHitRate>
    <maxFalseAlarm>5.0000000000000000e-01</maxFalseAlarm>
    <weightTrimRate>9.4999999999999996e-01</weightTrimRate>
    <maxDepth>1</maxDepth>
    <maxWeakCount>100</maxWeakCount></stageParams>
  <featureParams>
    <maxCatCount>0</maxCatCount>
    <featSize>1</featSize>
    <mode>BASIC</mode></featureParams>
  <stageNum>14</stageNum>
  <stages>
    <!-- stage 0 -->
    <_>
      <maxWeakCount>4</maxWeakCount>
      <stageThreshold>-2.6999902725219727e+00</stageThreshold>
      <weakClassifiers>
        <_>
          <internalNodes>
            0 -1 22 -4.9093093723058701e-02</internalNodes>
          <leafValues>
            8.0952382087707520e-01 -9.8758167028427124e-01</leafValues></_>
        <_>
          <internalNodes>
            0 -1 13 -6.9785982370376587e-02</internalNodes>
          <leafValues>
            3.7173029780387878e-01 -9.7645068168640137e-01</leafValues></_>
        <_>
          <internalNodes>
            0 -1 50 -2.5560515001416206e-02</internalNodes>
          <leafValues>
            2.9910275340080261e-01 -9.8719817399978638e-01</leafValues></_>
        <_>
          <internalNodes>
            0 -1 9 -3.7314198911190033e-02</internalNodes>
          <leafValues>
            2.5124022364616394e-01 -9.8491275310516357e-01</leafValues></_></weakClassifiers></_>
    <!-- stage 1 -->
    <_>
      <maxWeakCount>4</maxWeakCount>
      <stageThreshold>-2.5137863159179688e+00</stageThreshold>
      <weakClassifiers>
        <_>
          <internalNodes>
            0 -1 19 -8.8300906121730804e-02</internalNodes>
          <leafValues>
            2.6890757679939270e-01 -9.8116606473922729e-01</leafValues></_>
        <_>
          <internalNodes>
            0 -1 65 -1.5263918787240982e-02</internalNodes>
          <leafValues>
            3.2700124382972717e-01 -9.1115093231201172e-01</leafValues></_>
        <_>
          <internalNodes>
            0 -1 26 -6.4237443730235100e-03</internalNodes>
          <leafValues>
            2.9637882113456726e-01 -8.7118583917617798e-01</leafValues></_>
        <_>
          <internalNodes>
            0 -1 3 -1.6642047092318535e-02</internalNodes>
          <leafValues>
            4.2571753263473511e-01 -9.1784822940826416e-01</leafValues></_></weakClassifiers></_>
    <!-- stage 2 -->
    <_>
      <maxWeakCount>6</maxWeakCount>
      <stageThreshold>-2.9674925804138184e+00</stageThreshold>
      <weakClassifiers>
        <_>
          <internalNodes>
            0 -1 51 -6.6911086440086365e-02</internalNodes>
          <leafValues>
            -9.8143234848976135e-02 -9.8409676551818848e-01</leafValues></_>
        <_>
          <internalNodes>
            0 -1 34 1.9142730161547661e-02</internalNodes>
          <leafValues>
            -9.4454044103622437e-01 -7.2813653387129307e-03</leafValues></_>
        <_>
          <internalNodes>
            0 -1 64 -1.0906408540904522e-02</internalNodes>
          <leafValues>
            3.7858766317367554e-01 -8.0118399858474731e-01</leafValues></_>
        <_>
          <internalNodes>
            0 -1 11 -2.6892181485891342e-02</internalNodes>
          <leafValues>
            4.3259790539741516e-01 -8.1354546546936035e-01</leafValues></_>
        <_>
          <internalNodes>
            0 -1 59 -6.1642089858651161e-03</internalNodes>
          <leafValues>
            3.7449625134468079e-01 -9.1172957420349121e-01</leafValues></_>
        <_>
          <internalNodes>
            0 -1 49 6.5029051620513201e-04</internalNodes>
          <leafValues>
            -9.6828436851501465e-01 3.0783185362815857e-01</leafValues></_></weakClassifiers></_>
    <!-- stage 3 -->
    <_>
      <maxWeakCount>4</maxWeakCount>
      <stageThreshold>-2.5272033214569092e+00</stageThreshold>
      <weakClassifiers>
        <_>
          <internalNodes>
            0 -1 20 -9.3370988965034485e-02</internalNodes>
          <leafValues>
            5.9509199857711792e-01 -9.7786277532577515e-01</leafValues></_>
        <_>
          <internalNodes>
            0 -1 51 -6.6858664155006409e-02</internalNodes>
          <leafValues>
            4.1999110579490662e-01 -9.0372222661972046e-01</leafValues></_>
        <_>
          <internalNodes>
            0 -1 33 1.7407268285751343e-02</internalNodes>
          <leafValues>
            -8.5915756225585938e-01 4.1883313655853271e-01</leafValues></_>
        <_>
          <internalNodes>
            0 -1 15 -1.3529454357922077e-02</internalNodes>
          <leafValues>
            2.1353913843631744e-01 -9.3490123748779297e-01</leafValues></_></weakClassifiers></_>
    <!-- stage 4 -->
    <_>
      <maxWeakCount>4</maxWeakCount>
      <stageThreshold>-2.5649867057800293e+00</stageThreshold>
      <weakClassifiers>
        <_>
          <internalNodes>
            0 -1 24 -6.5559461712837219e-02</internalNodes>
          <leafValues>
            1.4285714924335480e-01 -9.7806692123413086e-01</leafValues></_>
        <_>
          <internalNodes>
            0 -1 56 -4.2302705347537994e-02</internalNodes>
          <leafValues>
            2.0773828029632568e-01 -9.0263885259628296e-01</leafValues></_>
        <_>
          <internalNodes>
            0 -1 45 -2.3421976715326309e-02</internalNodes>
          <leafValues>
            2.5988844037055969e-01 -7.7604806423187256e-01</leafValues></_>
        <_>
          <internalNodes>
            0 -1 46 -1.9210355821996927e-04</internalNodes>
          <leafValues>
            2.3261973261833191e-01 -9.4416928291320801e-01</leafValues></_></weakClassifiers></_>
    <!-- stage 5 -->
    <_>
      <maxWeakCount>6</maxWeakCount>
      <stageThreshold>-3.0740468502044678e+00</stageThreshold>
      <weakClassifiers>
        <_>
          <internalNodes>
            0 -1 66 -1.6969475895166397e-02</internalNodes>
          <leafValues>
            9.1954022645950317e-02 -9.7214078903198242e-01</leafValues></_>
        <_>
          <internalNodes>
            0 -1 41 -3.6476287059485912e-03</internalNodes>
          <leafValues>
            -1.9689063727855682e-01 -9.3374150991439819e-01</leafValues></_>
        <_>
          <internalNodes>
            0 -1 54 -1.5212671831250191e-02</internalNodes>
          <leafValues>
            1.6890902817249298e-01 -8.4542423486709595e-01</leafValues></_>
        <_>
          <internalNodes>
            0 -1 5 -1.0927964933216572e-02</internalNodes>
          <leafValues>
            2.8540608286857605e-01 -9.1136962175369263e-01</leafValues></_>
        <_>
          <internalNodes>
            0 -1 63 -1.2903291732072830e-02</internalNodes>
          <leafValues>
            2.6148414611816406e-01 -9.8396742343902588e-01</leafValues></_>
        <_>
          <internalNodes>
            0 -1 69 -3.9266652311198413e-04</internalNodes>
          <leafValues>
            3.2714501023292542e-01 -8.4148257970809937e-01</leafValues></_></weakClassifiers></_>
    <!-- stage 6 -->
    <_>
      <maxWeakCount>6</maxWeakCount>
      <stageThreshold>-2.5120651721954346e+00</stageThreshold>
      <weakClassifiers>
        <_>
          <internalNodes>
            0 -1 10 -4.9930259585380554e-02</internalNodes>
          <leafValues>
            2.5333333015441895e-01 -9.7203254699707031e-01</leafValues></_>
        <_>
          <internalNodes>
            0 -1 39 1.5473763458430767e-02</internalNodes>
          <leafValues>
            -8.8728874921798706e-01 2.6114565134048462e-01</leafValues></_>
        <_>
          <internalNodes>
            0 -1 29 -5.2198362536728382e-03</internalNodes>
          <leafValues>
            2.6980274915695190e-01 -8.3046150207519531e-01</leafValues></_>
        <_>
          <internalNodes>
            0 -1 0 -4.2270815372467041e-01</internalNodes>
          <leafValues>
            7.3276829719543457e-01 -5.0051766633987427e-01</leafValues></_>
        <_>
          <internalNodes>
            0 -1 55 9.2318153474479914e-04</internalNodes>
          <leafValues>
            -7.5217920541763306e-01 4.6203264594078064e-01</leafValues></_>
        <_>
          <internalNodes>
            0 -1 18 1.7657872522249818e-03</internalNodes>
          <leafValues>
            3.3015018701553345e-01 -9.0922516584396362e-01</leafValues></_></weakClassifiers></_>
    <!-- stage 7 -->
    <_>
      <maxWeakCount>4</maxWeakCount>
      <stageThreshold>-2.6169760227203369e+00</stageThreshold>
      <weakClassifiers>
        <_>
          <internalNodes>
            0 -1 7 -8.1311091780662537e-02</internalNodes>
          <leafValues>
            -7.7519379556179047e-03 -9.6721047163009644e-01</leafValues></_>
        <_>
          <internalNodes>
            0 -1 31 -2.9321508482098579e-02</internalNodes>
          <leafValues>
            -2.6503515243530273e-01 -9.2258596420288086e-01</leafValues></_>
        <_>
          <internalNodes>
            0 -1 38 1.0727196786319837e-04</internalNodes>
          <leafValues>
            -9.2122977972030640e-01 1.0192890651524067e-02</leafValues></_>
        <_>
          <internalNodes>
            0 -1 43 -2.3975406656973064e-04</internalNodes>
          <leafValues>
            1.9405025243759155e-01 -9.7406464815139771e-01</leafValues></_></weakClassifiers></_>
    <!-- stage 8 -->
    <_>
      <maxWeakCount>6</maxWeakCount>
      <stageThreshold>-3.0047504901885986e+00</stageThreshold>
      <weakClassifiers>
        <_>
          <internalNodes>
            0 -1 36 6.7138746380805969e-02</internalNodes>
          <leafValues>
            -9.7540301084518433e-01 -4.3269231915473938e-01</leafValues></_>
        <_>
          <internalNodes>
            0 -1 14 -9.8023951053619385e-02</internalNodes>
          <leafValues>
            7.6177483424544334e-03 -8.9086341857910156e-01</leafValues></_>
        <_>
          <internalNodes>
            0 -1 73 4.0281293913722038e-03</internalNodes>
          <leafValues>
            -7.6071757078170776e-01 1.8083262443542480e-01</leafValues></_>
        <_>
          <internalNodes>
            0 -1 35 8.3763655275106430e-03</internalNodes>
          <leafValues>
            -7.9424107074737549e-01 3.0379152297973633e-01</leafValues></_>
        <_>
          <internalNodes>
            0 -1 68 2.3860910005168989e-05</internalNodes>
          <leafValues>
            -8.0847543478012085e-01 2.9586830735206604e-01</leafValues></_>
        <_>
          <internalNodes>
            0 -1 67 -1.9790180958807468e-03</internalNodes>
          <leafValues>
            3.5500457882881165e-01 -7.7787494659423828e-01</leafValues></_></weakClassifiers></_>
    <!-- stage 9 -->
    <_>
      <maxWeakCount>6</maxWeakCount>
      <stageThreshold>-2.8464958667755127e+00</stageThreshold>
      <weakClassifiers>
        <_>
          <internalNodes>
            0 -1 6 1.1653530597686768e-01</internalNodes>
          <leafValues>
            -9.7154772281646729e-01 -1.5981735289096832e-01</leafValues></_>
        <_>
          <internalNodes>
            0 -1 58 9.1248434036970139e-03</internalNodes>
          <leafValues>
            -8.7856388092041016e-01 7.0250712335109711e-02</leafValues></_>
        <_>
          <internalNodes>
            0 -1 12 -6.8472377955913544e-02</internalNodes>
          <leafValues>
            7.9743236303329468e-02 -8.6487925052642822e-01</leafValues></_>
        <_>
          <internalNodes>
            0 -1 61 -4.4286303222179413e-02</internalNodes>
          <leafValues>
            6.0385453701019287e-01 -4.8463049530982971e-01</leafValues></_>
        <_>
          <internalNodes>
            0 -1 71 -3.1388702336698771e-04</internalNodes>
          <leafValues>
            3.0958199501037598e-01 -8.6954987049102783e-01</leafValues></_>
        <_>
          <internalNodes>
            0 -1 37 1.1388137936592102e-02</internalNodes>
          <leafValues>
            2.7805289626121521e-01 -9.4593328237533569e-01</leafValues></_></weakClassifiers></_>
    <!-- stage 10 -->
    <_>
      <maxWeakCount>6</maxWeakCount>
      <stageThreshold>-3.1255812644958496e+00</stageThreshold>
      <weakClassifiers>
        <_>
          <internalNodes>
            0 -1 72 6.7280516028404236e-02</internalNodes>
          <leafValues>
            -9.6680432558059692e-01 2.3232322931289673e-01</leafValues></_>
        <_>
          <internalNodes>
            0 -1 47 -7.8390594571828842e-03</internalNodes>
          <leafValues>
            1.3812193274497986e-01 -8.6503511667251587e-01</leafValues></_>
        <_>
          <internalNodes>
            0 -1 28 -5.0643170252442360e-03</internalNodes>
          <leafValues>
            -9.6487265825271606e-01 1.1176685988903046e-01</leafValues></_>
        <_>
          <internalNodes>
            0 -1 8 -5.9958234429359436e-02</internalNodes>
          <leafValues>
            1.5330950915813446e-01 -8.2993876934051514e-01</leafValues></_>
        <_>
          <internalNodes>
            0 -1 53 4.4818809255957603e-03</internalNodes>
          <leafValues>
            -8.8014763593673706e-01 2.3245580494403839e-01</leafValues></_>
        <_>
          <internalNodes>
            0 -1 60 5.1968166371807456e-04</internalNodes>
          <leafValues>
            -7.4276524782180786e-01 3.0457764863967896e-01</leafValues></_></weakClassifiers></_>
    <!-- stage 11 -->
    <_>
      <maxWeakCount>5</maxWeakCount>
      <stageThreshold>-2.4699332714080811e+00</stageThreshold>
      <weakClassifiers>
        <_>
          <internalNodes>
            0 -1 1 1.7116099596023560e-01</internalNodes>
          <leafValues>
            -9.6711218357086182e-01 2.0000000298023224e-01</leafValues></_>
        <_>
          <internalNodes>
            0 -1 23 -7.4271187186241150e-02</internalNodes>
          <leafValues>
            -9.0959995985031128e-02 -8.8689219951629639e-01</leafValues></_>
        <_>
          <internalNodes>
            0 -1 32 1.7386659979820251e-02</internalNodes>
          <leafValues>
            -8.0468034744262695e-01 1.5481767058372498e-01</leafValues></_>
        <_>
          <internalNodes>
            0 -1 30 -5.5543864145874977e-03</internalNodes>
          <leafValues>
            -9.5160186290740967e-01 1.8104711174964905e-01</leafValues></_>
        <_>
          <internalNodes>
            0 -1 17 3.4950524568557739e-03</internalNodes>
          <leafValues>
            1.8085536360740662e-01 -9.7822999954223633e-01</leafValues></_></weakClassifiers></_>
    <!-- stage 12 -->
    <_>
      <maxWeakCount>8</maxWeakCount>
      <stageThreshold>-3.3305358886718750e+00</stageThreshold>
      <weakClassifiers>
        <_>
          <internalNodes>
            0 -1 72 6.4038246870040894e-02</internalNodes>
          <leafValues>
            -9.6761596202850342e-01 -1.6249999403953552e-01</leafValues></_>
        <_>
          <internalNodes>
            0 -1 52 1.4584721997380257e-02</internalNodes>
          <leafValues>
            -8.8415396213531494e-01 -3.0639927834272385e-02</leafValues></_>
        <_>
          <internalNodes>
            0 -1 57 5.4850481683388352e-04</internalNodes>
          <leafValues>
            -8.0217516422271729e-01 4.4253252446651459e-02</leafValues></_>
        <_>
          <internalNodes>
            0 -1 25 -4.2448909953236580e-03</internalNodes>
          <leafValues>
            -9.4806522130966187e-01 1.6942213475704193e-01</leafValues></_>
        <_>
          <internalNodes>
            0 -1 44 5.4968282347545028e-04</internalNodes>
          <leafValues>
            -9.1411197185516357e-01 2.2303386032581329e-01</leafValues></_>
        <_>
          <internalNodes>
            0 -1 70 2.3547088494524360e-04</internalNodes>
          <leafValues>
            -8.9991241693496704e-01 1.9479189813137054e-01</leafValues></_>
        <_>
          <internalNodes>
            0 -1 4 -2.0929630845785141e-02</internalNodes>
          <leafValues>
            2.2444474697113037e-01 -8.6900073289871216e-01</leafValues></_>
        <_>
          <internalNodes>
            0 -1 62 -1.2991461157798767e-01</internalNodes>
          <leafValues>
            5.8621484041213989e-01 -3.9483800530433655e-01</leafValues></_></weakClassifiers></_>
    <!-- stage 13 -->
    <_>
      <maxWeakCount>7</maxWeakCount>
      <stageThreshold>-2.9312555789947510e+00</stageThreshold>
      <weakClassifiers>
        <_>
          <internalNodes>
            0 -1 2 2.2016006708145142e-01</internalNodes>
          <leafValues>
            -9.6871161460876465e-01 -3.7759336829185486e-01</leafValues></_>
        <_>
          <internalNodes>
            0 -1 48 -3.8805741351097822e-03</internalNodes>
          <leafValues>
            1.6080105304718018e-01 -8.4531253576278687e-01</leafValues></_>
        <_>
          <internalNodes>
            0 -1 40 -2.7186344377696514e-03</internalNodes>
          <leafValues>
            9.2201121151447296e-02 -7.8013479709625244e-01</leafValues></_>
        <_>
          <internalNodes>
            0 -1 21 5.2643456729128957e-04</internalNodes>
          <leafValues>
            1.4915962517261505e-01 -9.6036875247955322e-01</leafValues></_>
        <_>
          <internalNodes>
            0 -1 27 -6.1640366911888123e-03</internalNodes>
          <leafValues>
            -1. 1.6052022576332092e-01</leafValues></_>
        <_>
          <internalNodes>
            0 -1 16 3.5122754052281380e-03</internalNodes>
          <leafValues>
            1.7387744784355164e-01 -8.2307934761047363e-01</leafValues></_>
        <_>
          <internalNodes>
            0 -1 42 3.0154474079608917e-03</internalNodes>
          <leafValues>
            1.7630289494991302e-01 -8.9072781801223755e-01</leafValues></_></weakClassifiers></_></stages>
  <features>
    <_>
      <rects>
        <_>
          0 1 24 19 -1.</_>
        <_>
          8 1 8 19 3.</_></rects>
      <tilted>0</tilted></_>
    <_>
      <rects>
        <_>
          0 4 24 3 -1.</_>
        <_>
          8 4 8 3 3.</_></rects>
      <tilted>0</tilted></_>
    <_>
      <rects>
        <_>
          2 0 6 24 -1.</_>
        <_>
          2 8 6 8 3.</_></rects>
      <tilted>0</tilted></_>
    <_>
      <rects>
        <_>
          2 6 16 4 -1.</_>
        <_>
          2 8 16 2 2.</_></rects>
      <tilted>0</tilted></_>
    <_>
      <rects>
        <_>
          2 8 15 6 -1.</_>
        <_>
          7 8 5 6 3.</_></rects>
      <tilted>0</tilted></_>
    <_>
      <rects>
        <_>
          2 9 18 6 -1.</_>
        <_>
          8 9 6 6 3.</_></rects>
      <tilted>0</tilted></_>
    <_>
      <rects>
        <_>
          3 2 3 21 -1.</_>
        <_>
          3 9 3 7 3.</_></rects>
      <tilted>0</tilted></_>
    <_>
      <rects>
        <_>
          3 4 8 8 -1.</_>
        <_>
          3 4 4 4 2.</_>
        <_>
          7 8 4 4 2.</_></rects>
      <tilted>0</tilted></_>
    <_>
      <rects>
        <_>
          3 4 12 13 -1.</_>
        <_>
          7 4 4 13 3.</_></rects>
      <tilted>0</tilted></_>
    <_>
      <rects>
        <_>
          3 8 12 11 -1.</_>
        <_>
          7 8 4 11 3.</_></rects>
      <tilted>0</tilted></_>
    <_>
      <rects>
        <_>
          4 4 6 8 -1.</_>
        <_>
          4 4 3 4 2.</_>
        <_>
          7 8 3 4 2.</_></rects>
      <tilted>0</tilted></_>
    <_>
      <rects>
        <_>
          4 4 9 7 -1.</_>
        <_>
          7 4 3 7 3.</_></rects>
      <tilted>0</tilted></_>
    <_>
      <rects>
        <_>
          4 4 9 17 -1.</_>
        <_>
          7 4 3 17 3.</_></rects>
      <tilted>0</tilted></_>
    <_>
      <rects>
        <_>
          4 5 9 16 -1.</_>
        <_>
          7 5 3 16 3.</_></rects>
      <tilted>0</tilted></_>
    <_>
      <rects>
        <_>
          4 8 9 8 -1.</_>
        <_>
          7 8 3 8 3.</_></rects>
      <tilted>0</tilted></_>
    <_>
      <rects>
        <_>
          5 5 6 9 -1.</_>
        <_>
          5 8 6 3 3.</_></rects>
      <tilted>0</tilted></_>
    <_>
      <rects>
        <_>
          5 8 14 8 -1.</_>
        <_>
          5 8 7 4 2.</_>
        <_>
          12 12 7 4 2.</_></rects>
      <tilted>0</tilted></_>
    <_>
      <rects>
        <_>
          5 11 14 5 -1.</_>
        <_>
          12 11 7 5 2.</_></rects>
      <tilted>0</tilted></_>
    <_>
      <rects>
        <_>
          5 12 7 6 -1.</_>
        <_>
          5 15 7 3 2.</_></rects>
      <tilted>0</tilted></_>
    <_>
      <rects>
        <_>
          6 7 6 10 -1.</_>
        <_>
          8 7 2 10 3.</_></rects>
      <tilted>0</tilted></_>
    <_>
      <rects>
        <_>
          6 8 6 9 -1.</_>
        <_>
          8 8 2 9 3.</_></rects>
      <tilted>0</tilted></_>
    <_>
      <rects>
        <_>
          6 8 8 8 -1.</_>
        <_>
          6 8 4 4 2.</_>
        <_>
          10 12 4 4 2.</_></rects>
      <tilted>0</tilted></_>
    <_>
      <rects>
        <_>
          6 9 6 8 -1.</_>
        <_>
          8 9 2 8 3.</_></rects>
      <tilted>0</tilted></_>
    <_>
      <rects>
        <_>
          6 9 6 9 -1.</_>
        <_>
          8 9 2 9 3.</_></rects>
      <tilted>0</tilted></_>
    <_>
      <rects>
        <_>
          6 10 6 6 -1.</_>
        <_>
          8 10 2 6 3.</_></rects>
      <tilted>0</tilted></_>
    <_>
      <rects>
        <_>
          6 13 10 3 -1.</_>
        <_>
          11 13 5 3 2.</_></rects>
      <tilted>0</tilted></_>
    <_>
      <rects>
        <_>
          7 2 2 15 -1.</_>
        <_>
          8 2 1 15 2.</_></rects>
      <tilted>0</tilted></_>
    <_>
      <rects>
        <_>
          7 7 12 12 -1.</_>
        <_>
          7 7 6 6 2.</_>
        <_>
          13 13 6 6 2.</_></rects>
      <tilted>0</tilted></_>
    <_>
      <rects>
        <_>
          7 9 14 5 -1.</_>
        <_>
          14 9 7 5 2.</_></rects>
      <tilted>0</tilted></_>
    <_>
      <rects>
        <_>
          7 10 2 12 -1.</_>
        <_>
          8 10 1 12 2.</_></rects>
      <tilted>0</tilted></_>
    <_>
      <rects>
        <_>
          7 10 10 8 -1.</_>
        <_>
          12 10 5 8 2.</_></rects>
      <tilted>0</tilted></_>
    <_>
      <rects>
        <_>
          8 0 1 24 -1.</_>
        <_>
          8 8 1 8 3.</_></rects>
      <tilted>0</tilted></_>
    <_>
      <rects>
        <_>
          8 0 4 14 -1.</_>
        <_>
          8 0 2 7 2.</_>
        <_>
          10 7 2 7 2.</_></rects>
      <tilted>0</tilted></_>
    <_>
      <rects>
        <_>
          8 0 4 16 -1.</_>
        <_>
          8 0 2 8 2.</_>
        <_>
          10 8 2 8 2.</_></rects>
      <tilted>0</tilted></_>
    <_>
      <rects>
        <_>
          8 1 4 12 -1.</_>
        <_>
          8 1 2 6 2.</_>
        <_>
          10 7 2 6 2.</_></rects>
      <tilted>0</tilted></_>
    <_>
      <rects>
        <_>
          8 2 6 12 -1.</_>
        <_>
          8 2 3 6 2.</_>
        <_>
          11 8 3 6 2.</_></rects>
      <tilted>0</tilted></_>
    <_>
      <rects>
        <_>
          8 8 9 4 -1.</_>
        <_>
          11 8 3 4 3.</_></rects>
      <tilted>0</tilted></_>
    <_>
      <rects>
        <_>
          8 9 12 5 -1.</_>
        <_>
          14 9 6 5 2.</_></rects>
      <tilted>0</tilted></_>
    <_>
      <rects>
        <_>
          9 7 2 1 -1.</_>
        <_>
          10 7 1 1 2.</_></rects>
      <tilted>0</tilted></_>
    <_>
      <rects>
        <_>
          9 10 3 9 -1.</_>
        <_>
          10 10 1 9 3.</_></rects>
      <tilted>0</tilted></_>
    <_>
      <rects>
        <_>
          9 12 2 12 -1.</_>
        <_>
          9 12 1 6 2.</_>
        <_>
          10 18 1 6 2.</_></rects>
      <tilted>0</tilted></_>
    <_>
      <rects>
        <_>
          9 14 2 10 -1.</_>
        <_>
          9 14 1 5 2.</_>
        <_>
          10 19 1 5 2.</_></rects>
      <tilted>0</tilted></_>
    <_>
      <rects>
        <_>
          10 4 4 12 -1.</_>
        <_>
          10 8 4 4 3.</_></rects>
      <tilted>0</tilted></_>
    <_>
      <rects>
        <_>
          10 4 4 15 -1.</_>
        <_>
          10 9 4 5 3.</_></rects>
      <tilted>0</tilted></_>
    <_>
      <rects>
        <_>
          10 13 4 8 -1.</_>
        <_>
          10 17 4 4 2.</_></rects>
      <tilted>0</tilted></_>
    <_>
      <rects>
        <_>
          11 1 6 12 -1.</_>
        <_>
          11 1 3 6 2.</_>
        <_>
          14 7 3 6 2.</_></rects>
      <tilted>0</tilted></_>
    <_>
      <rects>
        <_>
          11 10 3 6 -1.</_>
        <_>
          11 13 3 3 2.</_></rects>
      <tilted>0</tilted></_>
    <_>
      <rects>
        <_>
          11 12 3 3 -1.</_>
        <_>
          12 12 1 3 3.</_></rects>
      <tilted>0</tilted></_>
    <_>
      <rects>
        <_>
          11 13 3 1 -1.</_>
        <_>
          12 13 1 1 3.</_></rects>
      <tilted>0</tilted></_>
    <_>
      <rects>
        <_>
          11 14 4 6 -1.</_>
        <_>
          11 17 4 3 2.</_></rects>
      <tilted>0</tilted></_>
    <_>
      <rects>
        <_>
          12 4 9 10 -1.</_>
        <_>
          15 4 3 10 3.</_></rects>
      <tilted>0</tilted></_>
    <_>
      <rects>
        <_>
          12 8 9 5 -1.</_>
        <_>
          15 8 3 5 3.</_></rects>
      <tilted>0</tilted></_>
    <_>
      <rects>
        <_>
          12 9 4 6 -1.</_>
        <_>
          12 9 2 3 2.</_>
        <_>
          14 12 2 3 2.</_></rects>
      <tilted>0</tilted></_>
    <_>
      <rects>
        <_>
          12 11 12 2 -1.</_>
        <_>
          18 11 6 2 2.</_></rects>
      <tilted>0</tilted></_>
    <_>
      <rects>
        <_>
          13 4 6 7 -1.</_>
        <_>
          15 4 2 7 3.</_></rects>
      <tilted>0</tilted></_>
    <_>
      <rects>
        <_>
          13 7 2 8 -1.</_>
        <_>
          13 7 1 4 2.</_>
        <_>
          14 11 1 4 2.</_></rects>
      <tilted>0</tilted></_>
    <_>
      <rects>
        <_>
          13 7 6 6 -1.</_>
        <_>
          15 7 2 6 3.</_></rects>
      <tilted>0</tilted></_>
    <_>
      <rects>
        <_>
          13 9 1 6 -1.</_>
        <_>
          13 11 1 2 3.</_></rects>
      <tilted>0</tilted></_>
    <_>
      <rects>
        <_>
          13 12 4 4 -1.</_>
        <_>
          13 12 2 2 2.</_>
        <_>
          15 14 2 2 2.</_></rects>
      <tilted>0</tilted></_>
    <_>
      <rects>
        <_>
          13 12 9 4 -1.</_>
        <_>
          16 12 3 4 3.</_></rects>
      <tilted>0</tilted></_>
    <_>
      <rects>
        <_>
          14 12 2 4 -1.</_>
        <_>
          14 12 1 2 2.</_>
        <_>
          15 14 1 2 2.</_></rects>
      <tilted>0</tilted></_>
    <_>
      <rects>
        <_>
          15 0 3 10 -1.</_>
        <_>
          15 5 3 5 2.</_></rects>
      <tilted>0</tilted></_>
    <_>
      <rects>
        <_>
          15 0 6 14 -1.</_>
        <_>
          15 7 6 7 2.</_></rects>
      <tilted>0</tilted></_>
    <_>
      <rects>
        <_>
          15 2 2 18 -1.</_>
        <_>
          15 8 2 6 3.</_></rects>
      <tilted>0</tilted></_>
    <_>
      <rects>
        <_>
          15 8 4 8 -1.</_>
        <_>
          15 8 2 4 2.</_>
        <_>
          17 12 2 4 2.</_></rects>
      <tilted>0</tilted></_>
    <_>
      <rects>
        <_>
          15 10 4 6 -1.</_>
        <_>
          15 10 2 3 2.</_>
        <_>
          17 13 2 3 2.</_></rects>
      <tilted>0</tilted></_>
    <_>
      <rects>
        <_>
          15 11 4 4 -1.</_>
        <_>
          15 11 2 2 2.</_>
        <_>
          17 13 2 2 2.</_></rects>
      <tilted>0</tilted></_>
    <_>
      <rects>
        <_>
          15 11 5 6 -1.</_>
        <_>
          15 13 5 2 3.</_></rects>
      <tilted>0</tilted></_>
    <_>
      <rects>
        <_>
          15 12 1 2 -1.</_>
        <_>
          15 13 1 1 2.</_></rects>
      <tilted>0</tilted></_>
    <_>
      <rects>
        <_>
          15 12 2 3 -1.</_>
        <_>
          16 12 1 3 2.</_></rects>
      <tilted>0</tilted></_>
    <_>
      <rects>
        <_>
          16 10 6 2 -1.</_>
        <_>
          18 10 2 2 3.</_></rects>
      <tilted>0</tilted></_>
    <_>
      <rects>
        <_>
          17 12 4 2 -1.</_>
        <_>
          17 13 4 1 2.</_></rects>
      <tilted>0</tilted></_>
    <_>
      <rects>
        <_>
          18 1 3 14 -1.</_>
        <_>
          18 8 3 7 2.</_></rects>
      <tilted>0</tilted></_>
    <_>
      <rects>
        <_>
          18 11 6 4 -1.</_>
        <_>
          18 11 3 2 2.</_>
        <_>
          21 13 3 2 2.</_></rects>
      <tilted>0</tilted></_></features></cascade>
</opencv_storage>
