<?xml version="1.0"?>
<opencv_storage>
<cascade>
  <stageType>BOOST</stageType>
  <featureType>LBP</featureType>
  <height>50</height>
  <width>50</width>
  <stageParams>
    <boostType>GAB</boostType>
    <minHitRate>9.9900001287460327e-01</minHitRate>
    <maxFalseAlarm>5.0000000000000000e-01</maxFalseAlarm>
    <weightTrimRate>9.4999999999999996e-01</weightTrimRate>
    <maxDepth>1</maxDepth>
    <maxWeakCount>100</maxWeakCount></stageParams>
  <featureParams>
    <maxCatCount>256</maxCatCount>
    <featSize>1</featSize></featureParams>
  <stageNum>20</stageNum>
  <stages>
    <!-- stage 0 -->
    <_>
      <maxWeakCount>4</maxWeakCount>
      <stageThreshold>-1.7580156326293945e+00</stageThreshold>
      <weakClassifiers>
        <_>
          <internalNodes>
            0 -1 49 -69207057 -586307185 -2146992126 -673197265
            -858009201 339789963 -607919873 1464860671</internalNodes>
          <leafValues>
            -9.0933054685592651e-01 8.2025676965713501e-01</leafValues></_>
        <_>
          <internalNodes>
            0 -1 57 -237111313 -171583537 -997469812 -284175089
            1403255551 478929291 -372245618 1670381422</internalNodes>
          <leafValues>
            -8.5390728712081909e-01 7.1737986803054810e-01</leafValues></_>
        <_>
          <internalNodes>
            0 -1 43 -129 -386 -1073741825 -1073741825 -185178840
            1425825012 -587588528 -33554945</internalNodes>
          <leafValues>
            -7.0811492204666138e-01 8.2502573728561401e-01</leafValues></_>
        <_>
          <internalNodes>
            0 -1 76 -2360582 -522729890 203547806 101171918 -217587075
            -788017981 -646451281 -10485761</internalNodes>
          <leafValues>
            -8.0041444301605225e-01 7.1333706378936768e-01</leafValues></_></weakClassifiers></_>
    <!-- stage 1 -->
    <_>
      <maxWeakCount>3</maxWeakCount>
      <stageThreshold>-9.5520383119583130e-01</stageThreshold>
      <weakClassifiers>
        <_>
          <internalNodes>
            0 -1 34 2004876287 2132398541 268636294 1930412991
            -174342481 2074853531 1657644015 2008018863</internalNodes>
          <leafValues>
            -8.4275710582733154e-01 7.3028463125228882e-01</leafValues></_>
        <_>
          <internalNodes>
            0 -1 15 -10487297 -2117186 1359205855 2106573134 764132303
            1246625802 193694671 1196411855</internalNodes>
          <leafValues>
            -8.6973196268081665e-01 6.4809960126876831e-01</leafValues></_>
        <_>
          <internalNodes>
            0 -1 26 -207891465 1985536137 -2147431937 -1328491822
            -637359813 -1098317824 -89396481 -99639381</internalNodes>
          <leafValues>
            -6.9275778532028198e-01 7.5728523731231689e-01</leafValues></_></weakClassifiers></_>
    <!-- stage 2 -->
    <_>
      <maxWeakCount>4</maxWeakCount>
      <stageThreshold>-1.5304373502731323e+00</stageThreshold>
      <weakClassifiers>
        <_>
          <internalNodes>
            0 -1 41 -4097 -76550193 -33584433 -1 -168296449 1363539839
            -4609 -4097</internalNodes>
          <leafValues>
            -6.6930520534515381e-01 8.8180762529373169e-01</leafValues></_>
        <_>
          <internalNodes>
            0 -1 5 -11011154 -537013489 -2078111232 -96019782 -618922114
            -133444105 -138462206 -385</internalNodes>
          <leafValues>
            -7.6997023820877075e-01 6.6340470314025879e-01</leafValues></_>
        <_>
          <internalNodes>
            0 -1 79 -8913921 -821566473 754091522 33746448 -605555777
            1390657906 -1635254296 -16777229</internalNodes>
          <leafValues>
            -7.2345840930938721e-01 6.9450330734252930e-01</leafValues></_>
        <_>
          <internalNodes>
            0 -1 4 -958400537 -1884305369 -2063347379 -1411412577
            -883693329 1254867625 84384085 -808454257</internalNodes>
          <leafValues>
            -7.1103721857070923e-01 6.3229644298553467e-01</leafValues></_></weakClassifiers></_>
    <!-- stage 3 -->
    <_>
      <maxWeakCount>5</maxWeakCount>
      <stageThreshold>-9.2098218202590942e-01</stageThreshold>
      <weakClassifiers>
        <_>
          <internalNodes>
            0 -1 41 -1 -169345141 -29489 -828433 -184614977 1430778703
            -16401 -2105345</internalNodes>
          <leafValues>
            -6.4595443010330200e-01 8.1962561607360840e-01</leafValues></_>
        <_>
          <internalNodes>
            0 -1 85 -817105933 -1357654701 -1886877648 -2086940286
            -1974734381 -1182557581 -1412699149 -5129</internalNodes>
          <leafValues>
            -7.2400355339050293e-01 6.5787506103515625e-01</leafValues></_>
        <_>
          <internalNodes>
            0 -1 8 -706805826 -648088618 -1044359398 -738733297
            -441457766 -1063549949 -282070494 -36182017</internalNodes>
          <leafValues>
            -7.4179333448410034e-01 6.1182975769042969e-01</leafValues></_>
        <_>
          <internalNodes>
            0 -1 78 -134221065 -2141226017 -531115050 -1867521085
            -649394164 2065367435 -87041843 -188220433</internalNodes>
          <leafValues>
            -6.7217975854873657e-01 6.3956904411315918e-01</leafValues></_>
        <_>
          <internalNodes>
            0 -1 87 -244907825 -640302901 286343313 -1588862470
            -485646200 1518960795 -2109242741 -521999378</internalNodes>
          <leafValues>
            -8.0242305994033813e-01 5.7310128211975098e-01</leafValues></_></weakClassifiers></_>
    <!-- stage 4 -->
    <_>
      <maxWeakCount>5</maxWeakCount>
      <stageThreshold>-2.0441951751708984e+00</stageThreshold>
      <weakClassifiers>
        <_>
          <internalNodes>
            0 -1 46 -73203718 -72155341 -786445 -135045277 -851969
            -794542 -786433 -557065</internalNodes>
          <leafValues>
            -6.7862409353256226e-01 7.0279896259307861e-01</leafValues></_>
        <_>
          <internalNodes>
            0 -1 113 -174063617 -876505895 -754328869 -543304545
            -1180707869 -879001444 278089904 -811606793</internalNodes>
          <leafValues>
            -6.4635759592056274e-01 7.0129734277725220e-01</leafValues></_>
        <_>
          <internalNodes>
            0 -1 40 -687868093 -707796225 1367470101 -136320777
            1129833079 336840794 -2003311746 2012737535</internalNodes>
          <leafValues>
            -7.4804741144180298e-01 6.1249631643295288e-01</leafValues></_>
        <_>
          <internalNodes>
            0 -1 93 -137367554 1934950487 -2130386872 118745674
            -786711345 1531035873 -766582712 -262438</internalNodes>
          <leafValues>
            -7.0564132928848267e-01 5.7985353469848633e-01</leafValues></_>
        <_>
          <internalNodes>
            0 -1 37 -657982913 -765763517 1107382467 -237956579
            1209141386 1208647816 1410728090 -16779045</internalNodes>
          <leafValues>
            -6.2606841325759888e-01 6.1608856916427612e-01</leafValues></_></weakClassifiers></_>
    <!-- stage 5 -->
    <_>
      <maxWeakCount>6</maxWeakCount>
      <stageThreshold>-1.4386919736862183e+00</stageThreshold>
      <weakClassifiers>
        <_>
          <internalNodes>
            0 -1 50 -1281 -65537 -98338 -331846 -66114 -65537 -4522310
            -22348102</internalNodes>
          <leafValues>
            -6.0382515192031860e-01 7.3503327369689941e-01</leafValues></_>
        <_>
          <internalNodes>
            0 -1 56 -135924753 -3153489 -116010324 -236065844 852229807
            2068552335 -137630978 2008018926</internalNodes>
          <leafValues>
            -7.6720011234283447e-01 5.9009826183319092e-01</leafValues></_>
        <_>
          <internalNodes>
            0 -1 107 -9 -403177473 1073708465 -4456589 -687865857
            -825372673 -168348169 -527113</internalNodes>
          <leafValues>
            -5.6547456979751587e-01 7.2845780849456787e-01</leafValues></_>
        <_>
          <internalNodes>
            0 -1 80 -11556433 529236633 -2130590905 454802371 1754210575
            -1962266589 587966666 611315695</internalNodes>
          <leafValues>
            -7.2719275951385498e-01 5.1596534252166748e-01</leafValues></_>
        <_>
          <internalNodes>
            0 -1 12 -1879578641 -1880633213 1099561429 -1746963897
            -2079596565 -1987467034 1361302103 -1008735537</internalNodes>
          <leafValues>
            -5.9092158079147339e-01 6.3060671091079712e-01</leafValues></_>
        <_>
          <internalNodes>
            0 -1 59 -186457366 -674266902 -1073232370 -1073241618
            -742198459 -1004451704 -8075395 -234882881</internalNodes>
          <leafValues>
            -6.6480588912963867e-01 5.7276403903961182e-01</leafValues></_></weakClassifiers></_>
    <!-- stage 6 -->
    <_>
      <maxWeakCount>5</maxWeakCount>
      <stageThreshold>-1.0107290744781494e+00</stageThreshold>
      <weakClassifiers>
        <_>
          <internalNodes>
            0 -1 25 -4456449 -8388737 -327809 2099937143 -327762 -98433
            -65573 -30736641</internalNodes>
          <leafValues>
            -6.4763301610946655e-01 6.8016403913497925e-01</leafValues></_>
        <_>
          <internalNodes>
            0 -1 54 -1174426705 -49301078 -1583248729 -1078724323
            -620759553 1561326559 -20206849 2002762015</internalNodes>
          <leafValues>
            -8.3085626363754272e-01 4.7710752487182617e-01</leafValues></_>
        <_>
          <internalNodes>
            0 -1 112 -9043969 1937731388 -129 -768475205 -42500249
            -548044931 -8914949 -77594785</internalNodes>
          <leafValues>
            -5.6753259897232056e-01 6.8695890903472900e-01</leafValues></_>
        <_>
          <internalNodes>
            0 -1 52 -124065310 -74198657 1346556371 2001971666
            -275842052 -638024800 -440244289 1171651508</internalNodes>
          <leafValues>
            -8.4703832864761353e-01 4.4189092516899109e-01</leafValues></_>
        <_>
          <internalNodes>
            0 -1 81 -439878181 -1029448703 -921576619 -178420105
            -921985613 -928284011 -1056767680 -706514703</internalNodes>
          <leafValues>
            -6.0905474424362183e-01 5.9340178966522217e-01</leafValues></_></weakClassifiers></_>
    <!-- stage 7 -->
    <_>
      <maxWeakCount>6</maxWeakCount>
      <stageThreshold>-1.2861433029174805e+00</stageThreshold>
      <weakClassifiers>
        <_>
          <internalNodes>
            0 -1 16 -809500673 -1880096785 -1 -1 -838860817 -1881149457
            1440732407 -536881665</internalNodes>
          <leafValues>
            -5.9650737047195435e-01 7.1162283420562744e-01</leafValues></_>
        <_>
          <internalNodes>
            0 -1 92 -2362630 -40640298 84144859 722722842 -659556866
            -202784613 -70258433 -5377</internalNodes>
          <leafValues>
            -6.5778398513793945e-01 5.6947469711303711e-01</leafValues></_>
        <_>
          <internalNodes>
            0 -1 32 -137897165 -238820789 -1056619777 -148778973
            -1043420438 1342705794 -2085752 -2359877</internalNodes>
          <leafValues>
            -5.9485328197479248e-01 6.2409365177154541e-01</leafValues></_>
        <_>
          <internalNodes>
            0 -1 63 -142542097 -815345402 8671374 -534342910 1178882373
            -341696510 -152573265 -2104369</internalNodes>
          <leafValues>
            -5.9211987257003784e-01 5.8248507976531982e-01</leafValues></_>
        <_>
          <internalNodes>
            0 -1 101 -24120461 2136970717 -2092576357 1347732853
            -114490873 1041483845 -897479809 -78913417</internalNodes>
          <leafValues>
            -6.2627387046813965e-01 5.3638809919357300e-01</leafValues></_>
        <_>
          <internalNodes>
            0 -1 18 -148373561 -233832705 -391992705 -521945345
            -1267423659 -60817410 -530083841 -956301441</internalNodes>
          <leafValues>
            -5.5481052398681641e-01 6.1873316764831543e-01</leafValues></_></weakClassifiers></_>
    <!-- stage 8 -->
    <_>
      <maxWeakCount>6</maxWeakCount>
      <stageThreshold>-1.3406273126602173e+00</stageThreshold>
      <weakClassifiers>
        <_>
          <internalNodes>
            0 -1 103 -1074794497 -550240271 -1073741825 -526351
            2130702335 -532489 1324341179 -570436595</internalNodes>
          <leafValues>
            -5.6471115350723267e-01 7.1363896131515503e-01</leafValues></_>
        <_>
          <internalNodes>
            0 -1 19 -36700161 -2010583159 -1081491 -270274577 -545259521
            -33161233 -19398779 -70254737</internalNodes>
          <leafValues>
            -5.3938519954681396e-01 6.6765880584716797e-01</leafValues></_>
        <_>
          <internalNodes>
            0 -1 115 -169880208 -10501920 17138131 -549510455
            -1681856400 -528351231 1208744692 -26224453</internalNodes>
          <leafValues>
            -6.0712814331054688e-01 5.6092482805252075e-01</leafValues></_>
        <_>
          <internalNodes>
            0 -1 10 -733085697 -9063462 424505695 1360887987 -912802897
            -68968230 1599183807 1465899775</internalNodes>
          <leafValues>
            -7.3431742191314697e-01 4.4108173251152039e-01</leafValues></_>
        <_>
          <internalNodes>
            0 -1 39 -757927053 -267894212 -1567592296 -724135423
            1378517906 -632782846 -1568085830 -117800262</internalNodes>
          <leafValues>
            -5.7686668634414673e-01 6.0087001323699951e-01</leafValues></_>
        <_>
          <internalNodes>
            0 -1 60 -748684363 -507002837 -2147450293 -463499253
            -397964505 -494755183 -112725391 -1034425545</internalNodes>
          <leafValues>
            -6.2901234626770020e-01 5.1372832059860229e-01</leafValues></_></weakClassifiers></_>
    <!-- stage 9 -->
    <_>
      <maxWeakCount>6</maxWeakCount>
      <stageThreshold>-1.4474146366119385e+00</stageThreshold>
      <weakClassifiers>
        <_>
          <internalNodes>
            0 -1 35 -1347698725 -1615069445 1065350911 -9 -1414818373
            -536887373 264211963 -8707</internalNodes>
          <leafValues>
            -5.9093010425567627e-01 6.9439911842346191e-01</leafValues></_>
        <_>
          <internalNodes>
            0 -1 91 -143131149 -1757692109 -1509965840 -571375869
            1476392435 -814221321 1954020849 -2049</internalNodes>
          <leafValues>
            -5.0341403484344482e-01 6.9515198469161987e-01</leafValues></_>
        <_>
          <internalNodes>
            0 -1 69 -542650489 -68578857 -1176488197 -1264700196
            -737442300 -812531319 -32248951 -355497269</internalNodes>
          <leafValues>
            -6.1054307222366333e-01 5.5470228195190430e-01</leafValues></_>
        <_>
          <internalNodes>
            0 -1 65 -205196308 -2114673 1073777230 2135937934 2057134466
            2131577004 1122920703 2009988095</internalNodes>
          <leafValues>
            -7.4221402406692505e-01 4.2601752281188965e-01</leafValues></_>
        <_>
          <internalNodes>
            0 -1 6 -44043009 -598290021 -329983464 6459400 -741609105
            -284557263 -3437697 1484769657</internalNodes>
          <leafValues>
            -6.7837989330291748e-01 4.7487884759902954e-01</leafValues></_>
        <_>
          <internalNodes>
            0 -1 116 -527977073 -2087280609 -1325391173 -539493863
            -1887192389 -1970888543 1215788501 -381701133</internalNodes>
          <leafValues>
            -5.8095395565032959e-01 5.0983500480651855e-01</leafValues></_></weakClassifiers></_>
    <!-- stage 10 -->
    <_>
      <maxWeakCount>6</maxWeakCount>
      <stageThreshold>-1.4324870109558105e+00</stageThreshold>
      <weakClassifiers>
        <_>
          <internalNodes>
            0 -1 106 -1879048193 -536871121 -26247169 1965686709
            -84934657 -3408385 83857339 -570571299</internalNodes>
          <leafValues>
            -6.0780578851699829e-01 6.7245918512344360e-01</leafValues></_>
        <_>
          <internalNodes>
            0 -1 11 -1355808833 -1476791921 -1859983905 -640292949
            197652655 -866438421 223337183 -808583415</internalNodes>
          <leafValues>
            -6.1378240585327148e-01 5.9457522630691528e-01</leafValues></_>
        <_>
          <internalNodes>
            0 -1 74 -234887317 279833357 1090670609 958394535 1250363531
            1209770011 -649084917 -102761841</internalNodes>
          <leafValues>
            -5.4293251037597656e-01 6.3710534572601318e-01</leafValues></_>
        <_>
          <internalNodes>
            0 -1 114 -553687743 2136818199 290042227 1967596055
            -263714495 1099055304 -473826401 -16614817</internalNodes>
          <leafValues>
            -6.4556622505187988e-01 5.1101928949356079e-01</leafValues></_>
        <_>
          <internalNodes>
            0 -1 27 -67176457 -614734315 -190713357 -177778045
            1087390894 141748362 -733215570 -2143009</internalNodes>
          <leafValues>
            -6.3405919075012207e-01 5.0040560960769653e-01</leafValues></_>
        <_>
          <internalNodes>
            0 -1 53 -2147317789 831569938 -511049521 -183527303
            -2147249713 -247349119 -1056712499 -83765119</internalNodes>
          <leafValues>
            -6.8965917825698853e-01 4.5507359504699707e-01</leafValues></_></weakClassifiers></_>
    <!-- stage 11 -->
    <_>
      <maxWeakCount>6</maxWeakCount>
      <stageThreshold>-1.4393455982208252e+00</stageThreshold>
      <weakClassifiers>
        <_>
          <internalNodes>
            0 -1 73 -272629769 -842137603 -8530575 -42863119 -302076929
            -847249417 -170560171 -34088969</internalNodes>
          <leafValues>
            -6.0000002384185791e-01 6.7659574747085571e-01</leafValues></_>
        <_>
          <internalNodes>
            0 -1 82 -640483105 -781205153 -251346095 -643579829
            -1026686549 -216919758 -113016421 -1043414565</internalNodes>
          <leafValues>
            -6.2519216537475586e-01 5.5456984043121338e-01</leafValues></_>
        <_>
          <internalNodes>
            0 -1 33 -179838989 -184430057 -385773893 -1550727405
            1355211966 8396928 -599646154 -67633153</internalNodes>
          <leafValues>
            -5.6203603744506836e-01 5.9497404098510742e-01</leafValues></_>
        <_>
          <internalNodes>
            0 -1 2 1610608639 -31653921 -268992513 1869676538 2134208191
            1915813751 -293654657 -45617285</internalNodes>
          <leafValues>
            -4.8662886023521423e-01 6.2554752826690674e-01</leafValues></_>
        <_>
          <internalNodes>
            0 -1 67 -171531638 -406746991 4883072 -119950457 1214259855
            1938800771 -18906673 1071590083</internalNodes>
          <leafValues>
            -7.5601947307586670e-01 3.7788161635398865e-01</leafValues></_>
        <_>
          <internalNodes>
            0 -1 98 -213492865 915488847 1090601515 814878798
            -1072614863 1930084362 -1169671637 -98897062</internalNodes>
          <leafValues>
            -6.1350482702255249e-01 4.7835460305213928e-01</leafValues></_></weakClassifiers></_>
    <!-- stage 12 -->
    <_>
      <maxWeakCount>6</maxWeakCount>
      <stageThreshold>-1.4148858785629272e+00</stageThreshold>
      <weakClassifiers>
        <_>
          <internalNodes>
            0 -1 45 -255854598 -2056 -1073774594 -134283272 1279979502
            -3211314 -8388609 -1052721</internalNodes>
          <leafValues>
            -5.7314813137054443e-01 6.7282611131668091e-01</leafValues></_>
        <_>
          <internalNodes>
            0 -1 89 -605063683 -1059137833 1539035539 -1864370235
            -215281247 2130771968 -29101425 -83919905</internalNodes>
          <leafValues>
            -5.7449406385421753e-01 5.8028316497802734e-01</leafValues></_>
        <_>
          <internalNodes>
            0 -1 21 -1431044169 -1077940417 -16777217 -135169
            -1883510097 -1343225858 429911519 -536879619</internalNodes>
          <leafValues>
            -5.4028999805450439e-01 5.9489607810974121e-01</leafValues></_>
        <_>
          <internalNodes>
            0 -1 86 -540081921 -49200441 1342423065 -545565913
            1221021706 -1170014174 -1017807334 -73781137</internalNodes>
          <leafValues>
            -5.1663708686828613e-01 5.9188657999038696e-01</leafValues></_>
        <_>
          <internalNodes>
            0 -1 68 -1135674401 -1721767289 67465 -1081877735
            -1563957009 -11206272 50318224 578813470</internalNodes>
          <leafValues>
            -8.2232385873794556e-01 3.5230869054794312e-01</leafValues></_>
        <_>
          <internalNodes>
            0 -1 111 -804039961 -1437581176 1359073749 -16707245
            16883862 1217396872 -1853834509 -191130925</internalNodes>
          <leafValues>
            -5.8633190393447876e-01 5.0348353385925293e-01</leafValues></_></weakClassifiers></_>
    <!-- stage 13 -->
    <_>
      <maxWeakCount>7</maxWeakCount>
      <stageThreshold>-9.8116266727447510e-01</stageThreshold>
      <weakClassifiers>
        <_>
          <internalNodes>
            0 -1 1 -17367041 -692518913 2130706423 -75759873 2121464827
            -1204617345 -159516673 -10486401</internalNodes>
          <leafValues>
            -5.1525568962097168e-01 7.1667665243148804e-01</leafValues></_>
        <_>
          <internalNodes>
            0 -1 88 -87075841 -1058117734 1476891531 -523305989
            -619894207 2080571682 -1046826309 -18875473</internalNodes>
          <leafValues>
            -6.7015349864959717e-01 4.7941020131111145e-01</leafValues></_>
        <_>
          <internalNodes>
            0 -1 58 1918366718 1360398746 1360466142 1967622494
            1640096767 -91504530 -220989186 -83897909</internalNodes>
          <leafValues>
            -5.5566334724426270e-01 5.6230777502059937e-01</leafValues></_>
        <_>
          <internalNodes>
            0 -1 70 -539536035 -573058611 -653110462 -716637943
            -556660643 -1203117808 -880682977 -872223142</internalNodes>
          <leafValues>
            -6.3311398029327393e-01 4.6148821711540222e-01</leafValues></_>
        <_>
          <internalNodes>
            0 -1 23 -711523989 1686114304 -1862233705 -803985394
            -788512243 -1954543584 -1442137349 -1567477555</internalNodes>
          <leafValues>
            -6.3146710395812988e-01 4.7501391172409058e-01</leafValues></_>
        <_>
          <internalNodes>
            0 -1 47 -77827271 -170843078 -181070307 -13122678 1930948573
            1979260159 -150159682 658271163</internalNodes>
          <leafValues>
            -6.7828673124313354e-01 4.0447229146957397e-01</leafValues></_>
        <_>
          <internalNodes>
            0 -1 28 -1156908129 -1290290629 328433693 630272927
            -1315974995 -1341980111 -1068248947 -739118819</internalNodes>
          <leafValues>
            -5.7955253124237061e-01 5.2541655302047729e-01</leafValues></_></weakClassifiers></_>
    <!-- stage 14 -->
    <_>
      <maxWeakCount>6</maxWeakCount>
      <stageThreshold>-1.3338037729263306e+00</stageThreshold>
      <weakClassifiers>
        <_>
          <internalNodes>
            0 -1 31 -5 -33025 -66 -1 -4678 1557953660 -34419490
            -33554433</internalNodes>
          <leafValues>
            -5.2097904682159424e-01 6.9626170396804810e-01</leafValues></_>
        <_>
          <internalNodes>
            0 -1 109 -723782665 -318537725 -2126490379 -1113611886
            -2088109377 -874610534 12824816 -570433037</internalNodes>
          <leafValues>
            -5.7407963275909424e-01 5.5936294794082642e-01</leafValues></_>
        <_>
          <internalNodes>
            0 -1 30 -168728141 -741400821 -1002355597 2006258559
            -863466517 -1379885330 -1731432002 1743742767</internalNodes>
          <leafValues>
            -6.1695331335067749e-01 5.2220445871353149e-01</leafValues></_>
        <_>
          <internalNodes>
            0 -1 72 1499184879 972522471 142870535 601586371 1912713387
            1025218818 867023096 752863691</internalNodes>
          <leafValues>
            -7.3245066404342651e-01 4.0086111426353455e-01</leafValues></_>
        <_>
          <internalNodes>
            0 -1 42 -1680868357 -729775872 285577693 404521224 -99109899
            668107939 -525645090 2012186870</internalNodes>
          <leafValues>
            -5.7567691802978516e-01 5.1037323474884033e-01</leafValues></_>
        <_>
          <internalNodes>
            0 -1 7 -807350553 -76283929 -453050389 -559442 1853852367
            -1083019404 -404829442 -11276364</internalNodes>
          <leafValues>
            -5.3266471624374390e-01 5.5302387475967407e-01</leafValues></_></weakClassifiers></_>
    <!-- stage 15 -->
    <_>
      <maxWeakCount>6</maxWeakCount>
      <stageThreshold>-1.2825901508331299e+00</stageThreshold>
      <weakClassifiers>
        <_>
          <internalNodes>
            0 -1 105 -571809 -8453277 -16781313 2133026599 -597875969
            -33587597 -4194561 -10748293</internalNodes>
          <leafValues>
            -5.6517815589904785e-01 7.0274817943572998e-01</leafValues></_>
        <_>
          <internalNodes>
            0 -1 29 -938544681 -955731222 192991679 -304282593
            1208076543 -1918199671 1644290544 -806364229</internalNodes>
          <leafValues>
            -5.3447592258453369e-01 6.0588729381561279e-01</leafValues></_>
        <_>
          <internalNodes>
            0 -1 48 -639912513 1934663818 293669535 -72488930 -77400203
            1133748360 -1618514961 -136846365</internalNodes>
          <leafValues>
            -6.1908829212188721e-01 5.0015807151794434e-01</leafValues></_>
        <_>
          <internalNodes>
            0 -1 14 -178325521 -1898670600 1560647071 -44624454
            -1827962437 -913694584 1168356337 -558122309</internalNodes>
          <leafValues>
            -4.8839750885963440e-01 6.0531204938888550e-01</leafValues></_>
        <_>
          <internalNodes>
            0 -1 38 1598732926 1540546758 -1775559403 -653033451
            107104426 713167251 -99925765 -291813449</internalNodes>
          <leafValues>
            -6.4053404331207275e-01 4.2608866095542908e-01</leafValues></_>
        <_>
          <internalNodes>
            0 -1 97 -1949827169 1594226904 -2130391928 1340729856
            -1060859421 -1475854208 -2097024565 -538978344</internalNodes>
          <leafValues>
            -5.5358815193176270e-01 4.9846109747886658e-01</leafValues></_></weakClassifiers></_>
    <!-- stage 16 -->
    <_>
      <maxWeakCount>8</maxWeakCount>
      <stageThreshold>-1.3704557418823242e+00</stageThreshold>
      <weakClassifiers>
        <_>
          <internalNodes>
            0 -1 108 -745290881 -249966497 -1119664897 1920086131
            -1970644146 974225409 -74777665 -82077569</internalNodes>
          <leafValues>
            -6.4415860176086426e-01 5.6326150894165039e-01</leafValues></_>
        <_>
          <internalNodes>
            0 -1 61 -286261297 -286261250 -133 -360989265 1194719027
            -277479553 -143296649 -432013345</internalNodes>
          <leafValues>
            -5.0594520568847656e-01 6.1308246850967407e-01</leafValues></_>
        <_>
          <internalNodes>
            0 -1 13 -318112275 -1349631800 -587111459 -8552293
            -796281925 -1970617978 1082193845 -844370437</internalNodes>
          <leafValues>
            -6.0760724544525146e-01 5.2113705873489380e-01</leafValues></_>
        <_>
          <internalNodes>
            0 -1 102 -539754497 1293797263 1736509322 766997467
            953852325 -1041069931 1519489168 -637548103</internalNodes>
          <leafValues>
            -6.1974996328353882e-01 4.8127603530883789e-01</leafValues></_>
        <_>
          <internalNodes>
            0 -1 17 -779564673 -1223509997 -1995419557 -158312199
            1140901939 -1291812846 -1114033941 -164385541</internalNodes>
          <leafValues>
            -5.3931802511215210e-01 5.5444788932800293e-01</leafValues></_>
        <_>
          <internalNodes>
            0 -1 66 -210781458 -144993817 -2078920626 1436534983
            -16012697 2006305153 -259292773 -416960561</internalNodes>
          <leafValues>
            -5.8325076103210449e-01 4.8357135057449341e-01</leafValues></_>
        <_>
          <internalNodes>
            0 -1 71 -545402788 -1856122862 -2111600821 -281017832
            -1157578670 -83296255 -2138834786 -354944065</internalNodes>
          <leafValues>
            -5.0649362802505493e-01 5.4537153244018555e-01</leafValues></_>
        <_>
          <internalNodes>
            0 -1 95 -816855357 16834945 -603978447 -705572847 671787693
            -1607827454 277033477 -206936153</internalNodes>
          <leafValues>
            -6.0164719820022583e-01 4.7771629691123962e-01</leafValues></_></weakClassifiers></_>
    <!-- stage 17 -->
    <_>
      <maxWeakCount>8</maxWeakCount>
      <stageThreshold>-1.3943922519683838e+00</stageThreshold>
      <weakClassifiers>
        <_>
          <internalNodes>
            0 -1 3 -520093697 -131145 251330551 -50462729 -520093953 -1
            -318781457 -192938185</internalNodes>
          <leafValues>
            -4.9978175759315491e-01 6.6998243331909180e-01</leafValues></_>
        <_>
          <internalNodes>
            0 -1 84 1474164439 1538907985 -712679073 423742656
            1229514121 -527367936 -670190965 -541863985</internalNodes>
          <leafValues>
            -5.1498037576675415e-01 5.5318528413772583e-01</leafValues></_>
        <_>
          <internalNodes>
            0 -1 44 -263429 -385 -16782726 2143289086 -160183048
            1559680895 -83992454 -257</internalNodes>
          <leafValues>
            -4.7939735651016235e-01 5.5321979522705078e-01</leafValues></_>
        <_>
          <internalNodes>
            0 -1 55 -235565123 1569936263 268474638 -967941306 528554135
            -359956325 -34633570 778989102</internalNodes>
          <leafValues>
            -7.2272938489913940e-01 3.6334580183029175e-01</leafValues></_>
        <_>
          <internalNodes>
            0 -1 104 -1073746689 -12845065 251658220 -554193028
            -1409945603 -301991939 -1900350273 -67121852</internalNodes>
          <leafValues>
            -4.6821185946464539e-01 6.1195093393325806e-01</leafValues></_>
        <_>
          <internalNodes>
            0 -1 96 1250163310 579453062 -650116150 -119894831
            -1870122495 947945608 -89474358 -90291541</internalNodes>
          <leafValues>
            -5.7182139158248901e-01 4.3637785315513611e-01</leafValues></_>
        <_>
          <internalNodes>
            0 -1 22 420967255 -1688534793 -2128527073 528438539
            -1014693425 -1834335199 1787052506 453148287</internalNodes>
          <leafValues>
            -6.1612600088119507e-01 4.5046210289001465e-01</leafValues></_>
        <_>
          <internalNodes>
            0 -1 62 -1865482356 -608009526 9519232 -805003070 1355128869
            -801070398 1288273954 -523780498</internalNodes>
          <leafValues>
            -6.4232331514358521e-01 3.8914969563484192e-01</leafValues></_></weakClassifiers></_>
    <!-- stage 18 -->
    <_>
      <maxWeakCount>7</maxWeakCount>
      <stageThreshold>-1.0777037143707275e+00</stageThreshold>
      <weakClassifiers>
        <_>
          <internalNodes>
            0 -1 110 -33556651 -178260009 -1 -671103755 -513 -1073839626
            -50856449 -990513681</internalNodes>
          <leafValues>
            -5.3874707221984863e-01 6.2926828861236572e-01</leafValues></_>
        <_>
          <internalNodes>
            0 -1 64 318107848 523102020 293720572 -685800993 269337593
            -1147485488 -1734100296 -1157629041</internalNodes>
          <leafValues>
            -6.2830710411071777e-01 4.4575735926628113e-01</leafValues></_>
        <_>
          <internalNodes>
            0 -1 24 286260667 -438964197 16845465 793639603 1107671195
            -390944640 637924345 252370713</internalNodes>
          <leafValues>
            -6.3818049430847168e-01 4.3015906214714050e-01</leafValues></_>
        <_>
          <internalNodes>
            0 -1 75 -1161434983 -1333686253 16830467 -1727806976
            -1610110294 -1308524544 -1278739945 -1575750949</internalNodes>
          <leafValues>
            -5.8011806011199951e-01 4.9863523244857788e-01</leafValues></_>
        <_>
          <internalNodes>
            0 -1 100 -260898215 -783967155 -1073708910 -29097705
            -133496736 -511574015 -843458390 -68281710</internalNodes>
          <leafValues>
            -5.4483830928802490e-01 5.1657944917678833e-01</leafValues></_>
        <_>
          <internalNodes>
            0 -1 0 1222111735 -1538436339 -1584320301 -987795135
            1196003755 -859742176 67482032 13488099</internalNodes>
          <leafValues>
            -7.4870270490646362e-01 3.3500602841377258e-01</leafValues></_>
        <_>
          <internalNodes>
            0 -1 90 -376745902 -1529507699 -2147401062 -224657203
            -792033210 1082298376 -611763264 -223696181</internalNodes>
          <leafValues>
            -5.6241077184677124e-01 4.5878598093986511e-01</leafValues></_></weakClassifiers></_>
    <!-- stage 19 -->
    <_>
      <maxWeakCount>8</maxWeakCount>
      <stageThreshold>-1.4103822708129883e+00</stageThreshold>
      <weakClassifiers>
        <_>
          <internalNodes>
            0 -1 20 -712130097 -813645695 32573919 -36204447 -1472087665
            -587013941 -926941113 -1836849</internalNodes>
          <leafValues>
            -5.9581154584884644e-01 5.4449760913848877e-01</leafValues></_>
        <_>
          <internalNodes>
            0 -1 83 -774960817 -754326635 286265651 -1258227753
            -345800497 -1202880063 -92092187 -104269985</internalNodes>
          <leafValues>
            -5.7861214876174927e-01 5.3093892335891724e-01</leafValues></_>
        <_>
          <internalNodes>
            0 -1 36 -619380809 -12492963 -1895280331 1896080019
            -930428637 1220674985 1221253290 -606382997</internalNodes>
          <leafValues>
            -5.3635096549987793e-01 5.3317195177078247e-01</leafValues></_>
        <_>
          <internalNodes>
            0 -1 94 -1358959617 1936783287 -269489172 1735523002 -257
            1534406386 -67125249 -268828673</internalNodes>
          <leafValues>
            -4.7543111443519592e-01 5.6129026412963867e-01</leafValues></_>
        <_>
          <internalNodes>
            0 -1 9 -884211520 -608628427 -1742267909 -669446291
            729810260 1272007601 -89617409 -71818719</internalNodes>
          <leafValues>
            -6.6767656803131104e-01 4.2793196439743042e-01</leafValues></_>
        <_>
          <internalNodes>
            0 -1 99 -250481669 59790743 1359041299 -1651158639
            1233232883 28883091 587768823 -36724497</internalNodes>
          <leafValues>
            -5.3296214342117310e-01 5.1431083679199219e-01</leafValues></_>
        <_>
          <internalNodes>
            0 -1 77 -257164976 954290523 -664649377 402838403 1476552712
            -402644984 -922572149 -527505077</internalNodes>
          <leafValues>
            -5.8767890930175781e-01 4.7900450229644775e-01</leafValues></_>
        <_>
          <internalNodes>
            0 -1 51 -402408851 -730594989 1342357535 -267336503
            721429017 -234815466 -1709110805 -1468653342</internalNodes>
          <leafValues>
            -6.3487207889556885e-01 4.3925920128822327e-01</leafValues></_></weakClassifiers></_></stages>
  <features>
    <_>
      <rect>
        0 17 4 4</rect></_>
    <_>
      <rect>
        0 19 4 5</rect></_>
    <_>
      <rect>
        0 20 5 6</rect></_>
    <_>
      <rect>
        1 6 5 10</rect></_>
    <_>
      <rect>
        1 12 6 4</rect></_>
    <_>
      <rect>
        1 22 8 7</rect></_>
    <_>
      <rect>
        1 24 5 4</rect></_>
    <_>
      <rect>
        2 0 12 5</rect></_>
    <_>
      <rect>
        2 12 7 10</rect></_>
    <_>
      <rect>
        2 15 12 8</rect></_>
    <_>
      <rect>
        3 4 15 14</rect></_>
    <_>
      <rect>
        3 6 5 8</rect></_>
    <_>
      <rect>
        3 13 5 4</rect></_>
    <_>
      <rect>
        3 19 3 2</rect></_>
    <_>
      <rect>
        3 21 2 1</rect></_>
    <_>
      <rect>
        4 23 14 7</rect></_>
    <_>
      <rect>
        5 16 3 2</rect></_>
    <_>
      <rect>
        5 32 2 1</rect></_>
    <_>
      <rect>
        5 36 8 4</rect></_>
    <_>
      <rect>
        6 5 7 4</rect></_>
    <_>
      <rect>
        6 8 6 4</rect></_>
    <_>
      <rect>
        6 16 2 3</rect></_>
    <_>
      <rect>
        6 26 3 5</rect></_>
    <_>
      <rect>
        6 30 1 1</rect></_>
    <_>
      <rect>
        7 6 4 7</rect></_>
    <_>
      <rect>
        7 28 2 3</rect></_>
    <_>
      <rect>
        7 32 2 1</rect></_>
    <_>
      <rect>
        8 26 8 8</rect></_>
    <_>
      <rect>
        9 1 5 7</rect></_>
    <_>
      <rect>
        10 3 6 3</rect></_>
    <_>
      <rect>
        10 7 7 8</rect></_>
    <_>
      <rect>
        10 20 5 10</rect></_>
    <_>
      <rect>
        10 23 5 9</rect></_>
    <_>
      <rect>
        10 29 5 6</rect></_>
    <_>
      <rect>
        11 8 10 6</rect></_>
    <_>
      <rect>
        11 10 2 3</rect></_>
    <_>
      <rect>
        11 24 6 8</rect></_>
    <_>
      <rect>
        11 29 6 6</rect></_>
    <_>
      <rect>
        11 32 7 5</rect></_>
    <_>
      <rect>
        11 33 1 1</rect></_>
    <_>
      <rect>
        12 13 5 7</rect></_>
    <_>
      <rect>
        12 16 9 8</rect></_>
    <_>
      <rect>
        12 19 6 5</rect></_>
    <_>
      <rect>
        12 23 4 9</rect></_>
    <_>
      <rect>
        12 31 4 4</rect></_>
    <_>
      <rect>
        12 35 8 5</rect></_>
    <_>
      <rect>
        13 3 6 6</rect></_>
    <_>
      <rect>
        13 10 12 11</rect></_>
    <_>
      <rect>
        13 18 5 6</rect></_>
    <_>
      <rect>
        13 18 9 9</rect></_>
    <_>
      <rect>
        13 34 1 2</rect></_>
    <_>
      <rect>
        13 40 2 1</rect></_>
    <_>
      <rect>
        14 5 7 5</rect></_>
    <_>
      <rect>
        15 0 4 5</rect></_>
    <_>
      <rect>
        15 21 8 8</rect></_>
    <_>
      <rect>
        16 7 5 8</rect></_>
    <_>
      <rect>
        16 11 6 6</rect></_>
    <_>
      <rect>
        16 12 7 6</rect></_>
    <_>
      <rect>
        16 38 7 4</rect></_>
    <_>
      <rect>
        17 15 4 7</rect></_>
    <_>
      <rect>
        18 8 2 10</rect></_>
    <_>
      <rect>
        18 12 2 8</rect></_>
    <_>
      <rect>
        18 13 3 7</rect></_>
    <_>
      <rect>
        19 14 3 9</rect></_>
    <_>
      <rect>
        19 37 6 4</rect></_>
    <_>
      <rect>
        20 16 4 7</rect></_>
    <_>
      <rect>
        20 19 4 4</rect></_>
    <_>
      <rect>
        20 23 4 8</rect></_>
    <_>
      <rect>
        21 8 6 7</rect></_>
    <_>
      <rect>
        23 4 8 5</rect></_>
    <_>
      <rect>
        24 1 5 5</rect></_>
    <_>
      <rect>
        24 5 4 4</rect></_>
    <_>
      <rect>
        24 25 4 4</rect></_>
    <_>
      <rect>
        24 35 7 5</rect></_>
    <_>
      <rect>
        25 15 3 9</rect></_>
    <_>
      <rect>
        26 2 4 8</rect></_>
    <_>
      <rect>
        26 15 8 8</rect></_>
    <_>
      <rect>
        26 18 2 6</rect></_>
    <_>
      <rect>
        26 18 4 6</rect></_>
    <_>
      <rect>
        26 19 8 9</rect></_>
    <_>
      <rect>
        26 22 3 7</rect></_>
    <_>
      <rect>
        26 41 4 3</rect></_>
    <_>
      <rect>
        27 0 5 8</rect></_>
    <_>
      <rect>
        27 4 6 7</rect></_>
    <_>
      <rect>
        27 23 5 9</rect></_>
    <_>
      <rect>
        27 28 7 5</rect></_>
    <_>
      <rect>
        28 0 2 4</rect></_>
    <_>
      <rect>
        28 2 5 9</rect></_>
    <_>
      <rect>
        28 17 3 6</rect></_>
    <_>
      <rect>
        28 19 3 6</rect></_>
    <_>
      <rect>
        28 24 1 1</rect></_>
    <_>
      <rect>
        28 39 3 2</rect></_>
    <_>
      <rect>
        29 12 7 10</rect></_>
    <_>
      <rect>
        29 17 5 10</rect></_>
    <_>
      <rect>
        29 19 5 9</rect></_>
    <_>
      <rect>
        29 38 4 3</rect></_>
    <_>
      <rect>
        30 24 1 1</rect></_>
    <_>
      <rect>
        30 26 5 8</rect></_>
    <_>
      <rect>
        31 7 1 1</rect></_>
    <_>
      <rect>
        34 33 4 2</rect></_>
    <_>
      <rect>
        35 13 1 1</rect></_>
    <_>
      <rect>
        35 13 3 2</rect></_>
    <_>
      <rect>
        35 23 5 5</rect></_>
    <_>
      <rect>
        35 28 3 5</rect></_>
    <_>
      <rect>
        35 36 1 2</rect></_>
    <_>
      <rect>
        36 13 2 3</rect></_>
    <_>
      <rect>
        36 24 3 7</rect></_>
    <_>
      <rect>
        36 31 4 2</rect></_>
    <_>
      <rect>
        37 16 3 2</rect></_>
    <_>
      <rect>
        37 29 3 2</rect></_>
    <_>
      <rect>
        38 13 4 7</rect></_>
    <_>
      <rect>
        38 33 3 1</rect></_>
    <_>
      <rect>
        39 18 3 2</rect></_>
    <_>
      <rect>
        40 27 3 2</rect></_>
    <_>
      <rect>
        41 18 2 3</rect></_>
    <_>
      <rect>
        41 20 2 4</rect></_>
    <_>
      <rect>
        41 26 3 3</rect></_></features></cascade>
</opencv_storage>
