<?xml version="1.0"?>
<opencv_storage>
<cascade>
  <stageType>BOOST</stageType>
  <featureType>HAAR</featureType>
  <height>24</height>
  <width>24</width>
  <stageParams>
    <boostType>GAB</boostType>
    <minHitRate>9.9900001287460327e-01</minHitRate>
    <maxFalseAlarm>5.0000000000000000e-01</maxFalseAlarm>
    <weightTrimRate>9.4999999999999996e-01</weightTrimRate>
    <maxDepth>1</maxDepth>
    <maxWeakCount>100</maxWeakCount></stageParams>
  <featureParams>
    <maxCatCount>0</maxCatCount>
    <featSize>1</featSize>
    <mode>BASIC</mode></featureParams>
  <stageNum>13</stageNum>
  <stages>
    <!-- stage 0 -->
    <_>
      <maxWeakCount>4</maxWeakCount>
      <stageThreshold>-2.6181225776672363e+00</stageThreshold>
      <weakClassifiers>
        <_>
          <internalNodes>
            0 -1 22 -2.0906104147434235e-01</internalNodes>
          <leafValues>
            8.9371979236602783e-01 -9.8829334974288940e-01</leafValues></_>
        <_>
          <internalNodes>
            0 -1 11 -1.2268763780593872e-01</internalNodes>
          <leafValues>
            2.8382033109664917e-01 -9.9265670776367188e-01</leafValues></_>
        <_>
          <internalNodes>
            0 -1 20 -1.1853608489036560e-01</internalNodes>
          <leafValues>
            1.6402733325958252e-01 -9.8619914054870605e-01</leafValues></_>
        <_>
          <internalNodes>
            0 -1 59 3.1229830347001553e-04</internalNodes>
          <leafValues>
            -9.2604792118072510e-01 3.4902670979499817e-01</leafValues></_></weakClassifiers></_>
    <!-- stage 1 -->
    <_>
      <maxWeakCount>4</maxWeakCount>
      <stageThreshold>-2.7289662361145020e+00</stageThreshold>
      <weakClassifiers>
        <_>
          <internalNodes>
            0 -1 29 -1.7830803990364075e-01</internalNodes>
          <leafValues>
            8.0373829603195190e-01 -9.8778444528579712e-01</leafValues></_>
        <_>
          <internalNodes>
            0 -1 30 -1.1396941542625427e-01</internalNodes>
          <leafValues>
            1.0632870346307755e-01 -9.4927066564559937e-01</leafValues></_>
        <_>
          <internalNodes>
            0 -1 1 -1.6201901435852051e-01</internalNodes>
          <leafValues>
            6.7549002170562744e-01 -8.6405932903289795e-01</leafValues></_>
        <_>
          <internalNodes>
            0 -1 52 5.3963065147399902e-03</internalNodes>
          <leafValues>
            -9.8345118761062622e-01 4.4112917780876160e-01</leafValues></_></weakClassifiers></_>
    <!-- stage 2 -->
    <_>
      <maxWeakCount>3</maxWeakCount>
      <stageThreshold>-1.7750550508499146e+00</stageThreshold>
      <weakClassifiers>
        <_>
          <internalNodes>
            0 -1 28 -1.5456604957580566e-01</internalNodes>
          <leafValues>
            2.9328620433807373e-01 -9.8603045940399170e-01</leafValues></_>
        <_>
          <internalNodes>
            0 -1 37 1.4841788448393345e-02</internalNodes>
          <leafValues>
            -9.4356679916381836e-01 2.1203103661537170e-01</leafValues></_>
        <_>
          <internalNodes>
            0 -1 10 -2.5711832568049431e-02</internalNodes>
          <leafValues>
            1.5454216301441193e-01 -9.7206950187683105e-01</leafValues></_></weakClassifiers></_>
    <!-- stage 3 -->
    <_>
      <maxWeakCount>4</maxWeakCount>
      <stageThreshold>-2.5017790794372559e+00</stageThreshold>
      <weakClassifiers>
        <_>
          <internalNodes>
            0 -1 16 -1.0421501100063324e-01</internalNodes>
          <leafValues>
            6.5803110599517822e-01 -9.8229348659515381e-01</leafValues></_>
        <_>
          <internalNodes>
            0 -1 35 -1.2192497961223125e-02</internalNodes>
          <leafValues>
            2.9779982566833496e-01 -9.4766402244567871e-01</leafValues></_>
        <_>
          <internalNodes>
            0 -1 7 -1.2777792289853096e-02</internalNodes>
          <leafValues>
            6.0996055603027344e-01 -8.3964508771896362e-01</leafValues></_>
        <_>
          <internalNodes>
            0 -1 21 -1.1746335029602051e-01</internalNodes>
          <leafValues>
            4.8326185345649719e-01 -9.7764033079147339e-01</leafValues></_></weakClassifiers></_>
    <!-- stage 4 -->
    <_>
      <maxWeakCount>4</maxWeakCount>
      <stageThreshold>-2.4679448604583740e+00</stageThreshold>
      <weakClassifiers>
        <_>
          <internalNodes>
            0 -1 56 -2.5352545082569122e-02</internalNodes>
          <leafValues>
            -1.0803323984146118e-01 -9.8221093416213989e-01</leafValues></_>
        <_>
          <internalNodes>
            0 -1 55 -1.5023970976471901e-02</internalNodes>
          <leafValues>
            6.3270904123783112e-02 -9.4303816556930542e-01</leafValues></_>
        <_>
          <internalNodes>
            0 -1 54 -1.0276669636368752e-03</internalNodes>
          <leafValues>
            8.7225213646888733e-02 -9.7851413488388062e-01</leafValues></_>
        <_>
          <internalNodes>
            0 -1 53 -4.0637091733515263e-03</internalNodes>
          <leafValues>
            6.6749763488769531e-01 -6.2992101907730103e-01</leafValues></_></weakClassifiers></_>
    <!-- stage 5 -->
    <_>
      <maxWeakCount>4</maxWeakCount>
      <stageThreshold>-2.2420005798339844e+00</stageThreshold>
      <weakClassifiers>
        <_>
          <internalNodes>
            0 -1 44 9.4716727733612061e-02</internalNodes>
          <leafValues>
            -9.7438883781433105e-01 6.0000002384185791e-01</leafValues></_>
        <_>
          <internalNodes>
            0 -1 15 -2.4598395824432373e-01</internalNodes>
          <leafValues>
            2.0455606281757355e-01 -8.8938641548156738e-01</leafValues></_>
        <_>
          <internalNodes>
            0 -1 39 -1.7042131721973419e-01</internalNodes>
          <leafValues>
            5.1401269435882568e-01 -7.5483131408691406e-01</leafValues></_>
        <_>
          <internalNodes>
            0 -1 58 1.0046891402453184e-03</internalNodes>
          <leafValues>
            -8.9223796129226685e-01 4.4778975844383240e-01</leafValues></_></weakClassifiers></_>
    <!-- stage 6 -->
    <_>
      <maxWeakCount>5</maxWeakCount>
      <stageThreshold>-3.2989625930786133e+00</stageThreshold>
      <weakClassifiers>
        <_>
          <internalNodes>
            0 -1 47 1.0184532403945923e-01</internalNodes>
          <leafValues>
            -9.7313755750656128e-01 1.7318435013294220e-01</leafValues></_>
        <_>
          <internalNodes>
            0 -1 23 -2.6867794990539551e-01</internalNodes>
          <leafValues>
            1.0333713144063950e-01 -8.9966374635696411e-01</leafValues></_>
        <_>
          <internalNodes>
            0 -1 19 4.8898952081799507e-03</internalNodes>
          <leafValues>
            -7.5112348794937134e-01 3.0755040049552917e-01</leafValues></_>
        <_>
          <internalNodes>
            0 -1 31 -5.0714565441012383e-04</internalNodes>
          <leafValues>
            3.1797632575035095e-01 -9.3243294954299927e-01</leafValues></_>
        <_>
          <internalNodes>
            0 -1 50 6.4152751292567700e-05</internalNodes>
          <leafValues>
            -9.9504083395004272e-01 2.5739514827728271e-01</leafValues></_></weakClassifiers></_>
    <!-- stage 7 -->
    <_>
      <maxWeakCount>5</maxWeakCount>
      <stageThreshold>-2.4299185276031494e+00</stageThreshold>
      <weakClassifiers>
        <_>
          <internalNodes>
            0 -1 12 -8.1136316061019897e-02</internalNodes>
          <leafValues>
            2.0224718749523163e-01 -9.7347348928451538e-01</leafValues></_>
        <_>
          <internalNodes>
            0 -1 26 -1.6995772719383240e-01</internalNodes>
          <leafValues>
            -2.0087137818336487e-02 -9.0864890813827515e-01</leafValues></_>
        <_>
          <internalNodes>
            0 -1 34 -1.5045784413814545e-02</internalNodes>
          <leafValues>
            7.9923227429389954e-02 -9.1346347332000732e-01</leafValues></_>
        <_>
          <internalNodes>
            0 -1 25 2.6150043122470379e-03</internalNodes>
          <leafValues>
            -9.6627455949783325e-01 2.1582710742950439e-01</leafValues></_>
        <_>
          <internalNodes>
            0 -1 17 -5.6961689551826566e-05</internalNodes>
          <leafValues>
            3.3855509757995605e-01 -7.9861485958099365e-01</leafValues></_></weakClassifiers></_>
    <!-- stage 8 -->
    <_>
      <maxWeakCount>6</maxWeakCount>
      <stageThreshold>-2.6428775787353516e+00</stageThreshold>
      <weakClassifiers>
        <_>
          <internalNodes>
            0 -1 2 7.9829692840576172e-02</internalNodes>
          <leafValues>
            -9.6929460763931274e-01 3.9655172824859619e-01</leafValues></_>
        <_>
          <internalNodes>
            0 -1 29 -1.8955153226852417e-01</internalNodes>
          <leafValues>
            1.9975733011960983e-02 -9.0510380268096924e-01</leafValues></_>
        <_>
          <internalNodes>
            0 -1 38 -4.4365413486957550e-03</internalNodes>
          <leafValues>
            4.7334769368171692e-01 -6.6627371311187744e-01</leafValues></_>
        <_>
          <internalNodes>
            0 -1 49 4.9464097246527672e-03</internalNodes>
          <leafValues>
            -6.5317177772521973e-01 4.6587443351745605e-01</leafValues></_>
        <_>
          <internalNodes>
            0 -1 46 -1.6360251232981682e-02</internalNodes>
          <leafValues>
            3.3986154198646545e-01 -9.1575694084167480e-01</leafValues></_>
        <_>
          <internalNodes>
            0 -1 33 -1.7311923205852509e-02</internalNodes>
          <leafValues>
            3.3439877629280090e-01 -7.9194426536560059e-01</leafValues></_></weakClassifiers></_>
    <!-- stage 9 -->
    <_>
      <maxWeakCount>6</maxWeakCount>
      <stageThreshold>-3.0281629562377930e+00</stageThreshold>
      <weakClassifiers>
        <_>
          <internalNodes>
            0 -1 6 8.6972020566463470e-02</internalNodes>
          <leafValues>
            -9.6830666065216064e-01 3.2743361592292786e-01</leafValues></_>
        <_>
          <internalNodes>
            0 -1 15 -2.4598473310470581e-01</internalNodes>
          <leafValues>
            -3.0499868094921112e-02 -8.9041173458099365e-01</leafValues></_>
        <_>
          <internalNodes>
            0 -1 4 2.4655335582792759e-03</internalNodes>
          <leafValues>
            -7.4059325456619263e-01 2.8435084223747253e-01</leafValues></_>
        <_>
          <internalNodes>
            0 -1 42 -9.7231077961623669e-04</internalNodes>
          <leafValues>
            1.7752967774868011e-01 -9.9298298358917236e-01</leafValues></_>
        <_>
          <internalNodes>
            0 -1 57 3.0882350984029472e-05</internalNodes>
          <leafValues>
            -8.2821643352508545e-01 2.3209197819232941e-01</leafValues></_>
        <_>
          <internalNodes>
            0 -1 8 -8.0396072007715702e-04</internalNodes>
          <leafValues>
            2.2183549404144287e-01 -9.8658388853073120e-01</leafValues></_></weakClassifiers></_>
    <!-- stage 10 -->
    <_>
      <maxWeakCount>6</maxWeakCount>
      <stageThreshold>-2.6822309494018555e+00</stageThreshold>
      <weakClassifiers>
        <_>
          <internalNodes>
            0 -1 60 1.4811658859252930e-01</internalNodes>
          <leafValues>
            -9.6999502182006836e-01 2.3809524253010750e-02</leafValues></_>
        <_>
          <internalNodes>
            0 -1 5 1.6892516613006592e-01</internalNodes>
          <leafValues>
            -8.5572612285614014e-01 2.3417413234710693e-01</leafValues></_>
        <_>
          <internalNodes>
            0 -1 0 -1.7255657911300659e-01</internalNodes>
          <leafValues>
            2.7828729152679443e-01 -6.7738437652587891e-01</leafValues></_>
        <_>
          <internalNodes>
            0 -1 48 1.6408381052315235e-03</internalNodes>
          <leafValues>
            -5.4464179277420044e-01 5.0203782320022583e-01</leafValues></_>
        <_>
          <internalNodes>
            0 -1 43 -2.1469281055033207e-03</internalNodes>
          <leafValues>
            -9.8785370588302612e-01 2.6366683840751648e-01</leafValues></_>
        <_>
          <internalNodes>
            0 -1 36 -3.3464963780716062e-04</internalNodes>
          <leafValues>
            2.8824576735496521e-01 -8.5382211208343506e-01</leafValues></_></weakClassifiers></_>
    <!-- stage 11 -->
    <_>
      <maxWeakCount>6</maxWeakCount>
      <stageThreshold>-2.6572880744934082e+00</stageThreshold>
      <weakClassifiers>
        <_>
          <internalNodes>
            0 -1 61 3.3741690218448639e-02</internalNodes>
          <leafValues>
            -9.7213596105575562e-01 -2.0318725705146790e-01</leafValues></_>
        <_>
          <internalNodes>
            0 -1 18 4.2036186903715134e-02</internalNodes>
          <leafValues>
            -8.6177438497543335e-01 2.2101765871047974e-01</leafValues></_>
        <_>
          <internalNodes>
            0 -1 13 4.2187850922346115e-03</internalNodes>
          <leafValues>
            -6.5055179595947266e-01 3.6466151475906372e-01</leafValues></_>
        <_>
          <internalNodes>
            0 -1 41 -7.7045362559147179e-05</internalNodes>
          <leafValues>
            1.7983253300189972e-01 -9.2762029170989990e-01</leafValues></_>
        <_>
          <internalNodes>
            0 -1 40 -1.9569227006286383e-03</internalNodes>
          <leafValues>
            -8.3608531951904297e-01 2.5679868459701538e-01</leafValues></_>
        <_>
          <internalNodes>
            0 -1 27 -1.8618702888488770e-01</internalNodes>
          <leafValues>
            4.9799561500549316e-01 -4.8180922865867615e-01</leafValues></_></weakClassifiers></_>
    <!-- stage 12 -->
    <_>
      <maxWeakCount>8</maxWeakCount>
      <stageThreshold>-2.9627928733825684e+00</stageThreshold>
      <weakClassifiers>
        <_>
          <internalNodes>
            0 -1 61 3.3736057579517365e-02</internalNodes>
          <leafValues>
            -9.7207266092300415e-01 -2.8057554364204407e-01</leafValues></_>
        <_>
          <internalNodes>
            0 -1 51 -7.1241650730371475e-03</internalNodes>
          <leafValues>
            -1.7572270333766937e-01 -8.7817525863647461e-01</leafValues></_>
        <_>
          <internalNodes>
            0 -1 32 -1.7484097043052316e-04</internalNodes>
          <leafValues>
            3.8855459541082382e-02 -8.1213754415512085e-01</leafValues></_>
        <_>
          <internalNodes>
            0 -1 9 -1.6874159337021410e-04</internalNodes>
          <leafValues>
            2.9679358005523682e-01 -6.2631684541702271e-01</leafValues></_>
        <_>
          <internalNodes>
            0 -1 3 -9.8412558436393738e-03</internalNodes>
          <leafValues>
            6.0293859243392944e-01 -3.8535112142562866e-01</leafValues></_>
        <_>
          <internalNodes>
            0 -1 24 4.1260891593992710e-03</internalNodes>
          <leafValues>
            3.0786818265914917e-01 -9.8566973209381104e-01</leafValues></_>
        <_>
          <internalNodes>
            0 -1 14 1.2837347574532032e-02</internalNodes>
          <leafValues>
            1.7909266054630280e-01 -8.8427156209945679e-01</leafValues></_>
        <_>
          <internalNodes>
            0 -1 45 -2.2651404142379761e-03</internalNodes>
          <leafValues>
            2.2429962456226349e-01 -9.4510066509246826e-01</leafValues></_></weakClassifiers></_></stages>
  <features>
    <_>
      <rects>
        <_>
          0 0 18 11 -1.</_>
        <_>
          9 0 9 11 2.</_></rects>
      <tilted>0</tilted></_>
    <_>
      <rects>
        <_>
          0 2 14 8 -1.</_>
        <_>
          7 2 7 8 2.</_></rects>
      <tilted>0</tilted></_>
    <_>
      <rects>
        <_>
          1 4 21 2 -1.</_>
        <_>
          8 4 7 2 3.</_></rects>
      <tilted>0</tilted></_>
    <_>
      <rects>
        <_>
          2 5 1 10 -1.</_>
        <_>
          2 10 1 5 2.</_></rects>
      <tilted>0</tilted></_>
    <_>
      <rects>
        <_>
          3 6 4 4 -1.</_>
        <_>
          3 6 2 2 2.</_>
        <_>
          5 8 2 2 2.</_></rects>
      <tilted>0</tilted></_>
    <_>
      <rects>
        <_>
          3 9 12 14 -1.</_>
        <_>
          3 9 6 7 2.</_>
        <_>
          9 16 6 7 2.</_></rects>
      <tilted>0</tilted></_>
    <_>
      <rects>
        <_>
          4 2 2 21 -1.</_>
        <_>
          4 9 2 7 3.</_></rects>
      <tilted>0</tilted></_>
    <_>
      <rects>
        <_>
          4 4 6 2 -1.</_>
        <_>
          7 4 3 2 2.</_></rects>
      <tilted>0</tilted></_>
    <_>
      <rects>
        <_>
          4 12 12 4 -1.</_>
        <_>
          4 14 12 2 2.</_></rects>
      <tilted>0</tilted></_>
    <_>
      <rects>
        <_>
          4 14 1 2 -1.</_>
        <_>
          4 15 1 1 2.</_></rects>
      <tilted>0</tilted></_>
    <_>
      <rects>
        <_>
          5 4 10 6 -1.</_>
        <_>
          5 7 10 3 2.</_></rects>
      <tilted>0</tilted></_>
    <_>
      <rects>
        <_>
          6 1 12 14 -1.</_>
        <_>
          10 1 4 14 3.</_></rects>
      <tilted>0</tilted></_>
    <_>
      <rects>
        <_>
          6 2 8 8 -1.</_>
        <_>
          6 2 4 4 2.</_>
        <_>
          10 6 4 4 2.</_></rects>
      <tilted>0</tilted></_>
    <_>
      <rects>
        <_>
          6 3 4 4 -1.</_>
        <_>
          6 3 2 2 2.</_>
        <_>
          8 5 2 2 2.</_></rects>
      <tilted>0</tilted></_>
    <_>
      <rects>
        <_>
          6 5 12 4 -1.</_>
        <_>
          12 5 6 4 2.</_></rects>
      <tilted>0</tilted></_>
    <_>
      <rects>
        <_>
          6 8 15 8 -1.</_>
        <_>
          11 8 5 8 3.</_></rects>
      <tilted>0</tilted></_>
    <_>
      <rects>
        <_>
          6 13 15 3 -1.</_>
        <_>
          11 13 5 3 3.</_></rects>
      <tilted>0</tilted></_>
    <_>
      <rects>
        <_>
          6 16 1 2 -1.</_>
        <_>
          6 17 1 1 2.</_></rects>
      <tilted>0</tilted></_>
    <_>
      <rects>
        <_>
          6 16 8 6 -1.</_>
        <_>
          6 16 4 3 2.</_>
        <_>
          10 19 4 3 2.</_></rects>
      <tilted>0</tilted></_>
    <_>
      <rects>
        <_>
          7 1 6 4 -1.</_>
        <_>
          7 1 3 2 2.</_>
        <_>
          10 3 3 2 2.</_></rects>
      <tilted>0</tilted></_>
    <_>
      <rects>
        <_>
          7 2 12 17 -1.</_>
        <_>
          11 2 4 17 3.</_></rects>
      <tilted>0</tilted></_>
    <_>
      <rects>
        <_>
          7 2 12 18 -1.</_>
        <_>
          11 2 4 18 3.</_></rects>
      <tilted>0</tilted></_>
    <_>
      <rects>
        <_>
          7 6 12 10 -1.</_>
        <_>
          11 6 4 10 3.</_></rects>
      <tilted>0</tilted></_>
    <_>
      <rects>
        <_>
          7 6 12 12 -1.</_>
        <_>
          11 6 4 12 3.</_></rects>
      <tilted>0</tilted></_>
    <_>
      <rects>
        <_>
          7 6 10 6 -1.</_>
        <_>
          7 6 5 3 2.</_>
        <_>
          12 9 5 3 2.</_></rects>
      <tilted>0</tilted></_>
    <_>
      <rects>
        <_>
          7 7 4 12 -1.</_>
        <_>
          7 7 2 6 2.</_>
        <_>
          9 13 2 6 2.</_></rects>
      <tilted>0</tilted></_>
    <_>
      <rects>
        <_>
          7 8 12 7 -1.</_>
        <_>
          11 8 4 7 3.</_></rects>
      <tilted>0</tilted></_>
    <_>
      <rects>
        <_>
          8 5 9 14 -1.</_>
        <_>
          11 5 3 14 3.</_></rects>
      <tilted>0</tilted></_>
    <_>
      <rects>
        <_>
          8 6 9 9 -1.</_>
        <_>
          11 6 3 9 3.</_></rects>
      <tilted>0</tilted></_>
    <_>
      <rects>
        <_>
          8 6 9 12 -1.</_>
        <_>
          11 6 3 12 3.</_></rects>
      <tilted>0</tilted></_>
    <_>
      <rects>
        <_>
          8 7 9 12 -1.</_>
        <_>
          11 7 3 12 3.</_></rects>
      <tilted>0</tilted></_>
    <_>
      <rects>
        <_>
          8 8 2 2 -1.</_>
        <_>
          9 8 1 2 2.</_></rects>
      <tilted>0</tilted></_>
    <_>
      <rects>
        <_>
          8 8 2 2 -1.</_>
        <_>
          8 9 2 1 2.</_></rects>
      <tilted>0</tilted></_>
    <_>
      <rects>
        <_>
          9 1 6 8 -1.</_>
        <_>
          11 1 2 8 3.</_></rects>
      <tilted>0</tilted></_>
    <_>
      <rects>
        <_>
          9 6 12 6 -1.</_>
        <_>
          9 8 12 2 3.</_></rects>
      <tilted>0</tilted></_>
    <_>
      <rects>
        <_>
          9 11 4 3 -1.</_>
        <_>
          11 11 2 3 2.</_></rects>
      <tilted>0</tilted></_>
    <_>
      <rects>
        <_>
          9 14 5 6 -1.</_>
        <_>
          9 16 5 2 3.</_></rects>
      <tilted>0</tilted></_>
    <_>
      <rects>
        <_>
          9 15 4 8 -1.</_>
        <_>
          9 15 2 4 2.</_>
        <_>
          11 19 2 4 2.</_></rects>
      <tilted>0</tilted></_>
    <_>
      <rects>
        <_>
          10 0 3 2 -1.</_>
        <_>
          10 1 3 1 2.</_></rects>
      <tilted>0</tilted></_>
    <_>
      <rects>
        <_>
          10 0 14 12 -1.</_>
        <_>
          10 6 14 6 2.</_></rects>
      <tilted>0</tilted></_>
    <_>
      <rects>
        <_>
          10 6 1 15 -1.</_>
        <_>
          10 11 1 5 3.</_></rects>
      <tilted>0</tilted></_>
    <_>
      <rects>
        <_>
          10 7 1 2 -1.</_>
        <_>
          10 8 1 1 2.</_></rects>
      <tilted>0</tilted></_>
    <_>
      <rects>
        <_>
          10 9 4 6 -1.</_>
        <_>
          10 9 2 3 2.</_>
        <_>
          12 12 2 3 2.</_></rects>
      <tilted>0</tilted></_>
    <_>
      <rects>
        <_>
          10 12 4 6 -1.</_>
        <_>
          10 15 4 3 2.</_></rects>
      <tilted>0</tilted></_>
    <_>
      <rects>
        <_>
          11 3 10 8 -1.</_>
        <_>
          11 3 5 4 2.</_>
        <_>
          16 7 5 4 2.</_></rects>
      <tilted>0</tilted></_>
    <_>
      <rects>
        <_>
          11 10 8 8 -1.</_>
        <_>
          11 14 8 4 2.</_></rects>
      <tilted>0</tilted></_>
    <_>
      <rects>
        <_>
          12 0 2 20 -1.</_>
        <_>
          12 10 2 10 2.</_></rects>
      <tilted>0</tilted></_>
    <_>
      <rects>
        <_>
          12 0 6 14 -1.</_>
        <_>
          12 0 3 7 2.</_>
        <_>
          15 7 3 7 2.</_></rects>
      <tilted>0</tilted></_>
    <_>
      <rects>
        <_>
          12 3 2 4 -1.</_>
        <_>
          12 3 1 2 2.</_>
        <_>
          13 5 1 2 2.</_></rects>
      <tilted>0</tilted></_>
    <_>
      <rects>
        <_>
          12 4 4 4 -1.</_>
        <_>
          12 4 2 2 2.</_>
        <_>
          14 6 2 2 2.</_></rects>
      <tilted>0</tilted></_>
    <_>
      <rects>
        <_>
          12 18 1 2 -1.</_>
        <_>
          12 19 1 1 2.</_></rects>
      <tilted>0</tilted></_>
    <_>
      <rects>
        <_>
          12 18 4 4 -1.</_>
        <_>
          12 18 2 2 2.</_>
        <_>
          14 20 2 2 2.</_></rects>
      <tilted>0</tilted></_>
    <_>
      <rects>
        <_>
          13 0 2 17 -1.</_>
        <_>
          14 0 1 17 2.</_></rects>
      <tilted>0</tilted></_>
    <_>
      <rects>
        <_>
          14 3 4 4 -1.</_>
        <_>
          14 3 2 2 2.</_>
        <_>
          16 5 2 2 2.</_></rects>
      <tilted>0</tilted></_>
    <_>
      <rects>
        <_>
          14 10 1 6 -1.</_>
        <_>
          14 13 1 3 2.</_></rects>
      <tilted>0</tilted></_>
    <_>
      <rects>
        <_>
          14 11 2 9 -1.</_>
        <_>
          14 14 2 3 3.</_></rects>
      <tilted>0</tilted></_>
    <_>
      <rects>
        <_>
          14 14 6 6 -1.</_>
        <_>
          14 14 3 3 2.</_>
        <_>
          17 17 3 3 2.</_></rects>
      <tilted>0</tilted></_>
    <_>
      <rects>
        <_>
          15 9 3 1 -1.</_>
        <_>
          16 9 1 1 3.</_></rects>
      <tilted>0</tilted></_>
    <_>
      <rects>
        <_>
          15 15 1 4 -1.</_>
        <_>
          15 17 1 2 2.</_></rects>
      <tilted>0</tilted></_>
    <_>
      <rects>
        <_>
          16 15 2 1 -1.</_>
        <_>
          17 15 1 1 2.</_></rects>
      <tilted>0</tilted></_>
    <_>
      <rects>
        <_>
          18 0 3 24 -1.</_>
        <_>
          18 8 3 8 3.</_></rects>
      <tilted>0</tilted></_>
    <_>
      <rects>
        <_>
          20 3 1 18 -1.</_>
        <_>
          20 9 1 6 3.</_></rects>
      <tilted>0</tilted></_></features></cascade>
</opencv_storage>
