<?xml version="1.0"?>
<opencv_storage>
<cascade>
  <stageType>BOOST</stageType>
  <featureType>LBP</featureType>
  <height>50</height>
  <width>50</width>
  <stageParams>
    <boostType>GAB</boostType>
    <minHitRate>9.9900001287460327e-01</minHitRate>
    <maxFalseAlarm>5.0000000000000000e-01</maxFalseAlarm>
    <weightTrimRate>9.4999999999999996e-01</weightTrimRate>
    <maxDepth>1</maxDepth>
    <maxWeakCount>100</maxWeakCount></stageParams>
  <featureParams>
    <maxCatCount>256</maxCatCount>
    <featSize>1</featSize></featureParams>
  <stageNum>6</stageNum>
  <stages>
    <!-- stage 0 -->
    <_>
      <maxWeakCount>3</maxWeakCount>
      <stageThreshold>-1.2160927057266235e+00</stageThreshold>
      <weakClassifiers>
        <_>
          <internalNodes>
            0 -1 5 -78645249 -650133501 -989622143 -643868449
            -2133333877 1896189969 -2095871809 -67108865</internalNodes>
          <leafValues>
            -9.9850100278854370e-01 9.8360657691955566e-01</leafValues></_>
        <_>
          <internalNodes>
            0 -1 6 -15730689 -788016805 -2129670001 -115387747
            -1064965953 1375967527 -1055668065 -2097153</internalNodes>
          <leafValues>
            -9.9442493915557861e-01 8.5679370164871216e-01</leafValues></_>
        <_>
          <internalNodes>
            0 -1 4 -140509185 -15499263 50450455 -552083441 -2130583301
            8487040 -1014251345 -74449921</internalNodes>
          <leafValues>
            -9.9314188957214355e-01 7.7683323621749878e-01</leafValues></_></weakClassifiers></_>
    <!-- stage 1 -->
    <_>
      <maxWeakCount>3</maxWeakCount>
      <stageThreshold>-1.1883643865585327e+00</stageThreshold>
      <weakClassifiers>
        <_>
          <internalNodes>
            0 -1 7 -2621697 -640433397 -805045313 -143146145 -1562382609
            1937998217 -137363457 -1048577</internalNodes>
          <leafValues>
            -9.9716854095458984e-01 8.5245901346206665e-01</leafValues></_>
        <_>
          <internalNodes>
            0 -1 2 -537405473 -82327393 -1056747055 -607138097
            -787363589 -1040061765 -419172161 -134233857</internalNodes>
          <leafValues>
            -9.8876023292541504e-01 8.7968409061431885e-01</leafValues></_>
        <_>
          <internalNodes>
            0 -1 3 -606077969 -237027117 -217857782 -116789237
            -658011966 -799829989 -791818227 -67108865</internalNodes>
          <leafValues>
            -9.8982238769531250e-01 7.9756438732147217e-01</leafValues></_></weakClassifiers></_>
    <!-- stage 2 -->
    <_>
      <maxWeakCount>3</maxWeakCount>
      <stageThreshold>-1.6657508611679077e+00</stageThreshold>
      <weakClassifiers>
        <_>
          <internalNodes>
            0 -1 15 -1 -2098177 -671612929 -1537 -67108865 -1048581
            -2097169 -17</internalNodes>
          <leafValues>
            -9.9037027359008789e-01 7.1428573131561279e-01</leafValues></_>
        <_>
          <internalNodes>
            0 -1 12 -1 2004744191 -538968097 -10241 -2097153 -1285
            -68157505 -4097</internalNodes>
          <leafValues>
            -9.8835057020187378e-01 2.9098179936408997e-01</leafValues></_>
        <_>
          <internalNodes>
            0 -1 0 -1 -271584769 -551684113 -2106369 -132097 -1149515525
            -69469193 -1</internalNodes>
          <leafValues>
            -9.6636241674423218e-01 5.0613135099411011e-01</leafValues></_></weakClassifiers></_>
    <!-- stage 3 -->
    <_>
      <maxWeakCount>3</maxWeakCount>
      <stageThreshold>-1.5820317268371582e+00</stageThreshold>
      <weakClassifiers>
        <_>
          <internalNodes>
            0 -1 11 -513 -2049 -205786113 -2097345 -67108865 -1048645
            -1048577 -1</internalNodes>
          <leafValues>
            -9.8987382650375366e-01 6.8292683362960815e-01</leafValues></_>
        <_>
          <internalNodes>
            0 -1 14 -33554433 -1 -538091521 -1 -1 -1314833 -16453 -16385</internalNodes>
          <leafValues>
            -9.8176056146621704e-01 3.5279348492622375e-01</leafValues></_>
        <_>
          <internalNodes>
            0 -1 1 -354418689 -19146769 -184027137 -10273 -606077698
            -74726257 -2097153 -1572929</internalNodes>
          <leafValues>
            -9.4495129585266113e-01 5.5931377410888672e-01</leafValues></_></weakClassifiers></_>
    <!-- stage 4 -->
    <_>
      <maxWeakCount>4</maxWeakCount>
      <stageThreshold>-2.6337068080902100e+00</stageThreshold>
      <weakClassifiers>
        <_>
          <internalNodes>
            0 -1 18 -129 -3105 -648677921 -2049 -67109889 -268713761
            -67116033 -1</internalNodes>
          <leafValues>
            -9.9181967973709106e-01 7.9999998211860657e-02</leafValues></_>
        <_>
          <internalNodes>
            0 -1 10 -1 1609956351 -2097153 -2561 -1 -132161 -69468161
            -16385</internalNodes>
          <leafValues>
            -9.7711938619613647e-01 1.2460595369338989e-01</leafValues></_>
        <_>
          <internalNodes>
            0 -1 13 -2099201 -8388609 -8193 -33554433 -35652099 -1
            -34603009 -1107296257</internalNodes>
          <leafValues>
            -9.7325903177261353e-01 3.0556234717369080e-01</leafValues></_>
        <_>
          <internalNodes>
            0 -1 9 -139265 -2097153 -654060545 -3146753 -68386956
            -70557005 -1212545 -1048577</internalNodes>
          <leafValues>
            -9.7032999992370605e-01 4.0685793757438660e-01</leafValues></_></weakClassifiers></_>
    <!-- stage 5 -->
    <_>
      <maxWeakCount>4</maxWeakCount>
      <stageThreshold>-2.5218298435211182e+00</stageThreshold>
      <weakClassifiers>
        <_>
          <internalNodes>
            0 -1 16 -2049 -2097185 -3145729 -2100769 -513 -4478033
            -6553601 -1</internalNodes>
          <leafValues>
            -9.8804879188537598e-01 4.3209877610206604e-01</leafValues></_>
        <_>
          <internalNodes>
            0 -1 17 -129 -641 -607125537 -129 -1 -235939075 -1048577 -1</internalNodes>
          <leafValues>
            -9.5603394508361816e-01 4.3132659792900085e-01</leafValues></_>
        <_>
          <internalNodes>
            0 -1 10 -1 1475739647 -67108865 -33 -1033 -135135233 -263169
            -49155</internalNodes>
          <leafValues>
            -9.5230501890182495e-01 3.4466838836669922e-01</leafValues></_>
        <_>
          <internalNodes>
            0 -1 8 -69635 2145246199 -2105857 -10753 -73403403 -14149
            -83954724 -4227</internalNodes>
          <leafValues>
            -9.2241555452346802e-01 5.5287081003189087e-01</leafValues></_></weakClassifiers></_></stages>
  <features>
    <_>
      <rect>
        0 8 7 5</rect></_>
    <_>
      <rect>
        1 14 3 10</rect></_>
    <_>
      <rect>
        2 8 16 8</rect></_>
    <_>
      <rect>
        2 16 8 9</rect></_>
    <_>
      <rect>
        5 19 15 10</rect></_>
    <_>
      <rect>
        7 25 14 8</rect></_>
    <_>
      <rect>
        7 27 13 7</rect></_>
    <_>
      <rect>
        9 20 13 10</rect></_>
    <_>
      <rect>
        9 43 8 2</rect></_>
    <_>
      <rect>
        13 21 2 8</rect></_>
    <_>
      <rect>
        15 35 9 5</rect></_>
    <_>
      <rect>
        17 0 10 10</rect></_>
    <_>
      <rect>
        17 32 9 5</rect></_>
    <_>
      <rect>
        18 6 8 8</rect></_>
    <_>
      <rect>
        18 9 5 13</rect></_>
    <_>
      <rect>
        18 15 5 7</rect></_>
    <_>
      <rect>
        20 1 7 7</rect></_>
    <_>
      <rect>
        41 15 3 6</rect></_>
    <_>
      <rect>
        43 14 2 8</rect></_></features></cascade>
</opencv_storage>
