<?xml version="1.0"?>
<opencv_storage>
<cascade>
  <stageType>BOOST</stageType>
  <featureType>LBP</featureType>
  <height>50</height>
  <width>50</width>
  <stageParams>
    <boostType>GAB</boostType>
    <minHitRate>9.9900001287460327e-01</minHitRate>
    <maxFalseAlarm>5.0000000000000000e-01</maxFalseAlarm>
    <weightTrimRate>9.4999999999999996e-01</weightTrimRate>
    <maxDepth>1</maxDepth>
    <maxWeakCount>100</maxWeakCount></stageParams>
  <featureParams>
    <maxCatCount>256</maxCatCount>
    <featSize>1</featSize></featureParams>
  <stageNum>19</stageNum>
  <stages>
    <!-- stage 0 -->
    <_>
      <maxWeakCount>2</maxWeakCount>
      <stageThreshold>2.1781870163977146e-03</stageThreshold>
      <weakClassifiers>
        <_>
          <internalNodes>
            0 -1 9 -741877809 -788283373 69697 1359020179 1073856651
            16941060 -2130534197 -87043409</internalNodes>
          <leafValues>
            -9.8019802570343018e-01 1.</leafValues></_>
        <_>
          <internalNodes>
            0 -1 28 -254819381 163840 16826433 98435 -2130673661 131072
            -2147385206 -74716721</internalNodes>
          <leafValues>
            -9.7410833835601807e-01 9.8237621784210205e-01</leafValues></_></weakClassifiers></_>
    <!-- stage 1 -->
    <_>
      <maxWeakCount>1</maxWeakCount>
      <stageThreshold>1.</stageThreshold>
      <weakClassifiers>
        <_>
          <internalNodes>
            0 -1 8 1409400963 -1736441856 0 285245441 -1879011189
            671186952 807534785 1227456643</internalNodes>
          <leafValues>
            -1. 1.</leafValues></_></weakClassifiers></_>
    <!-- stage 2 -->
    <_>
      <maxWeakCount>1</maxWeakCount>
      <stageThreshold>9.8019802570343018e-01</stageThreshold>
      <weakClassifiers>
        <_>
          <internalNodes>
            0 -1 13 -855402603 -586842104 32776 -980680567 -1325366912
            570425345 -1073741813 1737203871</internalNodes>
          <leafValues>
            -1. 9.8019802570343018e-01</leafValues></_></weakClassifiers></_>
    <!-- stage 3 -->
    <_>
      <maxWeakCount>1</maxWeakCount>
      <stageThreshold>1.</stageThreshold>
      <weakClassifiers>
        <_>
          <internalNodes>
            0 -1 5 1074376843 11534353 3 -1877934080 4227265 1073741956
            -2139092606 -1834024832</internalNodes>
          <leafValues>
            -1. 1.</leafValues></_></weakClassifiers></_>
    <!-- stage 4 -->
    <_>
      <maxWeakCount>1</maxWeakCount>
      <stageThreshold>9.8019802570343018e-01</stageThreshold>
      <weakClassifiers>
        <_>
          <internalNodes>
            0 -1 0 -780025394 285212674 32768 -1073741824 1 2
            -2147483647 -347388397</internalNodes>
          <leafValues>
            -1. 9.8019802570343018e-01</leafValues></_></weakClassifiers></_>
    <!-- stage 5 -->
    <_>
      <maxWeakCount>1</maxWeakCount>
      <stageThreshold>9.6078431606292725e-01</stageThreshold>
      <weakClassifiers>
        <_>
          <internalNodes>
            0 -1 10 -788328363 -788446964 268435457 285216781
            -1694400253 285315345 268450056 318845193</internalNodes>
          <leafValues>
            -1. 9.6078431606292725e-01</leafValues></_></weakClassifiers></_>
    <!-- stage 6 -->
    <_>
      <maxWeakCount>1</maxWeakCount>
      <stageThreshold>1.</stageThreshold>
      <weakClassifiers>
        <_>
          <internalNodes>
            0 -1 14 -2146340073 1073741824 16 -2147418112 49290 128
            327714 1210941576</internalNodes>
          <leafValues>
            -1. 1.</leafValues></_></weakClassifiers></_>
    <!-- stage 7 -->
    <_>
      <maxWeakCount>2</maxWeakCount>
      <stageThreshold>-6.9264188408851624e-02</stageThreshold>
      <weakClassifiers>
        <_>
          <internalNodes>
            0 -1 21 -247418609 1881211153 27 -1827487741 983244
            -1165492070 -1996453878 -85991285</internalNodes>
          <leafValues>
            -9.5439738035202026e-01 1.</leafValues></_>
        <_>
          <internalNodes>
            0 -1 18 -1014923135 -805238783 8 1157632075 -2013257583
            -2013134720 -2147374198 -41440177</internalNodes>
          <leafValues>
            -9.6780675649642944e-01 8.8513320684432983e-01</leafValues></_></weakClassifiers></_>
    <!-- stage 8 -->
    <_>
      <maxWeakCount>3</maxWeakCount>
      <stageThreshold>-9.5693331956863403e-01</stageThreshold>
      <weakClassifiers>
        <_>
          <internalNodes>
            0 -1 3 -1 -319357185 -65541 -16842754 -1 -8913034 -1
            -141557761</internalNodes>
          <leafValues>
            -9.1025638580322266e-01 9.5454543828964233e-01</leafValues></_>
        <_>
          <internalNodes>
            0 -1 23 -1073577765 -788414463 3 -763263999 -1610487415
            -1979678720 -1577020414 -43279729</internalNodes>
          <leafValues>
            -8.7501198053359985e-01 9.6031731367111206e-01</leafValues></_>
        <_>
          <internalNodes>
            0 -1 4 1629192586 -653152245 1073828099 -582418235
            -1542784805 -2147450864 -2147398521 -888190329</internalNodes>
          <leafValues>
            -9.7144627571105957e-01 8.2833510637283325e-01</leafValues></_></weakClassifiers></_>
    <!-- stage 9 -->
    <_>
      <maxWeakCount>2</maxWeakCount>
      <stageThreshold>-1.4604774117469788e-01</stageThreshold>
      <weakClassifiers>
        <_>
          <internalNodes>
            0 -1 11 -71051073 -779509631 1073741827 1359151427
            -1736277846 -930545663 165007 -778833726</internalNodes>
          <leafValues>
            -9.4754099845886230e-01 9.3684208393096924e-01</leafValues></_>
        <_>
          <internalNodes>
            0 -1 12 1503711435 -641400702 1073742339 421105665
            -932020069 -2012086136 -2139062113 1275301075</internalNodes>
          <leafValues>
            -9.9330085515975952e-01 8.0149322748184204e-01</leafValues></_></weakClassifiers></_>
    <!-- stage 10 -->
    <_>
      <maxWeakCount>2</maxWeakCount>
      <stageThreshold>-9.2792831361293793e-02</stageThreshold>
      <weakClassifiers>
        <_>
          <internalNodes>
            0 -1 29 -786959457 868433988 17301504 -170934163 -1056849529
            814301186 -783505271 -142351729</internalNodes>
          <leafValues>
            -9.4078946113586426e-01 8.9583331346511841e-01</leafValues></_>
        <_>
          <internalNodes>
            0 -1 1 -467145761 -1023115104 16842755 -715833215 1073852623
            -805273408 1099010731 -3947645</internalNodes>
          <leafValues>
            -9.4814562797546387e-01 8.4799665212631226e-01</leafValues></_></weakClassifiers></_>
    <!-- stage 11 -->
    <_>
      <maxWeakCount>2</maxWeakCount>
      <stageThreshold>-6.0752350836992264e-02</stageThreshold>
      <weakClassifiers>
        <_>
          <internalNodes>
            0 -1 22 -1157382001 319226245 16869401 1228997377
            -2013087077 1610612876 -536827495 -575681187</internalNodes>
          <leafValues>
            -9.4117647409439087e-01 9.3617022037506104e-01</leafValues></_>
        <_>
          <internalNodes>
            0 -1 30 -564934377 -2130706159 33589251 -1744600958
            -1073503542 -402554880 -897350967 -603213621</internalNodes>
          <leafValues>
            -9.4287025928497314e-01 8.8042414188385010e-01</leafValues></_></weakClassifiers></_>
    <!-- stage 12 -->
    <_>
      <maxWeakCount>2</maxWeakCount>
      <stageThreshold>-9.4943583011627197e-02</stageThreshold>
      <weakClassifiers>
        <_>
          <internalNodes>
            0 -1 6 -16777217 -286326793 270532739 1074282499 -2138931069
            -1862270842 -1861058101 -8161</internalNodes>
          <leafValues>
            -9.2282956838607788e-01 9.7752809524536133e-01</leafValues></_>
        <_>
          <internalNodes>
            0 -1 27 -649342505 285216915 184637729 1359282185 134824075
            145342635 -922582881 -863290998</internalNodes>
          <leafValues>
            -1. 8.2788598537445068e-01</leafValues></_></weakClassifiers></_>
    <!-- stage 13 -->
    <_>
      <maxWeakCount>2</maxWeakCount>
      <stageThreshold>-1.0937811434268951e-01</stageThreshold>
      <weakClassifiers>
        <_>
          <internalNodes>
            0 -1 26 1359057859 -1065115643 1140888960 -1005871104
            -2140828701 -2000682496 -998206763 -37492077</internalNodes>
          <leafValues>
            -9.2156863212585449e-01 8.7234044075012207e-01</leafValues></_>
        <_>
          <internalNodes>
            0 -1 25 -666143371 -467947257 16793865 901841499 -1606188789
            -1557004031 -1054757490 -638240225</internalNodes>
          <leafValues>
            -9.7351330518722534e-01 8.1219053268432617e-01</leafValues></_></weakClassifiers></_>
    <!-- stage 14 -->
    <_>
      <maxWeakCount>2</maxWeakCount>
      <stageThreshold>-1.0439378023147583e-01</stageThreshold>
      <weakClassifiers>
        <_>
          <internalNodes>
            0 -1 7 1734074331 -2130706431 -989511333 -573747181
            268968083 -939523966 545292451 -2104629</internalNodes>
          <leafValues>
            -9.3377482891082764e-01 8.3673471212387085e-01</leafValues></_>
        <_>
          <internalNodes>
            0 -1 20 -699281059 1073283412 318833629 -721288960
            -1031241589 -5601253 -1996308344 -7632757</internalNodes>
          <leafValues>
            -9.4112849235534668e-01 8.5540288686752319e-01</leafValues></_></weakClassifiers></_>
    <!-- stage 15 -->
    <_>
      <maxWeakCount>2</maxWeakCount>
      <stageThreshold>-1.0999825596809387e-01</stageThreshold>
      <weakClassifiers>
        <_>
          <internalNodes>
            0 -1 17 -805212001 1402044825 -805025463 -39518127
            -444052546 1273563544 -1744134246 -7392886</internalNodes>
          <leafValues>
            -9.4019931554794312e-01 8.3838385343551636e-01</leafValues></_>
        <_>
          <internalNodes>
            0 -1 16 -238558509 1073754115 67108881 -805224448 -612302845
            -1065353184 -1073495541 -626277813</internalNodes>
          <leafValues>
            -9.4699782133102417e-01 8.3020108938217163e-01</leafValues></_></weakClassifiers></_>
    <!-- stage 16 -->
    <_>
      <maxWeakCount>2</maxWeakCount>
      <stageThreshold>-9.7604386508464813e-02</stageThreshold>
      <weakClassifiers>
        <_>
          <internalNodes>
            0 -1 2 -268435457 -989855745 1074790399 -285282167 -16777345
            -134217985 -2009038573 -78919441</internalNodes>
          <leafValues>
            -8.9171975851058960e-01 9.3023258447647095e-01</leafValues></_>
        <_>
          <internalNodes>
            0 -1 32 -788016749 -1056849919 -1878425591 -922095475
            -2092859136 557082 16884227 -3816813</internalNodes>
          <leafValues>
            -9.5543617010116577e-01 7.9411536455154419e-01</leafValues></_></weakClassifiers></_>
    <!-- stage 17 -->
    <_>
      <maxWeakCount>2</maxWeakCount>
      <stageThreshold>-2.0738716423511505e-01</stageThreshold>
      <weakClassifiers>
        <_>
          <internalNodes>
            0 -1 19 -2092055087 2001065181 67227745 -16660459
            -1827632173 -206913535 -1609299070 -1146451894</internalNodes>
          <leafValues>
            -9.5270270109176636e-01 7.8846156597137451e-01</leafValues></_>
        <_>
          <internalNodes>
            0 -1 31 -775749621 -780041599 4113 -805175273 -1878982389
            -1300234240 -754284117 -7885877</internalNodes>
          <leafValues>
            -9.6488761901855469e-01 7.4531555175781250e-01</leafValues></_></weakClassifiers></_>
    <!-- stage 18 -->
    <_>
      <maxWeakCount>2</maxWeakCount>
      <stageThreshold>-1.6704425215721130e-01</stageThreshold>
      <weakClassifiers>
        <_>
          <internalNodes>
            0 -1 24 -909816841 1073856785 33671507 -249314683 1880335883
            -1023409917 -2008598013 -275797301</internalNodes>
          <leafValues>
            -9.0789473056793213e-01 7.9166668653488159e-01</leafValues></_>
        <_>
          <internalNodes>
            0 -1 15 -687345185 1094828043 -1879031541 -250359807
            -1542909951 -2146795520 -1862178485 -419444085</internalNodes>
          <leafValues>
            -9.5871090888977051e-01 7.5112384557723999e-01</leafValues></_></weakClassifiers></_></stages>
  <features>
    <_>
      <rect>
        0 9 10 11</rect></_>
    <_>
      <rect>
        0 15 4 6</rect></_>
    <_>
      <rect>
        1 26 2 6</rect></_>
    <_>
      <rect>
        1 35 3 5</rect></_>
    <_>
      <rect>
        2 4 12 8</rect></_>
    <_>
      <rect>
        2 29 16 7</rect></_>
    <_>
      <rect>
        3 34 2 4</rect></_>
    <_>
      <rect>
        4 7 6 5</rect></_>
    <_>
      <rect>
        4 18 15 8</rect></_>
    <_>
      <rect>
        4 24 14 8</rect></_>
    <_>
      <rect>
        5 31 15 6</rect></_>
    <_>
      <rect>
        6 8 7 8</rect></_>
    <_>
      <rect>
        6 9 9 7</rect></_>
    <_>
      <rect>
        8 22 12 6</rect></_>
    <_>
      <rect>
        11 8 13 11</rect></_>
    <_>
      <rect>
        13 22 2 8</rect></_>
    <_>
      <rect>
        13 26 2 5</rect></_>
    <_>
      <rect>
        14 34 9 5</rect></_>
    <_>
      <rect>
        15 0 10 8</rect></_>
    <_>
      <rect>
        16 33 9 5</rect></_>
    <_>
      <rect>
        17 29 8 4</rect></_>
    <_>
      <rect>
        17 32 9 5</rect></_>
    <_>
      <rect>
        18 8 8 7</rect></_>
    <_>
      <rect>
        18 9 5 12</rect></_>
    <_>
      <rect>
        18 10 5 13</rect></_>
    <_>
      <rect>
        19 1 7 8</rect></_>
    <_>
      <rect>
        19 22 5 8</rect></_>
    <_>
      <rect>
        19 35 7 3</rect></_>
    <_>
      <rect>
        25 25 6 8</rect></_>
    <_>
      <rect>
        27 22 4 8</rect></_>
    <_>
      <rect>
        30 12 3 6</rect></_>
    <_>
      <rect>
        32 11 3 3</rect></_>
    <_>
      <rect>
        41 31 3 4</rect></_></features></cascade>
</opencv_storage>
