<?xml version="1.0"?>
<opencv_storage>
<cascade>
  <stageType>BOOST</stageType>
  <featureType>HAAR</featureType>
  <height>50</height>
  <width>50</width>
  <stageParams>
    <boostType>GAB</boostType>
    <minHitRate>9.9900001287460327e-01</minHitRate>
    <maxFalseAlarm>5.0000000000000000e-01</maxFalseAlarm>
    <weightTrimRate>9.4999999999999996e-01</weightTrimRate>
    <maxDepth>1</maxDepth>
    <maxWeakCount>100</maxWeakCount></stageParams>
  <featureParams>
    <maxCatCount>0</maxCatCount>
    <featSize>1</featSize>
    <mode>BASIC</mode></featureParams>
  <stageNum>20</stageNum>
  <stages>
    <!-- stage 0 -->
    <_>
      <maxWeakCount>8</maxWeakCount>
      <stageThreshold>-1.6454490423202515e+00</stageThreshold>
      <weakClassifiers>
        <_>
          <internalNodes>
            0 -1 68 -1.0810080915689468e-02</internalNodes>
          <leafValues>
            6.0749328136444092e-01 -5.3846156597137451e-01</leafValues></_>
        <_>
          <internalNodes>
            0 -1 130 5.7070437833317555e-06</internalNodes>
          <leafValues>
            -4.3875181674957275e-01 5.1613390445709229e-01</leafValues></_>
        <_>
          <internalNodes>
            0 -1 52 -5.2241030061850324e-06</internalNodes>
          <leafValues>
            4.4453591108322144e-01 -5.5894804000854492e-01</leafValues></_>
        <_>
          <internalNodes>
            0 -1 161 6.7604321520775557e-04</internalNodes>
          <leafValues>
            -4.0618887543678284e-01 5.9917354583740234e-01</leafValues></_>
        <_>
          <internalNodes>
            0 -1 79 -1.1429297737777233e-02</internalNodes>
          <leafValues>
            5.6347936391830444e-01 -4.6239984035491943e-01</leafValues></_>
        <_>
          <internalNodes>
            0 -1 57 2.4437147203570930e-06</internalNodes>
          <leafValues>
            -5.1058977842330933e-01 5.0135993957519531e-01</leafValues></_>
        <_>
          <internalNodes>
            0 -1 30 -2.6729865930974483e-04</internalNodes>
          <leafValues>
            5.0381004810333252e-01 -4.8356363177299500e-01</leafValues></_>
        <_>
          <internalNodes>
            0 -1 158 -1.5571645053569227e-04</internalNodes>
          <leafValues>
            5.9749585390090942e-01 -3.4738603234291077e-01</leafValues></_></weakClassifiers></_>
    <!-- stage 1 -->
    <_>
      <maxWeakCount>11</maxWeakCount>
      <stageThreshold>-1.3888804912567139e+00</stageThreshold>
      <weakClassifiers>
        <_>
          <internalNodes>
            0 -1 118 2.4840883270371705e-06</internalNodes>
          <leafValues>
            -2.6712328195571899e-01 6.2732917070388794e-01</leafValues></_>
        <_>
          <internalNodes>
            0 -1 47 1.9687963649630547e-02</internalNodes>
          <leafValues>
            -2.7331009507179260e-01 7.5194948911666870e-01</leafValues></_>
        <_>
          <internalNodes>
            0 -1 128 -2.8852443210780621e-04</internalNodes>
          <leafValues>
            6.3270694017410278e-01 -2.9827076196670532e-01</leafValues></_>
        <_>
          <internalNodes>
            0 -1 114 2.0483460277318954e-02</internalNodes>
          <leafValues>
            -2.9610317945480347e-01 7.3176431655883789e-01</leafValues></_>
        <_>
          <internalNodes>
            0 -1 90 4.0244795382022858e-03</internalNodes>
          <leafValues>
            -2.1009373664855957e-01 8.2966351509094238e-01</leafValues></_>
        <_>
          <internalNodes>
            0 -1 49 -2.3789330043655355e-06</internalNodes>
          <leafValues>
            6.7117017507553101e-01 -2.9514303803443909e-01</leafValues></_>
        <_>
          <internalNodes>
            0 -1 173 5.9467165556270629e-06</internalNodes>
          <leafValues>
            -3.7542796134948730e-01 5.2067077159881592e-01</leafValues></_>
        <_>
          <internalNodes>
            0 -1 122 -4.9715535715222359e-04</internalNodes>
          <leafValues>
            8.3131366968154907e-01 -1.9831171631813049e-01</leafValues></_>
        <_>
          <internalNodes>
            0 -1 137 -5.5948885346879251e-06</internalNodes>
          <leafValues>
            6.0051220655441284e-01 -3.5005968809127808e-01</leafValues></_>
        <_>
          <internalNodes>
            0 -1 51 5.0641738198464736e-06</internalNodes>
          <leafValues>
            -2.9312166571617126e-01 6.3518786430358887e-01</leafValues></_>
        <_>
          <internalNodes>
            0 -1 16 4.2820908129215240e-03</internalNodes>
          <leafValues>
            -4.1346490383148193e-01 5.3056126832962036e-01</leafValues></_></weakClassifiers></_>
    <!-- stage 2 -->
    <_>
      <maxWeakCount>8</maxWeakCount>
      <stageThreshold>-7.9658758640289307e-01</stageThreshold>
      <weakClassifiers>
        <_>
          <internalNodes>
            0 -1 118 2.4840883270371705e-06</internalNodes>
          <leafValues>
            -2.5305411219596863e-01 6.0900717973709106e-01</leafValues></_>
        <_>
          <internalNodes>
            0 -1 38 3.8206741213798523e-02</internalNodes>
          <leafValues>
            -2.3507641255855560e-01 7.4463355541229248e-01</leafValues></_>
        <_>
          <internalNodes>
            0 -1 117 2.4715586732781958e-06</internalNodes>
          <leafValues>
            -3.7785840034484863e-01 5.4853504896163940e-01</leafValues></_>
        <_>
          <internalNodes>
            0 -1 34 -7.5994327664375305e-02</internalNodes>
          <leafValues>
            4.6010699868202209e-01 -5.8145827054977417e-01</leafValues></_>
        <_>
          <internalNodes>
            0 -1 77 -1.1708817510225344e-05</internalNodes>
          <leafValues>
            -5.9264677762985229e-01 4.2955335974693298e-01</leafValues></_>
        <_>
          <internalNodes>
            0 -1 21 7.2450498009857256e-06</internalNodes>
          <leafValues>
            -4.9007520079612732e-01 5.2828842401504517e-01</leafValues></_>
        <_>
          <internalNodes>
            0 -1 136 -2.4466067552566528e-03</internalNodes>
          <leafValues>
            7.7276557683944702e-01 -3.1063821911811829e-01</leafValues></_>
        <_>
          <internalNodes>
            0 -1 45 1.5237005427479744e-02</internalNodes>
          <leafValues>
            2.5576505064964294e-01 -9.8142558336257935e-01</leafValues></_></weakClassifiers></_>
    <!-- stage 3 -->
    <_>
      <maxWeakCount>9</maxWeakCount>
      <stageThreshold>-1.1706314086914062e+00</stageThreshold>
      <weakClassifiers>
        <_>
          <internalNodes>
            0 -1 169 2.4028943244047696e-06</internalNodes>
          <leafValues>
            -1.0462287068367004e-01 7.3626375198364258e-01</leafValues></_>
        <_>
          <internalNodes>
            0 -1 2 -6.1990533024072647e-02</internalNodes>
          <leafValues>
            4.4383350014686584e-01 -5.5494546890258789e-01</leafValues></_>
        <_>
          <internalNodes>
            0 -1 106 -2.9561713290604530e-06</internalNodes>
          <leafValues>
            3.7910383939743042e-01 -5.8468329906463623e-01</leafValues></_>
        <_>
          <internalNodes>
            0 -1 145 -9.1408845037221909e-05</internalNodes>
          <leafValues>
            7.3236948251724243e-01 -3.2467004656791687e-01</leafValues></_>
        <_>
          <internalNodes>
            0 -1 48 2.0005170255899429e-02</internalNodes>
          <leafValues>
            -2.5441208481788635e-01 8.6533212661743164e-01</leafValues></_>
        <_>
          <internalNodes>
            0 -1 31 3.0893897637724876e-03</internalNodes>
          <leafValues>
            -2.9975387454032898e-01 6.2561315298080444e-01</leafValues></_>
        <_>
          <internalNodes>
            0 -1 134 -1.8270662985742092e-04</internalNodes>
          <leafValues>
            5.2793645858764648e-01 -4.1553333401679993e-01</leafValues></_>
        <_>
          <internalNodes>
            0 -1 121 -7.8377430327236652e-04</internalNodes>
          <leafValues>
            8.8318163156509399e-01 -2.3024372756481171e-01</leafValues></_>
        <_>
          <internalNodes>
            0 -1 39 2.3563809463666985e-06</internalNodes>
          <leafValues>
            -3.2758760452270508e-01 5.9945434331893921e-01</leafValues></_></weakClassifiers></_>
    <!-- stage 4 -->
    <_>
      <maxWeakCount>9</maxWeakCount>
      <stageThreshold>-8.9037400484085083e-01</stageThreshold>
      <weakClassifiers>
        <_>
          <internalNodes>
            0 -1 160 2.5083108994294889e-06</internalNodes>
          <leafValues>
            -1.6862745583057404e-01 7.3757964372634888e-01</leafValues></_>
        <_>
          <internalNodes>
            0 -1 175 -6.6217704443261027e-05</internalNodes>
          <leafValues>
            8.6244803667068481e-01 -1.6119094192981720e-01</leafValues></_>
        <_>
          <internalNodes>
            0 -1 82 1.8457349389791489e-02</internalNodes>
          <leafValues>
            -4.6403324604034424e-01 5.3789150714874268e-01</leafValues></_>
        <_>
          <internalNodes>
            0 -1 123 1.2394610792398453e-02</internalNodes>
          <leafValues>
            -2.1965031325817108e-01 8.9028304815292358e-01</leafValues></_>
        <_>
          <internalNodes>
            0 -1 116 1.8550992012023926e-02</internalNodes>
          <leafValues>
            -2.6414972543716431e-01 7.5826495885848999e-01</leafValues></_>
        <_>
          <internalNodes>
            0 -1 108 2.4594251044618431e-06</internalNodes>
          <leafValues>
            -3.6654168367385864e-01 5.0063925981521606e-01</leafValues></_>
        <_>
          <internalNodes>
            0 -1 159 1.8239018390886486e-04</internalNodes>
          <leafValues>
            -3.1065937876701355e-01 7.5729620456695557e-01</leafValues></_>
        <_>
          <internalNodes>
            0 -1 0 -1.0998461220879108e-05</internalNodes>
          <leafValues>
            -5.3471571207046509e-01 4.0324163436889648e-01</leafValues></_>
        <_>
          <internalNodes>
            0 -1 56 -7.7313906513154507e-04</internalNodes>
          <leafValues>
            8.1506007909774780e-01 -2.6991125941276550e-01</leafValues></_></weakClassifiers></_>
    <!-- stage 5 -->
    <_>
      <maxWeakCount>10</maxWeakCount>
      <stageThreshold>-1.4127362966537476e+00</stageThreshold>
      <weakClassifiers>
        <_>
          <internalNodes>
            0 -1 113 -8.7880194187164307e-03</internalNodes>
          <leafValues>
            -6.9918698072433472e-01 4.7699385881423950e-01</leafValues></_>
        <_>
          <internalNodes>
            0 -1 176 6.5517956500116270e-06</internalNodes>
          <leafValues>
            -4.0441825985908508e-01 5.7158046960830688e-01</leafValues></_>
        <_>
          <internalNodes>
            0 -1 60 7.2461014497093856e-05</internalNodes>
          <leafValues>
            3.8574904203414917e-01 -6.3818955421447754e-01</leafValues></_>
        <_>
          <internalNodes>
            0 -1 146 -2.3691463866271079e-06</internalNodes>
          <leafValues>
            5.9869080781936646e-01 -4.1213262081146240e-01</leafValues></_>
        <_>
          <internalNodes>
            0 -1 5 -2.6585665182210505e-04</internalNodes>
          <leafValues>
            -4.9468678236007690e-01 4.3162646889686584e-01</leafValues></_>
        <_>
          <internalNodes>
            0 -1 86 8.0949701368808746e-03</internalNodes>
          <leafValues>
            -2.8885817527770996e-01 8.4476929903030396e-01</leafValues></_>
        <_>
          <internalNodes>
            0 -1 109 2.4191672309825663e-06</internalNodes>
          <leafValues>
            -4.1345167160034180e-01 4.9258732795715332e-01</leafValues></_>
        <_>
          <internalNodes>
            0 -1 42 -3.4097846946679056e-04</internalNodes>
          <leafValues>
            -5.9537684917449951e-01 3.7212619185447693e-01</leafValues></_>
        <_>
          <internalNodes>
            0 -1 74 -7.4071181006729603e-04</internalNodes>
          <leafValues>
            6.5654402971267700e-01 -3.5577717423439026e-01</leafValues></_>
        <_>
          <internalNodes>
            0 -1 92 -2.2111582802608609e-04</internalNodes>
          <leafValues>
            7.8684771060943604e-01 -2.6836344599723816e-01</leafValues></_></weakClassifiers></_>
    <!-- stage 6 -->
    <_>
      <maxWeakCount>8</maxWeakCount>
      <stageThreshold>-6.6871440410614014e-01</stageThreshold>
      <weakClassifiers>
        <_>
          <internalNodes>
            0 -1 64 6.4758830703794956e-03</internalNodes>
          <leafValues>
            4.3831640481948853e-01 -8.9534884691238403e-01</leafValues></_>
        <_>
          <internalNodes>
            0 -1 85 1.2973083648830652e-03</internalNodes>
          <leafValues>
            -3.2726469635963440e-01 7.8847199678421021e-01</leafValues></_>
        <_>
          <internalNodes>
            0 -1 132 -2.3940532992128283e-04</internalNodes>
          <leafValues>
            6.5590852499008179e-01 -4.0381863713264465e-01</leafValues></_>
        <_>
          <internalNodes>
            0 -1 167 -1.6201518010348082e-03</internalNodes>
          <leafValues>
            5.5136173963546753e-01 -4.1008898615837097e-01</leafValues></_>
        <_>
          <internalNodes>
            0 -1 71 5.1481714763212949e-05</internalNodes>
          <leafValues>
            3.7583053112030029e-01 -6.6738885641098022e-01</leafValues></_>
        <_>
          <internalNodes>
            0 -1 43 7.6897667895536870e-05</internalNodes>
          <leafValues>
            3.0685660243034363e-01 -6.8629223108291626e-01</leafValues></_>
        <_>
          <internalNodes>
            0 -1 138 5.3845660295337439e-04</internalNodes>
          <leafValues>
            -2.8614345192909241e-01 8.0456519126892090e-01</leafValues></_>
        <_>
          <internalNodes>
            0 -1 14 4.7726977616548538e-02</internalNodes>
          <leafValues>
            -2.8063344955444336e-01 7.0954859256744385e-01</leafValues></_></weakClassifiers></_>
    <!-- stage 7 -->
    <_>
      <maxWeakCount>12</maxWeakCount>
      <stageThreshold>-8.9504987001419067e-01</stageThreshold>
      <weakClassifiers>
        <_>
          <internalNodes>
            0 -1 6 1.9275602698326111e-01</internalNodes>
          <leafValues>
            4.9019607901573181e-01 -8.9285713434219360e-01</leafValues></_>
        <_>
          <internalNodes>
            0 -1 102 -3.3107735362136737e-06</internalNodes>
          <leafValues>
            -6.4162105321884155e-01 3.1137466430664062e-01</leafValues></_>
        <_>
          <internalNodes>
            0 -1 50 -2.1612390992231667e-04</internalNodes>
          <leafValues>
            6.6888737678527832e-01 -2.9346910119056702e-01</leafValues></_>
        <_>
          <internalNodes>
            0 -1 143 7.1607553400099277e-04</internalNodes>
          <leafValues>
            -1.8802188336849213e-01 9.1844505071640015e-01</leafValues></_>
        <_>
          <internalNodes>
            0 -1 70 2.3765536025166512e-02</internalNodes>
          <leafValues>
            -1.8222862482070923e-01 8.5463595390319824e-01</leafValues></_>
        <_>
          <internalNodes>
            0 -1 119 -4.7140280366875231e-04</internalNodes>
          <leafValues>
            8.3426994085311890e-01 -1.9570325314998627e-01</leafValues></_>
        <_>
          <internalNodes>
            0 -1 141 -1.4749431284144521e-04</internalNodes>
          <leafValues>
            4.6873879432678223e-01 -3.6657232046127319e-01</leafValues></_>
        <_>
          <internalNodes>
            0 -1 164 2.5879554450511932e-03</internalNodes>
          <leafValues>
            -3.4137624502182007e-01 5.7197540998458862e-01</leafValues></_>
        <_>
          <internalNodes>
            0 -1 174 -2.9713509138673544e-04</internalNodes>
          <leafValues>
            8.9829528331756592e-01 -1.7666758596897125e-01</leafValues></_>
        <_>
          <internalNodes>
            0 -1 75 -2.4293011054396629e-02</internalNodes>
          <leafValues>
            4.5407754182815552e-01 -5.5361223220825195e-01</leafValues></_>
        <_>
          <internalNodes>
            0 -1 9 7.2361491620540619e-03</internalNodes>
          <leafValues>
            -3.7290218472480774e-01 6.1604487895965576e-01</leafValues></_>
        <_>
          <internalNodes>
            0 -1 33 6.7933856371382717e-06</internalNodes>
          <leafValues>
            -3.8184452056884766e-01 5.1398515701293945e-01</leafValues></_></weakClassifiers></_>
    <!-- stage 8 -->
    <_>
      <maxWeakCount>8</maxWeakCount>
      <stageThreshold>-1.2356495857238770e+00</stageThreshold>
      <weakClassifiers>
        <_>
          <internalNodes>
            0 -1 115 -4.1838638484477997e-02</internalNodes>
          <leafValues>
            -6.7625898122787476e-01 5.0157231092453003e-01</leafValues></_>
        <_>
          <internalNodes>
            0 -1 12 6.7729910369962454e-04</internalNodes>
          <leafValues>
            -2.4049162864685059e-01 8.2809257507324219e-01</leafValues></_>
        <_>
          <internalNodes>
            0 -1 44 6.5786372870206833e-03</internalNodes>
          <leafValues>
            -4.9163556098937988e-01 4.4699192047119141e-01</leafValues></_>
        <_>
          <internalNodes>
            0 -1 24 -3.1232989858835936e-03</internalNodes>
          <leafValues>
            6.0038447380065918e-01 -3.9841940999031067e-01</leafValues></_>
        <_>
          <internalNodes>
            0 -1 13 -1.1593362432904541e-04</internalNodes>
          <leafValues>
            5.0152677297592163e-01 -4.1359826922416687e-01</leafValues></_>
        <_>
          <internalNodes>
            0 -1 61 2.3563809463666985e-06</internalNodes>
          <leafValues>
            -4.7859501838684082e-01 4.2725330591201782e-01</leafValues></_>
        <_>
          <internalNodes>
            0 -1 135 -3.2442333176732063e-03</internalNodes>
          <leafValues>
            7.1765524148941040e-01 -2.9124349355697632e-01</leafValues></_>
        <_>
          <internalNodes>
            0 -1 37 -1.1125456541776657e-01</internalNodes>
          <leafValues>
            5.9591943025588989e-01 -4.2204242944717407e-01</leafValues></_></weakClassifiers></_>
    <!-- stage 9 -->
    <_>
      <maxWeakCount>8</maxWeakCount>
      <stageThreshold>-7.4412703514099121e-01</stageThreshold>
      <weakClassifiers>
        <_>
          <internalNodes>
            0 -1 89 6.2708131736144423e-05</internalNodes>
          <leafValues>
            6.1396700143814087e-01 -3.5260117053985596e-01</leafValues></_>
        <_>
          <internalNodes>
            0 -1 139 -1.7506354488432407e-03</internalNodes>
          <leafValues>
            5.1784259080886841e-01 -3.8530820608139038e-01</leafValues></_>
        <_>
          <internalNodes>
            0 -1 36 -9.0565916616469622e-04</internalNodes>
          <leafValues>
            -6.4581477642059326e-01 3.4162461757659912e-01</leafValues></_>
        <_>
          <internalNodes>
            0 -1 91 -3.4490786492824554e-03</internalNodes>
          <leafValues>
            7.2623479366302490e-01 -2.9950237274169922e-01</leafValues></_>
        <_>
          <internalNodes>
            0 -1 35 5.6760884821414948e-02</internalNodes>
          <leafValues>
            -3.0247047543525696e-01 6.9788223505020142e-01</leafValues></_>
        <_>
          <internalNodes>
            0 -1 26 -5.9201028198003769e-02</internalNodes>
          <leafValues>
            -8.5425901412963867e-01 2.9245087504386902e-01</leafValues></_>
        <_>
          <internalNodes>
            0 -1 95 2.4191672309825663e-06</internalNodes>
          <leafValues>
            -4.9636551737785339e-01 4.6652182936668396e-01</leafValues></_>
        <_>
          <internalNodes>
            0 -1 168 -5.5013337259879336e-05</internalNodes>
          <leafValues>
            7.3552536964416504e-01 -2.9874840378761292e-01</leafValues></_></weakClassifiers></_>
    <!-- stage 10 -->
    <_>
      <maxWeakCount>10</maxWeakCount>
      <stageThreshold>-1.1413569450378418e+00</stageThreshold>
      <weakClassifiers>
        <_>
          <internalNodes>
            0 -1 1 -9.6662849187850952e-02</internalNodes>
          <leafValues>
            5.9038460254669189e-01 -3.2156863808631897e-01</leafValues></_>
        <_>
          <internalNodes>
            0 -1 127 1.2181191777926870e-05</internalNodes>
          <leafValues>
            -3.1008499860763550e-01 7.0192158222198486e-01</leafValues></_>
        <_>
          <internalNodes>
            0 -1 111 -4.5318450429476798e-04</internalNodes>
          <leafValues>
            8.0159759521484375e-01 -2.3880788683891296e-01</leafValues></_>
        <_>
          <internalNodes>
            0 -1 151 -2.9954269994050264e-03</internalNodes>
          <leafValues>
            8.8699287176132202e-01 -2.2928719222545624e-01</leafValues></_>
        <_>
          <internalNodes>
            0 -1 162 2.4942949039541418e-06</internalNodes>
          <leafValues>
            -3.6390975117683411e-01 5.0501060485839844e-01</leafValues></_>
        <_>
          <internalNodes>
            0 -1 156 -7.5878242569160648e-06</internalNodes>
          <leafValues>
            6.6756075620651245e-01 -3.1618118286132812e-01</leafValues></_>
        <_>
          <internalNodes>
            0 -1 144 -1.9363417231943458e-04</internalNodes>
          <leafValues>
            8.4280908107757568e-01 -2.0529830455780029e-01</leafValues></_>
        <_>
          <internalNodes>
            0 -1 27 6.8253641948103905e-03</internalNodes>
          <leafValues>
            -1.7509053647518158e-01 8.2216137647628784e-01</leafValues></_>
        <_>
          <internalNodes>
            0 -1 78 -7.2992175817489624e-02</internalNodes>
          <leafValues>
            7.9519730806350708e-01 -1.8323980271816254e-01</leafValues></_>
        <_>
          <internalNodes>
            0 -1 66 1.4263915363699198e-04</internalNodes>
          <leafValues>
            2.9015812277793884e-01 -6.9321483373641968e-01</leafValues></_></weakClassifiers></_>
    <!-- stage 11 -->
    <_>
      <maxWeakCount>10</maxWeakCount>
      <stageThreshold>-1.5862669944763184e+00</stageThreshold>
      <weakClassifiers>
        <_>
          <internalNodes>
            0 -1 107 3.5525477142073214e-04</internalNodes>
          <leafValues>
            5.6616413593292236e-01 -6.3483148813247681e-01</leafValues></_>
        <_>
          <internalNodes>
            0 -1 149 2.4353767003049143e-06</internalNodes>
          <leafValues>
            -3.3714199066162109e-01 6.6437906026840210e-01</leafValues></_>
        <_>
          <internalNodes>
            0 -1 140 1.9763063173741102e-03</internalNodes>
          <leafValues>
            -3.3028751611709595e-01 6.4840149879455566e-01</leafValues></_>
        <_>
          <internalNodes>
            0 -1 155 7.3841438279487193e-06</internalNodes>
          <leafValues>
            -3.1584143638610840e-01 6.4252698421478271e-01</leafValues></_>
        <_>
          <internalNodes>
            0 -1 53 -4.7868136316537857e-02</internalNodes>
          <leafValues>
            4.0152332186698914e-01 -6.2140113115310669e-01</leafValues></_>
        <_>
          <internalNodes>
            0 -1 73 1.7478285357356071e-02</internalNodes>
          <leafValues>
            -4.2080467939376831e-01 5.7809489965438843e-01</leafValues></_>
        <_>
          <internalNodes>
            0 -1 104 5.3092865273356438e-03</internalNodes>
          <leafValues>
            -2.9692533612251282e-01 7.2854530811309814e-01</leafValues></_>
        <_>
          <internalNodes>
            0 -1 29 -1.6693377983756363e-04</internalNodes>
          <leafValues>
            9.2328399419784546e-01 -2.1872618794441223e-01</leafValues></_>
        <_>
          <internalNodes>
            0 -1 153 1.6578409122303128e-04</internalNodes>
          <leafValues>
            -2.6674926280975342e-01 6.8369853496551514e-01</leafValues></_>
        <_>
          <internalNodes>
            0 -1 137 -7.3469691415084526e-06</internalNodes>
          <leafValues>
            5.9797865152359009e-01 -3.4345319867134094e-01</leafValues></_></weakClassifiers></_>
    <!-- stage 12 -->
    <_>
      <maxWeakCount>10</maxWeakCount>
      <stageThreshold>-1.0347696542739868e+00</stageThreshold>
      <weakClassifiers>
        <_>
          <internalNodes>
            0 -1 100 2.1186495723668486e-04</internalNodes>
          <leafValues>
            4.7137254476547241e-01 -5.4909092187881470e-01</leafValues></_>
        <_>
          <internalNodes>
            0 -1 7 2.3563809463666985e-06</internalNodes>
          <leafValues>
            -3.7159940600395203e-01 5.1709157228469849e-01</leafValues></_>
        <_>
          <internalNodes>
            0 -1 170 9.7903283312916756e-04</internalNodes>
          <leafValues>
            -1.8559803068637848e-01 8.7769657373428345e-01</leafValues></_>
        <_>
          <internalNodes>
            0 -1 171 -6.0162681620568037e-04</internalNodes>
          <leafValues>
            6.9439172744750977e-01 -2.4954015016555786e-01</leafValues></_>
        <_>
          <internalNodes>
            0 -1 10 -9.3993758782744408e-03</internalNodes>
          <leafValues>
            -6.1819964647293091e-01 2.9123169183731079e-01</leafValues></_>
        <_>
          <internalNodes>
            0 -1 62 -8.8045744632836431e-06</internalNodes>
          <leafValues>
            -6.2804561853408813e-01 3.2296937704086304e-01</leafValues></_>
        <_>
          <internalNodes>
            0 -1 88 3.5440002102404833e-04</internalNodes>
          <leafValues>
            -3.6908319592475891e-01 6.1114513874053955e-01</leafValues></_>
        <_>
          <internalNodes>
            0 -1 154 -6.3052270888874773e-06</internalNodes>
          <leafValues>
            5.5987602472305298e-01 -2.8310298919677734e-01</leafValues></_>
        <_>
          <internalNodes>
            0 -1 110 5.3427449893206358e-04</internalNodes>
          <leafValues>
            -2.4168245494365692e-01 7.4848455190658569e-01</leafValues></_>
        <_>
          <internalNodes>
            0 -1 125 1.4183805324137211e-03</internalNodes>
          <leafValues>
            -3.0160239338874817e-01 5.3127789497375488e-01</leafValues></_></weakClassifiers></_>
    <!-- stage 13 -->
    <_>
      <maxWeakCount>7</maxWeakCount>
      <stageThreshold>-7.5905233621597290e-01</stageThreshold>
      <weakClassifiers>
        <_>
          <internalNodes>
            0 -1 40 8.8798324577510357e-04</internalNodes>
          <leafValues>
            7.4666666984558105e-01 -3.4153845906257629e-01</leafValues></_>
        <_>
          <internalNodes>
            0 -1 129 1.5133704291656613e-03</internalNodes>
          <leafValues>
            -3.0825340747833252e-01 6.6886568069458008e-01</leafValues></_>
        <_>
          <internalNodes>
            0 -1 20 8.2408741582185030e-04</internalNodes>
          <leafValues>
            -3.4397998452186584e-01 5.7631844282150269e-01</leafValues></_>
        <_>
          <internalNodes>
            0 -1 18 -1.1503995629027486e-03</internalNodes>
          <leafValues>
            -6.4500033855438232e-01 4.0602147579193115e-01</leafValues></_>
        <_>
          <internalNodes>
            0 -1 133 -1.1529038893058896e-03</internalNodes>
          <leafValues>
            5.7229608297348022e-01 -4.0959677100181580e-01</leafValues></_>
        <_>
          <internalNodes>
            0 -1 72 -6.2084808945655823e-02</internalNodes>
          <leafValues>
            8.7679940462112427e-01 -2.5641757249832153e-01</leafValues></_>
        <_>
          <internalNodes>
            0 -1 8 2.9838428599759936e-04</internalNodes>
          <leafValues>
            -3.5645705461502075e-01 6.7293167114257812e-01</leafValues></_></weakClassifiers></_>
    <!-- stage 14 -->
    <_>
      <maxWeakCount>11</maxWeakCount>
      <stageThreshold>-1.2626216411590576e+00</stageThreshold>
      <weakClassifiers>
        <_>
          <internalNodes>
            0 -1 97 9.5985317602753639e-03</internalNodes>
          <leafValues>
            4.9643704295158386e-01 -6.1672472953796387e-01</leafValues></_>
        <_>
          <internalNodes>
            0 -1 19 3.5357607994228601e-03</internalNodes>
          <leafValues>
            -3.0371975898742676e-01 7.3313874006271362e-01</leafValues></_>
        <_>
          <internalNodes>
            0 -1 94 -3.6947582848370075e-03</internalNodes>
          <leafValues>
            6.3887125253677368e-01 -2.7606269717216492e-01</leafValues></_>
        <_>
          <internalNodes>
            0 -1 83 -2.6686616365623195e-06</internalNodes>
          <leafValues>
            3.8144388794898987e-01 -5.6767904758453369e-01</leafValues></_>
        <_>
          <internalNodes>
            0 -1 165 2.5964418891817331e-03</internalNodes>
          <leafValues>
            -2.9374599456787109e-01 6.6701602935791016e-01</leafValues></_>
        <_>
          <internalNodes>
            0 -1 65 2.4529588408768177e-03</internalNodes>
          <leafValues>
            -3.2179120182991028e-01 6.8860059976577759e-01</leafValues></_>
        <_>
          <internalNodes>
            0 -1 87 -1.0426728054881096e-02</internalNodes>
          <leafValues>
            5.6000608205795288e-01 -3.6158600449562073e-01</leafValues></_>
        <_>
          <internalNodes>
            0 -1 59 -2.2914987057447433e-02</internalNodes>
          <leafValues>
            6.2105453014373779e-01 -3.0996629595756531e-01</leafValues></_>
        <_>
          <internalNodes>
            0 -1 22 2.4283740458486136e-06</internalNodes>
          <leafValues>
            -2.8590658307075500e-01 6.1301624774932861e-01</leafValues></_>
        <_>
          <internalNodes>
            0 -1 99 4.2473780922591686e-05</internalNodes>
          <leafValues>
            4.2732974886894226e-01 -4.8846212029457092e-01</leafValues></_>
        <_>
          <internalNodes>
            0 -1 25 -4.9175316235050559e-04</internalNodes>
          <leafValues>
            6.9896590709686279e-01 -2.9109176993370056e-01</leafValues></_></weakClassifiers></_>
    <!-- stage 15 -->
    <_>
      <maxWeakCount>10</maxWeakCount>
      <stageThreshold>-7.1206116676330566e-01</stageThreshold>
      <weakClassifiers>
        <_>
          <internalNodes>
            0 -1 177 -2.3996644813450985e-06</internalNodes>
          <leafValues>
            6.7530697584152222e-01 -5.5079560726881027e-02</leafValues></_>
        <_>
          <internalNodes>
            0 -1 150 -1.2064729526173323e-04</internalNodes>
          <leafValues>
            7.5110769271850586e-01 -1.7218057811260223e-01</leafValues></_>
        <_>
          <internalNodes>
            0 -1 69 9.0953707695007324e-03</internalNodes>
          <leafValues>
            -2.3426190018653870e-01 6.5037500858306885e-01</leafValues></_>
        <_>
          <internalNodes>
            0 -1 55 -1.3898209545004647e-05</internalNodes>
          <leafValues>
            -5.4482042789459229e-01 3.2915446162223816e-01</leafValues></_>
        <_>
          <internalNodes>
            0 -1 67 -1.1618778109550476e-02</internalNodes>
          <leafValues>
            4.3742293119430542e-01 -4.5137894153594971e-01</leafValues></_>
        <_>
          <internalNodes>
            0 -1 80 -2.2449083917308599e-04</internalNodes>
          <leafValues>
            6.0794693231582642e-01 -3.1565606594085693e-01</leafValues></_>
        <_>
          <internalNodes>
            0 -1 63 -6.1480641306843609e-05</internalNodes>
          <leafValues>
            -6.0557913780212402e-01 3.1292358040809631e-01</leafValues></_>
        <_>
          <internalNodes>
            0 -1 148 6.1119196470826864e-04</internalNodes>
          <leafValues>
            -2.9910102486610413e-01 7.4389207363128662e-01</leafValues></_>
        <_>
          <internalNodes>
            0 -1 147 -4.4690101640298963e-04</internalNodes>
          <leafValues>
            7.2395867109298706e-01 -2.2963903844356537e-01</leafValues></_>
        <_>
          <internalNodes>
            0 -1 101 4.9812551878858358e-06</internalNodes>
          <leafValues>
            -4.7859123349189758e-01 4.3285879492759705e-01</leafValues></_></weakClassifiers></_>
    <!-- stage 16 -->
    <_>
      <maxWeakCount>4</maxWeakCount>
      <stageThreshold>-6.5657192468643188e-01</stageThreshold>
      <weakClassifiers>
        <_>
          <internalNodes>
            0 -1 105 -4.3894648551940918e-03</internalNodes>
          <leafValues>
            -8.7500000000000000e-01 5.9349590539932251e-01</leafValues></_>
        <_>
          <internalNodes>
            0 -1 54 -8.6918691522441804e-05</internalNodes>
          <leafValues>
            -5.7548874616622925e-01 4.1002058982849121e-01</leafValues></_>
        <_>
          <internalNodes>
            0 -1 84 1.1131435167044401e-04</internalNodes>
          <leafValues>
            3.1345489621162415e-01 -7.4263870716094971e-01</leafValues></_>
        <_>
          <internalNodes>
            0 -1 103 -2.6321561108488822e-06</internalNodes>
          <leafValues>
            -4.1749519109725952e-01 5.5104619264602661e-01</leafValues></_></weakClassifiers></_>
    <!-- stage 17 -->
    <_>
      <maxWeakCount>11</maxWeakCount>
      <stageThreshold>-9.5306956768035889e-01</stageThreshold>
      <weakClassifiers>
        <_>
          <internalNodes>
            0 -1 96 9.0845336671918631e-05</internalNodes>
          <leafValues>
            5.4392522573471069e-01 -2.7500000596046448e-01</leafValues></_>
        <_>
          <internalNodes>
            0 -1 93 4.9584992229938507e-03</internalNodes>
          <leafValues>
            -2.6534965634346008e-01 6.1575686931610107e-01</leafValues></_>
        <_>
          <internalNodes>
            0 -1 166 -6.9055575295351446e-05</internalNodes>
          <leafValues>
            5.6722545623779297e-01 -2.7432310581207275e-01</leafValues></_>
        <_>
          <internalNodes>
            0 -1 172 -7.2259331318491604e-06</internalNodes>
          <leafValues>
            4.4595387578010559e-01 -3.6679756641387939e-01</leafValues></_>
        <_>
          <internalNodes>
            0 -1 3 -1.9997684285044670e-04</internalNodes>
          <leafValues>
            -5.9636533260345459e-01 3.0560624599456787e-01</leafValues></_>
        <_>
          <internalNodes>
            0 -1 41 -6.1039314605295658e-03</internalNodes>
          <leafValues>
            -7.8879988193511963e-01 2.2175349295139313e-01</leafValues></_>
        <_>
          <internalNodes>
            0 -1 157 1.1886353604495525e-03</internalNodes>
          <leafValues>
            -2.5382196903228760e-01 9.0960305929183960e-01</leafValues></_>
        <_>
          <internalNodes>
            0 -1 112 3.0151295504765585e-05</internalNodes>
          <leafValues>
            -3.7234413623809814e-01 4.9482658505439758e-01</leafValues></_>
        <_>
          <internalNodes>
            0 -1 98 6.4670783467590809e-04</internalNodes>
          <leafValues>
            -2.4077747762203217e-01 7.9288882017135620e-01</leafValues></_>
        <_>
          <internalNodes>
            0 -1 23 -3.4783713635988533e-04</internalNodes>
          <leafValues>
            -9.1442197561264038e-01 2.3492413759231567e-01</leafValues></_>
        <_>
          <internalNodes>
            0 -1 120 2.1469984494615346e-04</internalNodes>
          <leafValues>
            -3.3105388283729553e-01 5.2293032407760620e-01</leafValues></_></weakClassifiers></_>
    <!-- stage 18 -->
    <_>
      <maxWeakCount>8</maxWeakCount>
      <stageThreshold>-1.2276144027709961e+00</stageThreshold>
      <weakClassifiers>
        <_>
          <internalNodes>
            0 -1 58 2.2208270092960447e-04</internalNodes>
          <leafValues>
            5.4927301406860352e-01 -7.3717945814132690e-01</leafValues></_>
        <_>
          <internalNodes>
            0 -1 178 -2.3691463866271079e-06</internalNodes>
          <leafValues>
            6.2337201833724976e-01 -3.9353972673416138e-01</leafValues></_>
        <_>
          <internalNodes>
            0 -1 142 2.4191672309825663e-06</internalNodes>
          <leafValues>
            -4.3780165910720825e-01 6.2224733829498291e-01</leafValues></_>
        <_>
          <internalNodes>
            0 -1 81 -2.9092963086441159e-04</internalNodes>
          <leafValues>
            -6.7271935939788818e-01 3.4926313161849976e-01</leafValues></_>
        <_>
          <internalNodes>
            0 -1 152 -2.0796112949028611e-04</internalNodes>
          <leafValues>
            6.4056551456451416e-01 -3.8040390610694885e-01</leafValues></_>
        <_>
          <internalNodes>
            0 -1 124 -1.0995416669175029e-03</internalNodes>
          <leafValues>
            5.5144375562667847e-01 -3.7384420633316040e-01</leafValues></_>
        <_>
          <internalNodes>
            0 -1 32 3.3423045533709228e-04</internalNodes>
          <leafValues>
            -4.2758175730705261e-01 5.6060850620269775e-01</leafValues></_>
        <_>
          <internalNodes>
            0 -1 76 1.3285499811172485e-01</internalNodes>
          <leafValues>
            2.5325605273246765e-01 -8.7932938337326050e-01</leafValues></_></weakClassifiers></_>
    <!-- stage 19 -->
    <_>
      <maxWeakCount>9</maxWeakCount>
      <stageThreshold>-1.0854092836380005e+00</stageThreshold>
      <weakClassifiers>
        <_>
          <internalNodes>
            0 -1 28 -6.0457740910351276e-03</internalNodes>
          <leafValues>
            -7.3426574468612671e-01 5.2215188741683960e-01</leafValues></_>
        <_>
          <internalNodes>
            0 -1 131 2.4191672309825663e-06</internalNodes>
          <leafValues>
            -3.5745576024055481e-01 5.7012361288070679e-01</leafValues></_>
        <_>
          <internalNodes>
            0 -1 4 1.4260889589786530e-01</internalNodes>
          <leafValues>
            -1.9142551720142365e-01 9.3629038333892822e-01</leafValues></_>
        <_>
          <internalNodes>
            0 -1 15 -4.0726386010646820e-02</internalNodes>
          <leafValues>
            4.1397535800933838e-01 -5.4768508672714233e-01</leafValues></_>
        <_>
          <internalNodes>
            0 -1 17 -1.6945367678999901e-04</internalNodes>
          <leafValues>
            -6.8780744075775146e-01 3.1307750940322876e-01</leafValues></_>
        <_>
          <internalNodes>
            0 -1 163 2.4896451122913277e-06</internalNodes>
          <leafValues>
            -4.5363214612007141e-01 4.3566536903381348e-01</leafValues></_>
        <_>
          <internalNodes>
            0 -1 11 1.3990473235026002e-04</internalNodes>
          <leafValues>
            -2.6021227240562439e-01 6.7185306549072266e-01</leafValues></_>
        <_>
          <internalNodes>
            0 -1 46 4.4243206502869725e-05</internalNodes>
          <leafValues>
            4.1558051109313965e-01 -4.9129524827003479e-01</leafValues></_>
        <_>
          <internalNodes>
            0 -1 126 9.1546424664556980e-04</internalNodes>
          <leafValues>
            -2.3105123639106750e-01 8.4728503227233887e-01</leafValues></_></weakClassifiers></_></stages>
  <features>
    <_>
      <rects>
        <_>
          0 0 10 1 -1.</_>
        <_>
          5 0 5 1 2.</_></rects>
      <tilted>0</tilted></_>
    <_>
      <rects>
        <_>
          0 0 39 38 -1.</_>
        <_>
          0 19 39 19 2.</_></rects>
      <tilted>0</tilted></_>
    <_>
      <rects>
        <_>
          0 1 38 34 -1.</_>
        <_>
          0 18 38 17 2.</_></rects>
      <tilted>0</tilted></_>
    <_>
      <rects>
        <_>
          0 2 21 1 -1.</_>
        <_>
          7 2 7 1 3.</_></rects>
      <tilted>0</tilted></_>
    <_>
      <rects>
        <_>
          0 2 45 31 -1.</_>
        <_>
          15 2 15 31 3.</_></rects>
      <tilted>0</tilted></_>
    <_>
      <rects>
        <_>
          0 4 4 12 -1.</_>
        <_>
          0 8 4 4 3.</_></rects>
      <tilted>0</tilted></_>
    <_>
      <rects>
        <_>
          0 5 37 45 -1.</_>
        <_>
          0 20 37 15 3.</_></rects>
      <tilted>0</tilted></_>
    <_>
      <rects>
        <_>
          0 8 1 2 -1.</_>
        <_>
          0 9 1 1 2.</_></rects>
      <tilted>0</tilted></_>
    <_>
      <rects>
        <_>
          0 18 43 6 -1.</_>
        <_>
          0 20 43 2 3.</_></rects>
      <tilted>0</tilted></_>
    <_>
      <rects>
        <_>
          0 28 18 19 -1.</_>
        <_>
          9 28 9 19 2.</_></rects>
      <tilted>0</tilted></_>
    <_>
      <rects>
        <_>
          0 33 24 15 -1.</_>
        <_>
          0 38 24 5 3.</_></rects>
      <tilted>0</tilted></_>
    <_>
      <rects>
        <_>
          0 36 2 13 -1.</_>
        <_>
          1 36 1 13 2.</_></rects>
      <tilted>0</tilted></_>
    <_>
      <rects>
        <_>
          0 40 50 3 -1.</_>
        <_>
          0 41 50 1 3.</_></rects>
      <tilted>0</tilted></_>
    <_>
      <rects>
        <_>
          0 41 32 2 -1.</_>
        <_>
          0 42 32 1 2.</_></rects>
      <tilted>0</tilted></_>
    <_>
      <rects>
        <_>
          1 1 33 31 -1.</_>
        <_>
          12 1 11 31 3.</_></rects>
      <tilted>0</tilted></_>
    <_>
      <rects>
        <_>
          1 10 49 36 -1.</_>
        <_>
          1 22 49 12 3.</_></rects>
      <tilted>0</tilted></_>
    <_>
      <rects>
        <_>
          1 26 21 9 -1.</_>
        <_>
          1 29 21 3 3.</_></rects>
      <tilted>0</tilted></_>
    <_>
      <rects>
        <_>
          1 47 16 2 -1.</_>
        <_>
          1 48 16 1 2.</_></rects>
      <tilted>0</tilted></_>
    <_>
      <rects>
        <_>
          2 4 30 2 -1.</_>
        <_>
          12 4 10 2 3.</_></rects>
      <tilted>0</tilted></_>
    <_>
      <rects>
        <_>
          2 25 10 22 -1.</_>
        <_>
          7 25 5 22 2.</_></rects>
      <tilted>0</tilted></_>
    <_>
      <rects>
        <_>
          2 31 10 14 -1.</_>
        <_>
          7 31 5 14 2.</_></rects>
      <tilted>0</tilted></_>
    <_>
      <rects>
        <_>
          2 43 2 4 -1.</_>
        <_>
          2 43 1 2 2.</_>
        <_>
          3 45 1 2 2.</_></rects>
      <tilted>0</tilted></_>
    <_>
      <rects>
        <_>
          2 48 2 2 -1.</_>
        <_>
          2 48 1 1 2.</_>
        <_>
          3 49 1 1 2.</_></rects>
      <tilted>0</tilted></_>
    <_>
      <rects>
        <_>
          2 48 6 1 -1.</_>
        <_>
          5 48 3 1 2.</_></rects>
      <tilted>0</tilted></_>
    <_>
      <rects>
        <_>
          3 21 16 9 -1.</_>
        <_>
          3 24 16 3 3.</_></rects>
      <tilted>0</tilted></_>
    <_>
      <rects>
        <_>
          3 25 6 3 -1.</_>
        <_>
          6 25 3 3 2.</_></rects>
      <tilted>0</tilted></_>
    <_>
      <rects>
        <_>
          3 31 32 18 -1.</_>
        <_>
          3 40 32 9 2.</_></rects>
      <tilted>0</tilted></_>
    <_>
      <rects>
        <_>
          3 36 43 4 -1.</_>
        <_>
          3 38 43 2 2.</_></rects>
      <tilted>0</tilted></_>
    <_>
      <rects>
        <_>
          4 0 26 8 -1.</_>
        <_>
          4 0 13 4 2.</_>
        <_>
          17 4 13 4 2.</_></rects>
      <tilted>0</tilted></_>
    <_>
      <rects>
        <_>
          4 21 6 2 -1.</_>
        <_>
          4 21 3 1 2.</_>
        <_>
          7 22 3 1 2.</_></rects>
      <tilted>0</tilted></_>
    <_>
      <rects>
        <_>
          4 23 24 2 -1.</_>
        <_>
          4 24 24 1 2.</_></rects>
      <tilted>0</tilted></_>
    <_>
      <rects>
        <_>
          4 24 7 12 -1.</_>
        <_>
          4 28 7 4 3.</_></rects>
      <tilted>0</tilted></_>
    <_>
      <rects>
        <_>
          4 32 4 14 -1.</_>
        <_>
          6 32 2 14 2.</_></rects>
      <tilted>0</tilted></_>
    <_>
      <rects>
        <_>
          5 0 1 2 -1.</_>
        <_>
          5 1 1 1 2.</_></rects>
      <tilted>0</tilted></_>
    <_>
      <rects>
        <_>
          5 0 19 36 -1.</_>
        <_>
          5 18 19 18 2.</_></rects>
      <tilted>0</tilted></_>
    <_>
      <rects>
        <_>
          5 8 39 22 -1.</_>
        <_>
          18 8 13 22 3.</_></rects>
      <tilted>0</tilted></_>
    <_>
      <rects>
        <_>
          5 38 8 9 -1.</_>
        <_>
          9 38 4 9 2.</_></rects>
      <tilted>0</tilted></_>
    <_>
      <rects>
        <_>
          6 0 20 38 -1.</_>
        <_>
          6 19 20 19 2.</_></rects>
      <tilted>0</tilted></_>
    <_>
      <rects>
        <_>
          7 0 24 40 -1.</_>
        <_>
          15 0 8 40 3.</_></rects>
      <tilted>0</tilted></_>
    <_>
      <rects>
        <_>
          7 2 1 2 -1.</_>
        <_>
          7 3 1 1 2.</_></rects>
      <tilted>0</tilted></_>
    <_>
      <rects>
        <_>
          7 6 34 8 -1.</_>
        <_>
          24 6 17 8 2.</_></rects>
      <tilted>0</tilted></_>
    <_>
      <rects>
        <_>
          7 33 11 8 -1.</_>
        <_>
          7 37 11 4 2.</_></rects>
      <tilted>0</tilted></_>
    <_>
      <rects>
        <_>
          7 43 11 6 -1.</_>
        <_>
          7 45 11 2 3.</_></rects>
      <tilted>0</tilted></_>
    <_>
      <rects>
        <_>
          7 46 18 2 -1.</_>
        <_>
          7 47 18 1 2.</_></rects>
      <tilted>0</tilted></_>
    <_>
      <rects>
        <_>
          8 16 38 34 -1.</_>
        <_>
          8 16 19 17 2.</_>
        <_>
          27 33 19 17 2.</_></rects>
      <tilted>0</tilted></_>
    <_>
      <rects>
        <_>
          10 0 19 8 -1.</_>
        <_>
          10 4 19 4 2.</_></rects>
      <tilted>0</tilted></_>
    <_>
      <rects>
        <_>
          10 4 9 1 -1.</_>
        <_>
          13 4 3 1 3.</_></rects>
      <tilted>0</tilted></_>
    <_>
      <rects>
        <_>
          10 9 21 29 -1.</_>
        <_>
          17 9 7 29 3.</_></rects>
      <tilted>0</tilted></_>
    <_>
      <rects>
        <_>
          10 15 27 11 -1.</_>
        <_>
          19 15 9 11 3.</_></rects>
      <tilted>0</tilted></_>
    <_>
      <rects>
        <_>
          10 33 2 2 -1.</_>
        <_>
          10 33 1 1 2.</_>
        <_>
          11 34 1 1 2.</_></rects>
      <tilted>0</tilted></_>
    <_>
      <rects>
        <_>
          10 33 4 3 -1.</_>
        <_>
          10 34 4 1 3.</_></rects>
      <tilted>0</tilted></_>
    <_>
      <rects>
        <_>
          10 34 2 2 -1.</_>
        <_>
          10 34 1 1 2.</_>
        <_>
          11 35 1 1 2.</_></rects>
      <tilted>0</tilted></_>
    <_>
      <rects>
        <_>
          10 43 7 2 -1.</_>
        <_>
          10 44 7 1 2.</_></rects>
      <tilted>0</tilted></_>
    <_>
      <rects>
        <_>
          11 0 32 34 -1.</_>
        <_>
          11 17 32 17 2.</_></rects>
      <tilted>0</tilted></_>
    <_>
      <rects>
        <_>
          11 1 9 2 -1.</_>
        <_>
          14 1 3 2 3.</_></rects>
      <tilted>0</tilted></_>
    <_>
      <rects>
        <_>
          11 6 3 4 -1.</_>
        <_>
          11 8 3 2 2.</_></rects>
      <tilted>0</tilted></_>
    <_>
      <rects>
        <_>
          11 20 3 28 -1.</_>
        <_>
          12 20 1 28 3.</_></rects>
      <tilted>0</tilted></_>
    <_>
      <rects>
        <_>
          12 0 1 2 -1.</_>
        <_>
          12 1 1 1 2.</_></rects>
      <tilted>0</tilted></_>
    <_>
      <rects>
        <_>
          12 0 4 2 -1.</_>
        <_>
          12 1 4 1 2.</_></rects>
      <tilted>0</tilted></_>
    <_>
      <rects>
        <_>
          12 9 33 32 -1.</_>
        <_>
          23 9 11 32 3.</_></rects>
      <tilted>0</tilted></_>
    <_>
      <rects>
        <_>
          12 42 15 4 -1.</_>
        <_>
          12 44 15 2 2.</_></rects>
      <tilted>0</tilted></_>
    <_>
      <rects>
        <_>
          13 0 1 2 -1.</_>
        <_>
          13 1 1 1 2.</_></rects>
      <tilted>0</tilted></_>
    <_>
      <rects>
        <_>
          13 0 1 4 -1.</_>
        <_>
          13 2 1 2 2.</_></rects>
      <tilted>0</tilted></_>
    <_>
      <rects>
        <_>
          13 0 5 3 -1.</_>
        <_>
          13 1 5 1 3.</_></rects>
      <tilted>0</tilted></_>
    <_>
      <rects>
        <_>
          13 3 13 6 -1.</_>
        <_>
          13 6 13 3 2.</_></rects>
      <tilted>0</tilted></_>
    <_>
      <rects>
        <_>
          13 30 32 4 -1.</_>
        <_>
          13 30 16 2 2.</_>
        <_>
          29 32 16 2 2.</_></rects>
      <tilted>0</tilted></_>
    <_>
      <rects>
        <_>
          13 45 12 4 -1.</_>
        <_>
          13 47 12 2 2.</_></rects>
      <tilted>0</tilted></_>
    <_>
      <rects>
        <_>
          14 1 7 48 -1.</_>
        <_>
          14 17 7 16 3.</_></rects>
      <tilted>0</tilted></_>
    <_>
      <rects>
        <_>
          14 3 14 34 -1.</_>
        <_>
          14 20 14 17 2.</_></rects>
      <tilted>0</tilted></_>
    <_>
      <rects>
        <_>
          14 10 15 20 -1.</_>
        <_>
          19 10 5 20 3.</_></rects>
      <tilted>0</tilted></_>
    <_>
      <rects>
        <_>
          14 17 24 14 -1.</_>
        <_>
          22 17 8 14 3.</_></rects>
      <tilted>0</tilted></_>
    <_>
      <rects>
        <_>
          15 0 28 1 -1.</_>
        <_>
          29 0 14 1 2.</_></rects>
      <tilted>0</tilted></_>
    <_>
      <rects>
        <_>
          15 9 24 24 -1.</_>
        <_>
          15 17 24 8 3.</_></rects>
      <tilted>0</tilted></_>
    <_>
      <rects>
        <_>
          15 21 34 22 -1.</_>
        <_>
          15 21 17 11 2.</_>
        <_>
          32 32 17 11 2.</_></rects>
      <tilted>0</tilted></_>
    <_>
      <rects>
        <_>
          16 34 17 3 -1.</_>
        <_>
          16 35 17 1 3.</_></rects>
      <tilted>0</tilted></_>
    <_>
      <rects>
        <_>
          17 0 7 46 -1.</_>
        <_>
          17 23 7 23 2.</_></rects>
      <tilted>0</tilted></_>
    <_>
      <rects>
        <_>
          17 5 24 45 -1.</_>
        <_>
          17 20 24 15 3.</_></rects>
      <tilted>0</tilted></_>
    <_>
      <rects>
        <_>
          17 7 2 4 -1.</_>
        <_>
          17 9 2 2 2.</_></rects>
      <tilted>0</tilted></_>
    <_>
      <rects>
        <_>
          17 10 30 21 -1.</_>
        <_>
          32 10 15 21 2.</_></rects>
      <tilted>0</tilted></_>
    <_>
      <rects>
        <_>
          17 10 32 7 -1.</_>
        <_>
          33 10 16 7 2.</_></rects>
      <tilted>0</tilted></_>
    <_>
      <rects>
        <_>
          17 34 5 3 -1.</_>
        <_>
          17 35 5 1 3.</_></rects>
      <tilted>0</tilted></_>
    <_>
      <rects>
        <_>
          18 0 2 9 -1.</_>
        <_>
          18 3 2 3 3.</_></rects>
      <tilted>0</tilted></_>
    <_>
      <rects>
        <_>
          18 19 30 28 -1.</_>
        <_>
          18 19 15 14 2.</_>
        <_>
          33 33 15 14 2.</_></rects>
      <tilted>0</tilted></_>
    <_>
      <rects>
        <_>
          18 43 2 6 -1.</_>
        <_>
          18 46 2 3 2.</_></rects>
      <tilted>0</tilted></_>
    <_>
      <rects>
        <_>
          18 49 8 1 -1.</_>
        <_>
          22 49 4 1 2.</_></rects>
      <tilted>0</tilted></_>
    <_>
      <rects>
        <_>
          19 0 5 10 -1.</_>
        <_>
          19 5 5 5 2.</_></rects>
      <tilted>0</tilted></_>
    <_>
      <rects>
        <_>
          19 2 9 29 -1.</_>
        <_>
          22 2 3 29 3.</_></rects>
      <tilted>0</tilted></_>
    <_>
      <rects>
        <_>
          19 10 26 8 -1.</_>
        <_>
          32 10 13 8 2.</_></rects>
      <tilted>0</tilted></_>
    <_>
      <rects>
        <_>
          19 12 3 36 -1.</_>
        <_>
          20 12 1 36 3.</_></rects>
      <tilted>0</tilted></_>
    <_>
      <rects>
        <_>
          20 6 8 4 -1.</_>
        <_>
          20 6 4 2 2.</_>
        <_>
          24 8 4 2 2.</_></rects>
      <tilted>0</tilted></_>
    <_>
      <rects>
        <_>
          20 8 9 17 -1.</_>
        <_>
          23 8 3 17 3.</_></rects>
      <tilted>0</tilted></_>
    <_>
      <rects>
        <_>
          20 9 12 17 -1.</_>
        <_>
          24 9 4 17 3.</_></rects>
      <tilted>0</tilted></_>
    <_>
      <rects>
        <_>
          20 15 3 8 -1.</_>
        <_>
          21 15 1 8 3.</_></rects>
      <tilted>0</tilted></_>
    <_>
      <rects>
        <_>
          20 16 10 34 -1.</_>
        <_>
          20 16 5 17 2.</_>
        <_>
          25 33 5 17 2.</_></rects>
      <tilted>0</tilted></_>
    <_>
      <rects>
        <_>
          20 21 16 9 -1.</_>
        <_>
          20 24 16 3 3.</_></rects>
      <tilted>0</tilted></_>
    <_>
      <rects>
        <_>
          21 0 1 2 -1.</_>
        <_>
          21 1 1 1 2.</_></rects>
      <tilted>0</tilted></_>
    <_>
      <rects>
        <_>
          21 2 1 9 -1.</_>
        <_>
          21 5 1 3 3.</_></rects>
      <tilted>0</tilted></_>
    <_>
      <rects>
        <_>
          21 3 5 40 -1.</_>
        <_>
          21 23 5 20 2.</_></rects>
      <tilted>0</tilted></_>
    <_>
      <rects>
        <_>
          21 4 3 19 -1.</_>
        <_>
          22 4 1 19 3.</_></rects>
      <tilted>0</tilted></_>
    <_>
      <rects>
        <_>
          21 6 6 2 -1.</_>
        <_>
          23 6 2 2 3.</_></rects>
      <tilted>0</tilted></_>
    <_>
      <rects>
        <_>
          22 0 1 4 -1.</_>
        <_>
          22 2 1 2 2.</_></rects>
      <tilted>0</tilted></_>
    <_>
      <rects>
        <_>
          22 3 2 2 -1.</_>
        <_>
          22 4 2 1 2.</_></rects>
      <tilted>0</tilted></_>
    <_>
      <rects>
        <_>
          22 3 6 2 -1.</_>
        <_>
          22 4 6 1 2.</_></rects>
      <tilted>0</tilted></_>
    <_>
      <rects>
        <_>
          22 7 5 10 -1.</_>
        <_>
          22 12 5 5 2.</_></rects>
      <tilted>0</tilted></_>
    <_>
      <rects>
        <_>
          22 10 22 9 -1.</_>
        <_>
          22 13 22 3 3.</_></rects>
      <tilted>0</tilted></_>
    <_>
      <rects>
        <_>
          22 38 8 6 -1.</_>
        <_>
          26 38 4 6 2.</_></rects>
      <tilted>0</tilted></_>
    <_>
      <rects>
        <_>
          22 42 4 4 -1.</_>
        <_>
          22 44 4 2 2.</_></rects>
      <tilted>0</tilted></_>
    <_>
      <rects>
        <_>
          23 2 6 4 -1.</_>
        <_>
          26 2 3 4 2.</_></rects>
      <tilted>0</tilted></_>
    <_>
      <rects>
        <_>
          23 4 1 2 -1.</_>
        <_>
          23 5 1 1 2.</_></rects>
      <tilted>0</tilted></_>
    <_>
      <rects>
        <_>
          23 5 1 2 -1.</_>
        <_>
          23 6 1 1 2.</_></rects>
      <tilted>0</tilted></_>
    <_>
      <rects>
        <_>
          23 5 3 28 -1.</_>
        <_>
          24 5 1 28 3.</_></rects>
      <tilted>0</tilted></_>
    <_>
      <rects>
        <_>
          23 19 4 4 -1.</_>
        <_>
          25 19 2 4 2.</_></rects>
      <tilted>0</tilted></_>
    <_>
      <rects>
        <_>
          24 0 5 2 -1.</_>
        <_>
          24 1 5 1 2.</_></rects>
      <tilted>0</tilted></_>
    <_>
      <rects>
        <_>
          24 31 4 18 -1.</_>
        <_>
          24 40 4 9 2.</_></rects>
      <tilted>0</tilted></_>
    <_>
      <rects>
        <_>
          25 6 21 37 -1.</_>
        <_>
          32 6 7 37 3.</_></rects>
      <tilted>0</tilted></_>
    <_>
      <rects>
        <_>
          25 31 19 18 -1.</_>
        <_>
          25 40 19 9 2.</_></rects>
      <tilted>0</tilted></_>
    <_>
      <rects>
        <_>
          26 4 24 24 -1.</_>
        <_>
          26 4 12 12 2.</_>
        <_>
          38 16 12 12 2.</_></rects>
      <tilted>0</tilted></_>
    <_>
      <rects>
        <_>
          26 48 2 2 -1.</_>
        <_>
          27 48 1 2 2.</_></rects>
      <tilted>0</tilted></_>
    <_>
      <rects>
        <_>
          27 4 2 2 -1.</_>
        <_>
          27 5 2 1 2.</_></rects>
      <tilted>0</tilted></_>
    <_>
      <rects>
        <_>
          27 17 3 13 -1.</_>
        <_>
          28 17 1 13 3.</_></rects>
      <tilted>0</tilted></_>
    <_>
      <rects>
        <_>
          27 31 8 4 -1.</_>
        <_>
          27 31 4 2 2.</_>
        <_>
          31 33 4 2 2.</_></rects>
      <tilted>0</tilted></_>
    <_>
      <rects>
        <_>
          28 7 3 27 -1.</_>
        <_>
          29 7 1 27 3.</_></rects>
      <tilted>0</tilted></_>
    <_>
      <rects>
        <_>
          28 12 3 17 -1.</_>
        <_>
          29 12 1 17 3.</_></rects>
      <tilted>0</tilted></_>
    <_>
      <rects>
        <_>
          28 12 18 18 -1.</_>
        <_>
          34 12 6 18 3.</_></rects>
      <tilted>0</tilted></_>
    <_>
      <rects>
        <_>
          28 20 9 12 -1.</_>
        <_>
          28 24 9 4 3.</_></rects>
      <tilted>0</tilted></_>
    <_>
      <rects>
        <_>
          28 32 21 4 -1.</_>
        <_>
          35 32 7 4 3.</_></rects>
      <tilted>0</tilted></_>
    <_>
      <rects>
        <_>
          29 1 3 25 -1.</_>
        <_>
          30 1 1 25 3.</_></rects>
      <tilted>0</tilted></_>
    <_>
      <rects>
        <_>
          29 10 1 2 -1.</_>
        <_>
          29 11 1 1 2.</_></rects>
      <tilted>0</tilted></_>
    <_>
      <rects>
        <_>
          30 33 2 6 -1.</_>
        <_>
          30 35 2 2 3.</_></rects>
      <tilted>0</tilted></_>
    <_>
      <rects>
        <_>
          31 0 1 24 -1.</_>
        <_>
          31 8 1 8 3.</_></rects>
      <tilted>0</tilted></_>
    <_>
      <rects>
        <_>
          31 2 3 2 -1.</_>
        <_>
          31 3 3 1 2.</_></rects>
      <tilted>0</tilted></_>
    <_>
      <rects>
        <_>
          31 7 1 2 -1.</_>
        <_>
          31 8 1 1 2.</_></rects>
      <tilted>0</tilted></_>
    <_>
      <rects>
        <_>
          31 36 14 2 -1.</_>
        <_>
          31 36 7 1 2.</_>
        <_>
          38 37 7 1 2.</_></rects>
      <tilted>0</tilted></_>
    <_>
      <rects>
        <_>
          32 32 8 9 -1.</_>
        <_>
          32 35 8 3 3.</_></rects>
      <tilted>0</tilted></_>
    <_>
      <rects>
        <_>
          32 33 3 6 -1.</_>
        <_>
          32 35 3 2 3.</_></rects>
      <tilted>0</tilted></_>
    <_>
      <rects>
        <_>
          33 12 10 7 -1.</_>
        <_>
          38 12 5 7 2.</_></rects>
      <tilted>0</tilted></_>
    <_>
      <rects>
        <_>
          33 13 8 7 -1.</_>
        <_>
          37 13 4 7 2.</_></rects>
      <tilted>0</tilted></_>
    <_>
      <rects>
        <_>
          33 40 2 2 -1.</_>
        <_>
          33 40 1 1 2.</_>
        <_>
          34 41 1 1 2.</_></rects>
      <tilted>0</tilted></_>
    <_>
      <rects>
        <_>
          34 1 3 26 -1.</_>
        <_>
          35 1 1 26 3.</_></rects>
      <tilted>0</tilted></_>
    <_>
      <rects>
        <_>
          34 20 10 15 -1.</_>
        <_>
          34 25 10 5 3.</_></rects>
      <tilted>0</tilted></_>
    <_>
      <rects>
        <_>
          34 25 5 22 -1.</_>
        <_>
          34 36 5 11 2.</_></rects>
      <tilted>0</tilted></_>
    <_>
      <rects>
        <_>
          34 35 9 2 -1.</_>
        <_>
          34 36 9 1 2.</_></rects>
      <tilted>0</tilted></_>
    <_>
      <rects>
        <_>
          35 7 1 2 -1.</_>
        <_>
          35 8 1 1 2.</_></rects>
      <tilted>0</tilted></_>
    <_>
      <rects>
        <_>
          35 10 3 19 -1.</_>
        <_>
          36 10 1 19 3.</_></rects>
      <tilted>0</tilted></_>
    <_>
      <rects>
        <_>
          35 19 3 4 -1.</_>
        <_>
          36 19 1 4 3.</_></rects>
      <tilted>0</tilted></_>
    <_>
      <rects>
        <_>
          36 27 3 3 -1.</_>
        <_>
          37 27 1 3 3.</_></rects>
      <tilted>0</tilted></_>
    <_>
      <rects>
        <_>
          36 30 2 1 -1.</_>
        <_>
          37 30 1 1 2.</_></rects>
      <tilted>0</tilted></_>
    <_>
      <rects>
        <_>
          37 5 3 17 -1.</_>
        <_>
          38 5 1 17 3.</_></rects>
      <tilted>0</tilted></_>
    <_>
      <rects>
        <_>
          37 8 3 20 -1.</_>
        <_>
          38 8 1 20 3.</_></rects>
      <tilted>0</tilted></_>
    <_>
      <rects>
        <_>
          37 10 1 2 -1.</_>
        <_>
          37 11 1 1 2.</_></rects>
      <tilted>0</tilted></_>
    <_>
      <rects>
        <_>
          37 23 3 2 -1.</_>
        <_>
          38 23 1 2 3.</_></rects>
      <tilted>0</tilted></_>
    <_>
      <rects>
        <_>
          38 13 12 5 -1.</_>
        <_>
          42 13 4 5 3.</_></rects>
      <tilted>0</tilted></_>
    <_>
      <rects>
        <_>
          38 35 6 2 -1.</_>
        <_>
          38 36 6 1 2.</_></rects>
      <tilted>0</tilted></_>
    <_>
      <rects>
        <_>
          38 40 4 8 -1.</_>
        <_>
          38 40 2 4 2.</_>
        <_>
          40 44 2 4 2.</_></rects>
      <tilted>0</tilted></_>
    <_>
      <rects>
        <_>
          39 41 2 1 -1.</_>
        <_>
          40 41 1 1 2.</_></rects>
      <tilted>0</tilted></_>
    <_>
      <rects>
        <_>
          39 41 2 2 -1.</_>
        <_>
          39 41 1 1 2.</_>
        <_>
          40 42 1 1 2.</_></rects>
      <tilted>0</tilted></_>
    <_>
      <rects>
        <_>
          39 43 2 2 -1.</_>
        <_>
          39 43 1 1 2.</_>
        <_>
          40 44 1 1 2.</_></rects>
      <tilted>0</tilted></_>
    <_>
      <rects>
        <_>
          40 2 3 31 -1.</_>
        <_>
          41 2 1 31 3.</_></rects>
      <tilted>0</tilted></_>
    <_>
      <rects>
        <_>
          40 25 5 3 -1.</_>
        <_>
          40 26 5 1 3.</_></rects>
      <tilted>0</tilted></_>
    <_>
      <rects>
        <_>
          40 31 1 6 -1.</_>
        <_>
          40 33 1 2 3.</_></rects>
      <tilted>0</tilted></_>
    <_>
      <rects>
        <_>
          41 2 1 2 -1.</_>
        <_>
          41 3 1 1 2.</_></rects>
      <tilted>0</tilted></_>
    <_>
      <rects>
        <_>
          41 32 6 6 -1.</_>
        <_>
          41 34 6 2 3.</_></rects>
      <tilted>0</tilted></_>
    <_>
      <rects>
        <_>
          42 0 2 2 -1.</_>
        <_>
          42 1 2 1 2.</_></rects>
      <tilted>0</tilted></_>
    <_>
      <rects>
        <_>
          42 3 1 2 -1.</_>
        <_>
          42 4 1 1 2.</_></rects>
      <tilted>0</tilted></_>
    <_>
      <rects>
        <_>
          42 24 2 24 -1.</_>
        <_>
          42 36 2 12 2.</_></rects>
      <tilted>0</tilted></_>
    <_>
      <rects>
        <_>
          42 36 7 14 -1.</_>
        <_>
          42 43 7 7 2.</_></rects>
      <tilted>0</tilted></_>
    <_>
      <rects>
        <_>
          42 41 5 3 -1.</_>
        <_>
          42 42 5 1 3.</_></rects>
      <tilted>0</tilted></_>
    <_>
      <rects>
        <_>
          43 21 7 12 -1.</_>
        <_>
          43 25 7 4 3.</_></rects>
      <tilted>0</tilted></_>
    <_>
      <rects>
        <_>
          43 41 1 3 -1.</_>
        <_>
          43 42 1 1 3.</_></rects>
      <tilted>0</tilted></_>
    <_>
      <rects>
        <_>
          44 7 1 2 -1.</_>
        <_>
          44 8 1 1 2.</_></rects>
      <tilted>0</tilted></_>
    <_>
      <rects>
        <_>
          46 3 3 24 -1.</_>
        <_>
          47 3 1 24 3.</_></rects>
      <tilted>0</tilted></_>
    <_>
      <rects>
        <_>
          46 4 3 25 -1.</_>
        <_>
          47 4 1 25 3.</_></rects>
      <tilted>0</tilted></_>
    <_>
      <rects>
        <_>
          46 48 2 1 -1.</_>
        <_>
          47 48 1 1 2.</_></rects>
      <tilted>0</tilted></_>
    <_>
      <rects>
        <_>
          47 0 2 2 -1.</_>
        <_>
          47 1 2 1 2.</_></rects>
      <tilted>0</tilted></_>
    <_>
      <rects>
        <_>
          47 23 3 4 -1.</_>
        <_>
          48 23 1 4 3.</_></rects>
      <tilted>0</tilted></_>
    <_>
      <rects>
        <_>
          47 26 2 2 -1.</_>
        <_>
          48 26 1 2 2.</_></rects>
      <tilted>0</tilted></_>
    <_>
      <rects>
        <_>
          48 3 1 2 -1.</_>
        <_>
          48 4 1 1 2.</_></rects>
      <tilted>0</tilted></_>
    <_>
      <rects>
        <_>
          48 4 2 1 -1.</_>
        <_>
          49 4 1 1 2.</_></rects>
      <tilted>0</tilted></_>
    <_>
      <rects>
        <_>
          48 48 2 1 -1.</_>
        <_>
          49 48 1 1 2.</_></rects>
      <tilted>0</tilted></_></features></cascade>
</opencv_storage>
